http://dbpedia.org/resource/Mumbai -0.0028696712 0.049509455 0.22193344 -0.016397716 -0.16306496 -0.14833525 -0.017082755 0.13172711 -0.26298875 -0.10865783 0.2561196 0.080584995 -0.16005003 0.15323152 -0.080394894 0.14825897 0.067087024 -0.0068053687 0.113543056 -0.3572746 0.15960737 -0.07994043 0.41733146 0.102508456 -0.08596326 0.10252154 -0.21196078 0.1356808 -0.061643492 -0.13479829 -0.07760052 0.26764268 0.095963165 -0.07631983 0.23033462 -0.184608 0.04158899 -0.17113003 -0.19743937 0.03780637 0.110542014 -0.19954324 -0.24747251 0.18300894 -0.044870272 -0.09453235 -0.094699025 0.09948338 -0.093817316 -0.019615568 -0.070061095 0.12857342 -0.042346258 -0.0826239 0.10164589 -0.21230872 -0.17864056 -0.19477677 -0.005488265 -0.051445037 -0.13074242 -0.12756696 0.034090314 0.031897817 -0.08118406 0.006447828 0.10123867 0.10460088 -0.046264756 0.06063463 -0.21949174 0.15024617 -0.23716941 0.09720427 0.11925548 0.21886665 0.038809862 0.019856075 -0.017639305 -0.094071954 0.016867515 -0.05289646 0.3595902 0.23591003 -0.33959734 0.12002958 0.2550647 0.0210032 -0.24394126 -0.015285998 0.24549398 -0.09918148 -0.13953619 0.109662175 -0.07229722 -0.075751916 0.07511991 0.021997845 -0.041010305 0.1451414 -0.06251097 0.026890362 0.08274872 0.16307932 -0.25543416 -0.07502472 0.0061666323 0.2145841 -0.22995749 -0.009714581 -0.10340866 -0.028336918 -0.27904537 -0.10497322 0.032827973 -0.14951913 -0.16450165 -0.049344484 -0.13864198 -0.14594364 -0.1569663 -0.112475604 0.17485146 -0.25808206 -0.24108325 -0.13170528 -0.21714982 -0.026905049 0.103641205 0.22822122 0.08012149 -0.18180233 -0.14702998 -0.13274197 0.05062985 0.06250619 0.13345625 0.18516107 0.018097885 0.068200804 0.24832523 -0.28515998 -0.34310707 0.14666659 0.059621178 0.12421754 -0.0010398487 0.106569804 0.19322199 0.113629654 0.097580105 -0.36814827 0.40230143 0.312076 -0.20150402 0.2920027 0.22564961 -0.12058217 -0.029437717 0.119874954 0.10867061 -0.037840806 0.054947134 -0.35383448 0.1655984 0.20546514 0.17187518 0.20621407 -0.04743093 -0.034352507 -0.106041454 -0.0102029005 0.2423333 0.0916319 -0.22195648 0.30224067 -0.11977416 -0.1188924 0.12725557 -0.11273311 -0.01835878 -0.062410478 -0.023423377 -0.28801495 0.15841693 -0.22864008 -0.2596907 -0.074348465 0.088707015 0.23925349 0.28353065 -0.0121202925 -0.2974104 -0.0580175 0.18396637 0.10343002 -0.032470692 -0.11539501 -0.07622381 -0.1119835 
http://www.w3.org/2000/01/rdf-schema#seeAlso 0.048390836 0.085984945 0.15564172 -0.009164381 -0.1899709 -0.10357774 -0.06666914 0.118694656 -0.39116293 -0.10024861 0.31689003 0.03025693 0.06780245 0.2184275 0.03713074 0.054154404 0.15565445 0.16442858 -0.13173464 -0.4974544 0.12768011 -0.19639792 0.4370786 -0.03770085 0.025399582 -0.04260401 -0.020419136 0.28624752 -0.20428683 -0.19585359 -0.028247036 0.08543744 0.16790968 -0.10398998 0.058795452 -0.24606198 0.11115194 -0.0022819273 -0.23125063 -0.039027873 -0.033261903 -0.08031664 -0.37816125 0.3048359 -0.017291062 -0.098840185 -0.134041 0.12822707 -0.15515912 0.102108374 -0.17390344 0.072131 -0.3096376 -0.2157942 0.006947643 -0.2974736 -0.19908476 -0.26980275 -0.14578588 -0.086736485 -0.027784439 -0.18338458 0.18842077 0.042816635 -0.2089276 0.23044354 0.085086755 0.1743027 -0.08027409 0.11037482 -0.050988384 0.30408227 -0.2267134 0.23923269 0.13953394 0.43621388 0.2302073 0.05741589 -0.10014642 -0.1415742 0.10848048 -0.18724976 0.2563133 0.24187924 -0.44131622 0.05063924 0.19997674 -0.24265239 -0.14996287 0.05516415 0.13099386 -0.052647203 -0.007780319 0.14096816 0.027526485 0.011726553 0.14305851 0.01581585 0.028759792 -0.029503834 -0.1654005 0.13456094 0.13254273 0.23156776 -0.15421304 -0.20766392 0.0019820253 0.39567846 -0.10109784 -0.20744474 0.08052419 0.106145725 -0.28375107 -0.110028565 0.18063334 -0.18784025 0.018074233 -0.06275291 -0.35645553 0.03723331 -0.17757688 -0.2910514 0.4141664 -0.25638312 -0.368942 -0.15315051 -0.2624151 0.09811238 0.2222718 0.26489332 0.03667405 -0.32969016 -0.2436367 -0.23379126 0.18696031 0.1598576 0.26325306 0.057199955 -0.21030092 0.3233433 0.19456892 -0.14103332 -0.19936089 0.14957143 0.1848174 0.19238448 0.1920192 0.018423356 0.02770197 0.14102945 0.27729622 -0.46068314 0.21033333 0.20815259 -0.30777115 0.19095135 0.27356204 0.0032516993 0.061803516 0.026787894 0.04020537 -0.008557813 0.2150718 -0.39822596 0.2287386 0.16719264 0.21489744 0.36636245 -0.11998329 -0.09461705 0.034352805 -0.12043506 0.3478307 0.28263256 -0.31209567 0.18744348 -0.22295736 0.017697375 0.08529895 -0.14766964 -0.27628577 0.12921594 0.0017638383 -0.3882641 0.17320497 -0.31365237 -0.086780354 -0.09475821 0.022847712 0.15017961 0.17083476 -0.11614909 -0.38804567 -0.15606704 0.35071656 0.08592571 -0.08572529 -0.1561639 -0.2739051 -0.14396742 
http://dbpedia.org/resource/State_Bank_of_India -0.42025745 0.124682106 -0.3173551 -0.012453554 0.31013024 0.23611677 -0.115095854 0.06318689 -0.1608726 0.33994064 -0.30684915 0.17456143 -0.1656603 -0.021175573 -0.07224685 -0.050843216 -0.20757352 0.13493618 0.08290329 0.012587587 -0.0020851707 -0.27389675 0.009641178 0.09692217 -0.09859701 -0.127949 0.040331475 0.1234236 -0.23945116 0.014706716 0.2591034 0.021950142 -0.060381554 -0.22394666 0.3887867 -0.21296428 -0.09737893 0.32077897 0.12170269 0.26634666 0.07703126 -0.18891306 -0.28124392 0.37916675 0.06378341 -0.28688893 0.40876126 0.083477944 0.08898115 -0.15893532 0.30006942 0.21036474 0.43036702 -0.30040988 -0.085635565 0.029941639 -0.27831918 0.008415362 -0.0799018 -0.16369143 0.24588107 -0.078888796 0.047962643 0.08533873 -0.027730346 -0.1702863 0.48290902 0.44165736 -0.025356267 0.40164623 -0.28731856 -0.10138296 0.010980747 0.07234683 -0.03732562 0.30631164 -0.12444504 0.093175486 0.15629831 -0.31167313 -0.31431893 -0.22019976 0.10262071 -0.12947544 -0.27994564 -0.110208146 0.08356817 0.09165264 -0.1306205 -0.23553951 0.16167717 -0.14770077 0.07090898 0.042414 0.0410444 -0.18814784 0.057882417 0.36398554 0.0038291775 -0.047453515 -0.46075317 0.17778438 -0.20403527 -0.43301573 -0.36267203 -0.011442801 -0.05843554 0.26216185 -0.042044323 0.03651633 -0.048637852 -0.0996366 -0.21164343 -0.25574362 -0.1798643 -0.3659121 -0.28329659 -0.41392025 0.079015724 0.28372073 -0.2776679 -0.07062506 0.27766353 0.38700718 -0.25587156 -0.19982147 0.07838782 -0.50407916 0.24036022 -0.09443115 0.12689319 -0.21937467 -0.1582402 -0.05679736 0.031026635 0.25785342 0.19313155 0.103189014 0.10311979 -0.14438745 0.09134156 -0.15199168 -0.20145614 -0.093149215 -0.101089634 0.03703636 -0.070898116 0.25581372 -0.21965414 -0.101391755 0.2886054 -0.11443224 0.061330047 0.3413804 -0.05774342 -0.21540126 0.50140864 -0.43214375 -0.14984609 -0.29243228 0.12940218 -0.019379025 0.44982883 -0.38793665 0.13978568 -0.13422774 0.22858717 -0.004665058 -0.17351255 -0.24302775 0.06685571 0.04386668 0.07078275 0.11611119 -0.035353437 0.2578977 -0.38344234 0.07715346 -0.04769797 0.31506395 0.2583582 -0.1756945 0.32978222 -0.3213983 -0.024447214 -0.23003006 -0.17163521 0.28753713 -0.1841518 0.22169486 0.23468818 0.2916439 -0.11023453 -0.1458008 0.47068715 0.28276387 -0.10826982 -0.06808525 0.025966533 -0.25047183 
http://dbpedia.org/ontology/location 0.010565635 0.042166736 -0.09928124 -0.11435693 0.33626962 0.20722175 0.0056012524 0.00013741959 -0.34586763 0.1329548 -0.007519761 0.07121507 0.052134242 0.22262068 0.011451851 -0.0040168534 0.11999287 0.2206851 0.07356025 -0.36327985 -0.067591906 -0.285581 0.3262597 0.036759883 -0.014682949 0.014669014 -0.046298962 -0.085833654 -0.112359434 -0.10235821 0.43867755 0.22224738 -0.19334702 0.0064571854 0.046757907 -0.17174056 -0.28915945 -0.035447463 -0.12760785 -0.28001294 0.37817258 -0.34950423 0.03866769 0.18561481 0.2031781 0.18084186 -0.04611058 -0.2059643 -0.27262914 -0.25419933 0.13840362 -0.23243064 -0.052163597 -0.15308844 -0.33576998 -0.34851977 -0.31254888 -0.30910742 -0.2163344 -0.5021998 0.10960973 -0.18728007 0.41548488 0.14651851 -0.20337151 0.13039644 0.1679638 0.14188115 -0.2923694 0.12085875 -0.36757863 0.18412633 -0.10303873 0.36984253 0.12506822 0.08899982 -0.044496696 0.21677297 -0.11867849 -0.06695618 0.1106792 -0.48606157 -0.19171575 0.05858039 -0.18601239 -0.18011658 0.34303087 -0.20061828 -0.25372067 -0.13123126 -0.024873875 0.0016584668 -0.012613669 0.1324769 -0.0027944774 -0.15686813 0.32309264 0.09584972 0.053920325 -0.06462301 0.02222706 -0.065320514 0.023222404 -0.013815882 -0.405421 -0.04705824 0.10413483 0.14869674 -0.15489511 -0.14295232 -0.009596682 0.13530801 0.016896801 -0.33028603 0.036420386 -0.19367589 -0.121834815 -0.3794921 -0.20463437 -0.2581272 -0.17936927 0.08324693 0.12287459 0.027915943 -0.49683353 0.018936766 -0.049280826 -0.056356627 0.08929341 0.23366135 -0.18336551 -0.026348423 -0.18845892 -0.18017279 -0.04101698 0.114153974 0.003940859 -0.10546948 -0.24109341 0.013118292 0.31556264 -0.075893834 -0.00026733577 0.031194175 0.34124076 -0.065394066 -0.34602556 0.17434631 0.25768748 -0.003284102 -0.0944742 -0.061389077 0.3017304 0.034310132 -0.29814407 0.17535307 -0.0655156 -0.09068565 0.0319965 -0.07606988 0.49456996 -0.048640013 0.21278156 0.03724012 0.22375393 0.09006064 -0.2133256 0.48421636 -0.19177367 -0.52509576 0.27262568 0.082618766 0.11206213 0.01752609 -0.2731747 0.23187102 0.07018057 -0.067409046 0.14864771 -0.020272372 0.05909974 -0.13269366 -0.15050216 -0.03005676 0.06844955 -0.25540617 0.09282276 0.494224 0.18140252 0.17957774 0.2227978 0.05479194 -0.4918332 0.15855259 0.39041418 0.11098409 -0.21698496 -0.30199265 0.22158939 -0.2927954 
http://dbpedia.org/ontology/isPartOf -0.37180054 0.32743642 0.26643208 0.22519043 -0.04071003 -0.0067320648 0.33313823 0.02952869 -0.46241748 -0.0102447895 0.29001182 -0.23812348 0.23721536 0.04298114 0.12260126 0.21938902 -0.2794513 -0.067727245 -0.2490977 -0.38174507 0.17993276 0.16165471 0.73503715 -0.19050217 0.057473823 0.1760777 -0.1521143 -0.1695037 -0.12669106 -0.43813562 0.18702406 -0.045072284 0.3834359 0.1593582 0.12185693 -0.051178318 0.12723513 0.30891937 -0.16197142 -0.24294955 -0.106856175 0.015646521 -0.30717924 0.073831335 -0.1599316 -0.24161439 0.033346217 0.20019263 -0.14873691 0.014659589 -0.16216391 -0.0006989216 -0.05780298 -0.35315293 0.314396 -0.30352354 -0.22771315 -0.16451374 0.011829774 -0.23479651 -0.41200775 -0.28687593 0.362652 -0.048233204 -0.38402626 -0.105663456 -0.043463044 0.4833993 -0.27878672 0.25163645 -0.28005424 0.27362534 0.07741012 0.41243848 -0.11743198 -0.016058372 -0.072094284 -0.27274153 -0.26005104 -0.09183194 -0.03692443 -0.4250512 0.42692983 0.2482769 -0.2603017 0.013279658 0.27684236 -0.23586237 -0.3798814 0.19075571 0.0029843492 0.10159496 0.16339289 0.11430683 0.3470332 0.22459714 0.23900357 0.2832622 0.15317091 -0.085114636 -0.40552577 -0.11824425 -0.17867711 0.3312121 -0.28766608 -0.33836764 -0.100660376 0.4245713 -0.36643246 -0.19797115 -0.00265402 -0.1281349 -0.22616805 0.061866727 -0.040443838 0.06894871 0.06680826 -0.353481 0.02363488 -0.22695175 -0.23283248 0.06446798 0.010299753 -0.42267838 0.05266561 -0.20686686 -0.58685017 0.17956191 -0.013475156 0.0952159 0.2684903 -0.11470559 -0.074237935 0.021721743 -0.20064226 0.30698043 -0.010108255 0.35437033 0.06242614 0.18789916 0.31395924 -0.13852453 -0.25699443 0.08257848 0.07753572 0.26281962 -0.06426335 0.28850007 0.20058763 0.38234943 0.34389392 -0.041182853 0.3792823 0.58064014 -0.14407754 -0.023262175 0.12795793 -0.14613903 -0.13294883 0.022244092 0.026395787 0.18562381 0.40751204 -0.3778034 -0.0025206862 -0.01225534 -0.0139687965 -0.09554138 -0.065531574 -0.031628452 0.17739938 0.1370166 0.12941207 -0.22710681 0.0067518353 0.0740594 -0.14411493 -0.08860339 0.35499927 -0.03040347 0.032289788 -0.038160205 -0.20460255 -0.198802 0.12904015 -0.42284873 -0.4766741 -0.034170795 0.27254644 0.36993688 0.027870078 0.2128197 -0.098749615 0.16719033 0.44141153 -0.016279403 -0.4595847 0.03732534 0.16349554 -0.006078695 
http://dbpedia.org/ontology/parentCompany -0.08124971 0.17358096 0.11496056 -0.41220725 0.11057533 0.045414638 -0.28584215 0.122713216 -0.3352368 -0.041764725 -0.17124411 -0.21814182 0.28583166 -0.17180347 0.31934124 0.1920179 -0.23837668 -0.08230183 0.37394777 -0.1965505 -0.16382068 -0.199785 0.11154882 0.0585489 -0.1708173 0.2671154 -0.040724695 0.0027100318 0.11791519 0.29160953 0.038426224 0.11269956 0.053644363 0.02468315 0.35975894 0.14148477 0.114194706 0.19033429 -0.19505168 0.070023865 -0.05816639 -0.045506246 -0.2910403 0.4165576 -0.11185487 -0.25234494 0.24496834 0.009814764 -0.2583607 -0.20704556 0.0688448 -0.012527637 0.025722964 -0.14627542 0.20088375 -0.14394292 -0.42075545 -0.048359796 0.19377142 -0.05628623 -0.41475785 -0.1542885 0.08438561 0.20840855 -0.29220563 -0.10153721 0.10850328 0.05483299 -0.01972897 0.28051957 -0.026742406 0.1825332 0.007627777 0.40081614 -0.24480231 0.429343 0.0035659047 -0.21332575 0.081594 0.15726346 -0.054017745 0.0042050807 0.25715646 0.058148973 -0.2111171 0.023082895 -0.08166137 0.36419973 0.326439 0.121153325 0.3115243 0.10479708 0.078333005 0.112345226 -0.21087144 -0.10456444 0.43884736 0.028518949 0.33169043 -0.28359404 0.03216118 0.32145533 -0.23453449 -0.3583216 -0.14317524 -0.177046 0.068624936 0.231285 -0.19219875 -0.0346125 0.04518244 0.065913595 -0.13263018 -0.35476333 0.30309826 -0.403942 -0.21720476 -0.58395845 -0.06936484 -0.32067364 -0.1899988 -0.07857252 0.058079716 0.054806862 -0.4511145 -0.17108439 -0.0025425432 -0.11381739 0.17652342 -0.04459637 -0.0101129515 -0.25188866 -0.19530548 0.052263834 -0.096178256 0.27869695 0.09635762 0.107784726 -0.2206636 -0.26412395 -0.18931136 -0.06676845 0.16218121 0.12084137 0.002902992 -0.0711785 0.16258492 0.14265594 0.017540867 0.24954237 0.08771917 -0.08976789 0.30076087 0.34197685 -0.4343921 -0.06998895 0.14820944 0.19770159 -0.19270769 -0.38034648 0.36952725 0.05296269 0.26423967 -0.18453507 -0.026638895 0.14514601 0.073314585 0.18871863 -0.44672552 -0.11086822 -0.01462043 0.5447693 -0.12195329 0.08962254 0.13646618 0.37315947 -0.34571913 0.46125653 -0.13508958 0.06700932 0.34639978 0.07149498 -0.20749438 -0.15212162 0.16239417 -0.121805176 -0.2819992 0.07134105 0.10135357 0.22791144 0.22414683 0.090819925 -0.33071032 0.0026282247 0.49499568 -0.010317975 -0.055262823 -0.27209762 0.06208041 -0.19843842 
http://dbpedia.org/ontology/city -0.044613697 0.0743628 0.2597145 -0.024732454 -0.06940902 -0.06253982 0.108208045 0.27228558 -0.45395225 -0.08854438 0.103247575 -0.05359946 -0.04601196 0.23765889 -0.03142929 -0.026848773 0.111873835 0.15898317 -0.098909415 -0.6472443 0.06032583 -0.10560293 0.5484888 0.043759637 0.016565055 0.16544381 -0.25222212 0.17721273 -0.2680046 -0.0039775018 0.0021641878 0.21619393 0.15742938 -0.009650983 -0.05917056 -0.1868388 -0.03296946 -0.16041633 -0.2090752 -0.18900745 -0.073922865 -0.090855785 -0.29858282 0.104658976 -0.012810418 -0.0905941 -0.049560774 -0.035427116 -0.22589529 -0.034295555 -0.09241929 -0.048517067 -0.15068874 -0.31714272 0.10917218 -0.5427437 -0.286473 -0.3718028 -0.101629086 -0.14906505 -0.26980102 -0.2965476 0.22672555 -0.091221556 -0.30769143 0.091733284 0.30774313 0.2790185 -0.4032944 0.19208372 -0.16683435 0.41915286 -0.10963364 0.17591202 0.12500973 0.28147998 0.17940682 0.01044225 -0.30034384 -0.12862621 0.05017344 -0.24763195 0.2224337 0.538162 -0.3513287 -0.05382293 0.37411985 -0.14436539 -0.27643588 0.11358719 0.18443176 0.09027403 0.15454544 -0.020172855 0.2143637 0.07366142 0.27598712 0.00014393464 0.25993577 0.12969542 -0.28294203 0.27946696 0.015864106 0.23739727 -0.24350837 -0.27472156 0.08391631 0.27648002 -0.2908644 -0.29316166 0.006395628 0.043778762 -0.33928102 -0.23289122 0.24950814 -0.050648976 0.06204102 -0.17222284 -0.3743292 -0.2696292 -0.1914113 -0.030580636 0.33043098 -0.16549289 -0.20880982 0.07498948 -0.3317207 0.07994866 -0.008035325 0.4057859 0.14368036 -0.19230154 -0.14085753 -0.25110114 0.06139256 0.13288873 0.08484733 0.2515832 0.04887649 0.13086596 0.3289394 -0.3677259 -0.2538964 0.09936416 0.17287412 0.18881601 -0.08058531 0.1187309 0.404251 0.21471846 0.117504194 -0.45058894 0.31569532 0.17451045 -0.38196924 0.37864563 0.11471064 0.099636704 -0.11155871 0.16747615 0.30555555 0.10631197 0.18944979 -0.2793175 0.28437576 0.20048392 0.17015503 0.30281502 -0.11706903 -0.18933152 0.029193625 -0.02187491 0.18112136 0.13126628 -0.19364281 0.3159637 -0.2908496 -0.012830018 0.2655823 -0.18612915 0.0017077955 -0.039791018 -0.10604308 -0.17818165 0.20728067 -0.3718061 -0.058902554 0.044932403 0.16144116 -0.04104846 0.24690787 0.021198023 -0.34788418 -0.040206455 0.25330943 0.00045350922 0.06167157 -0.39664388 -0.1482987 -0.12012512 
http://dbpedia.org/ontology/product -0.0432578 0.057517316 -0.15008003 -0.25797254 0.39089668 0.11726537 -0.05729983 -0.0389854 -0.08937455 0.08684059 -0.03438367 -0.0028404247 -0.07857101 -0.07247775 -0.015665032 0.18414408 0.045911312 0.0536028 0.22436254 -0.053480696 -0.036399838 -0.19240259 0.07501214 -0.113465905 -0.24200755 0.11663252 -0.059257567 -0.21505833 0.12139534 -0.017103268 0.32298958 0.2255315 -0.20554222 0.060348913 0.18281257 -0.05997016 -0.19820094 0.13766739 -0.1342559 0.22123437 0.36175826 -0.27473772 0.16099027 0.25106093 0.032958344 -0.0061091813 0.22802854 -0.25784108 -0.21717094 -0.2094574 0.38770697 -0.040470038 0.14823881 -0.24068514 -0.27436346 -0.0446433 -0.22448105 0.108968705 -0.10109445 -0.37021285 -0.045325436 -0.150154 0.1825278 0.27673003 -0.038869955 -0.030867912 0.11609002 0.089799955 -0.013225162 0.06833648 -0.44617286 -0.12093121 0.07085751 0.29761493 0.01245766 0.05694465 -0.024700183 -0.026675997 0.048050426 0.18321323 -0.108539596 -0.13691536 0.035292108 -0.074478276 -0.1211935 -0.022545788 0.068048 0.19557309 -0.1128141 -0.33038703 0.26147714 -0.028660402 -0.09961291 0.16068883 -0.15667477 -0.08669679 0.33379474 0.30450076 -0.057714764 -0.06365517 -0.0749992 0.08467212 -0.0067701964 -0.08639232 -0.5234852 -0.008700996 -0.12992014 0.10621205 -0.15276071 0.13443139 -0.062167667 -0.058923896 -0.04738525 -0.24048083 -0.20297396 -0.36763868 -0.30773985 -0.44682857 0.07696175 -0.05122182 -0.2124829 0.19780418 0.004306144 0.035076123 -0.49333224 -0.15252805 -0.06391739 -0.15220584 0.07194834 -0.19600518 -0.28118587 -0.036701474 -0.13186365 0.10915725 -0.29357645 0.14423046 0.0042008734 -0.125439 -0.3573674 -0.22224835 0.13758229 -0.11933635 -0.06873932 0.13220568 0.18468378 -0.11385687 -0.25574997 0.0003729819 0.079884015 -0.03608939 -0.051083606 0.027306162 0.36813256 0.13105646 -0.13235322 -0.07484231 0.1581426 -0.3453946 0.0029560765 -0.038061287 0.38332832 -0.06627019 0.2500061 -0.15486673 0.1170931 -0.1416628 -0.08704032 0.3508811 -0.23207016 -0.23818621 0.0058635734 0.1480759 0.038198132 -0.0843228 -0.009910902 0.4674522 -0.0005949162 -0.05159672 -0.09952791 0.033349227 0.17183504 -0.037157543 -0.14126326 0.048528124 0.06259109 -0.14892215 -0.1838004 0.41147184 0.09394917 0.36408213 0.14580609 0.15970053 -0.30012074 0.083378196 0.33558688 0.18887915 -0.15469597 0.03327959 0.2815196 -0.30076957 
http://dbpedia.org/resource/Mumbai_Nagpur_Expressway -0.09596483 0.022205792 0.18930334 0.16230114 -0.12233943 -0.14171046 0.112407796 0.29992595 -0.46562263 0.010052871 0.14976302 -0.03966147 -0.15770228 0.33858436 -0.18486136 0.080872975 0.009791026 0.07958617 -0.19182603 -0.65182734 0.28236344 -0.048696592 0.52311856 0.049114298 0.032799773 0.074200064 -0.07095291 0.054642215 -0.32858256 -0.18140596 0.040431567 0.15904498 0.25035074 -0.21246931 0.101356156 -0.11261212 0.16649409 -0.10151757 -0.23161244 -0.14054249 -0.08833968 -0.24516743 -0.3718656 0.23627128 0.088346034 -0.07950258 -0.124629 0.11226912 0.0653801 0.023760594 -0.21087319 0.056666583 -0.050434273 -0.16880849 0.12888518 -0.32322988 -0.23322406 -0.4355786 -0.25716838 -0.09514482 -0.014397618 -0.16485448 0.07858911 -0.09890292 -0.21241626 0.09291905 0.14947096 0.47671837 -0.17132902 0.25294426 -0.1468831 0.35885513 -0.09797037 0.085351095 0.19281137 0.22404847 0.19572483 0.015293234 -0.056573343 -0.28276637 0.05661051 -0.29664272 0.15292579 0.3276534 -0.40922073 -0.0224915 0.23720166 -0.08275571 -0.28023925 0.036350485 0.2826009 0.08865159 0.1885721 0.15488127 0.20970479 0.17071809 -0.05108405 -0.023254288 0.046064578 0.10705879 -0.26075855 0.22584814 0.15366457 0.18677431 -0.09135923 -0.27135667 0.19112839 0.34648946 -0.21566452 -0.23783095 -0.021206198 -0.15588991 -0.154832 -0.13235688 0.11337996 -0.19487824 -0.02173746 -0.14222033 -0.22674198 -0.17158768 -0.16743316 -0.09751778 0.29052892 -0.30675042 -0.1896297 -0.05340835 -0.2773038 -0.010182924 -0.008781137 0.34499323 0.1715917 -0.20482181 -0.25935656 -0.25768924 0.053828143 0.29770824 0.13797772 0.2750849 0.18083519 0.10755736 0.4493585 -0.47434002 -0.33561483 0.06704102 0.1029532 0.25860295 -0.008277801 0.09323107 0.25156942 0.13343205 0.3194048 -0.3601136 0.41644248 0.18647291 -0.23616493 0.29690537 0.28368017 0.04598694 -0.07491002 0.19267602 0.123674825 0.0014105764 0.10017167 -0.4558995 0.29522458 0.15880118 0.21192043 0.1433611 -0.037485078 -0.13346732 -0.011775615 -0.12986761 0.2958049 0.2666226 -0.19676663 0.2586741 -0.34719905 -0.028964005 0.28071988 0.02937808 -0.09601585 0.07427478 0.013920289 -0.3615524 0.19233179 -0.32142112 -0.0966562 -0.09838214 0.24734372 0.08026622 0.27770963 0.03879815 -0.18780397 -0.1783197 0.30406082 0.12092993 -0.0251707 -0.25264153 -0.14675853 -0.2733254 
http://dbpedia.org/resource/SBI_Life_Insurance_Company 0.009828078 0.09158036 -0.10998109 -0.2047831 0.2053913 -0.060061622 -0.14663644 0.06225289 -0.12594295 0.038867835 0.006790198 -0.03022673 -0.04654807 0.056815494 0.027182203 0.20296866 -0.05239068 0.031638075 0.27664012 -0.11524944 0.10072719 -0.33673397 0.11906281 -0.058389656 -0.20524766 0.05508058 -0.07989505 0.010116987 0.02272196 -0.069419906 0.19377989 0.21798441 0.06017847 -0.097938694 0.30433708 -0.057637017 0.08066608 0.24263798 -0.18073331 0.23315477 0.11941677 -0.08171694 -0.13330899 0.24665987 -0.055772144 -0.18125305 0.18131149 0.0042229844 -0.065064 0.01451894 0.17534791 0.04164015 0.067168295 -0.19992693 0.09122862 0.034936722 -0.27785674 0.10837991 -0.09593849 -0.1811661 -0.16725194 -0.08778238 0.04299578 0.2569194 -0.056308176 -0.09355253 0.08883604 0.21098883 0.06995247 0.22478254 -0.25935867 -0.03881892 0.036412645 0.2929582 0.06460817 0.20088519 0.022753922 -0.15546186 0.06509036 0.043769643 -0.14284015 -0.030063856 0.12432215 0.033814006 -0.31466225 0.004009203 0.14345361 0.26179817 -0.04824859 -0.19773234 0.34116322 -0.056727916 -0.09459896 0.3046614 -0.14850353 -0.06414216 0.18938884 0.27468017 -0.054705102 -0.08893664 -0.1170924 0.168876 0.002683016 -0.21604963 -0.39561948 -0.08772137 -0.088148855 0.23850448 -0.16036433 0.07696405 -0.07130112 -0.1308813 -0.15467384 -0.10893582 -0.048747085 -0.42998257 -0.24445666 -0.4334444 -0.059538856 -0.05434429 -0.24408105 0.049568444 0.11337721 -0.20481046 -0.4124758 -0.16901907 -0.14114782 -0.28328514 0.2105382 -0.17348422 -0.18700565 -0.13129862 -0.16653776 -0.08830218 -0.23492791 0.18899484 -0.028551657 -0.06442089 -0.34291297 -0.22560823 0.0021331497 -0.16774367 -0.1323928 0.19932173 0.07869896 -0.050104532 0.0138126295 -0.05835993 -0.09373059 0.10954188 0.16000661 -0.1913874 0.30996102 0.35355297 -0.23677666 -0.0951601 0.32928005 -0.2598199 -0.095841125 -0.08436798 0.29928896 -0.12238543 0.2716194 -0.29675034 0.12648661 0.044565577 0.045484934 0.19651733 -0.29783615 0.010486423 -0.069279864 0.15188052 0.098576814 -0.034268994 0.007031687 0.38115487 -0.17122999 0.12702061 -0.12461914 0.034958284 0.075781055 0.05704479 -0.18785273 -0.25572905 0.18340772 -0.14183135 -0.19984531 0.21585442 -0.021687109 0.3845324 0.2960739 0.08258299 -0.36573252 -0.06353018 0.33173093 0.27893603 -0.107466504 0.040034756 0.032542054 -0.2329161 
http://dbpedia.org/resource/Andhra_Pradesh_Grameena_Vikas_Bank 0.04293196 0.093430005 -0.114613414 -0.117523715 0.12009522 -0.11010923 -0.05673985 0.025785552 -0.033635806 0.036062155 0.20525217 0.049758315 -0.10767277 0.16269283 -0.08849105 0.11372382 0.0883713 0.12018635 0.01757753 -0.26537052 0.2023977 -0.31917682 0.19129112 -0.056075916 -0.18217972 -0.07904068 0.012890308 0.03735087 -0.20425744 -0.25205743 0.18519656 0.18346179 0.17498234 -0.10099667 0.08469306 -0.19829044 0.07544555 0.18420652 -0.18907684 0.13535644 0.11543836 -0.032628257 -0.124236956 0.085902594 0.0011018065 -0.12823541 0.05428335 0.020812167 -0.044513382 0.22977479 0.100875296 0.055366155 -0.0734098 -0.25380418 0.0469904 -0.03802031 -0.15021634 0.059517447 -0.28370658 -0.19785446 -0.030580152 -0.08875018 0.063496955 0.15320423 -0.023471305 0.017953623 -0.0032493784 0.20061629 0.03269612 0.16249567 -0.22125754 0.0052497424 0.02232123 0.26650193 0.20903343 0.16919005 0.14209418 -0.08620368 -0.04626308 -0.02579536 -0.08918478 -0.0889472 -0.012133058 0.13315831 -0.3716929 0.014818065 0.28114423 -0.0029129772 -0.19408731 -0.14576416 0.23178595 -0.046188492 -0.07588906 0.31371835 -0.053498894 0.026034052 0.04999315 0.22987847 -0.19895667 -0.047555823 -0.12911773 0.13244066 0.13186783 -0.05766634 -0.3461824 -0.11272735 -0.1286382 0.3044745 -0.101157695 0.029115282 -0.07343637 -0.09225112 -0.18965338 -0.0148709435 -0.08218538 -0.33050185 -0.14780036 -0.22675313 -0.19422969 0.048920985 -0.22228472 0.0135847535 0.24347617 -0.345196 -0.22822279 -0.15823156 -0.2731547 -0.17169578 0.18211968 -0.09853127 -0.23902002 -0.037554175 -0.08449062 -0.21622917 -0.12593897 0.13534069 -0.083167195 -0.14559603 -0.38280478 -0.040877294 0.065760754 -0.19339965 -0.21296626 0.16978188 0.16367877 0.04363438 -0.0105464235 -0.11994064 -0.077411555 0.08210353 0.24518158 -0.22133037 0.21153373 0.26540604 -0.18315363 -0.08562047 0.2761556 -0.29117656 -0.06541844 0.069376245 0.24093819 -0.078300186 0.19722037 -0.23375385 0.22726384 0.0572817 0.105653726 0.24248557 -0.1646006 0.0018324985 -0.033004608 -0.104221456 0.19492073 -0.0029126587 -0.14729905 0.26145053 -0.08216654 -0.04119099 0.0012378672 -0.01227701 -0.10720476 0.11689744 -0.20170069 -0.25685644 0.14289787 -0.11614015 0.007778553 0.18004665 -0.022377683 0.34187904 0.32896978 -0.0061269146 -0.3614609 -0.18081641 0.26920745 0.2920085 -0.14541945 0.057617735 -0.14463355 -0.2577651 
http://dbpedia.org/ontology/type -0.064291686 0.17940159 0.095663615 -0.18130007 0.08158564 0.0066321855 -0.12343031 0.092576146 -0.32560888 -0.05970165 -0.10987478 -0.21275303 0.27129737 -0.0319448 0.24491665 0.14102136 -0.15595268 0.008776792 0.1757835 -0.24165575 -0.06003445 -0.13064264 0.15491621 0.008262016 -0.02961388 0.20638274 -0.05580003 0.03601448 0.029452333 0.09383324 0.05540781 0.07746072 0.06790347 -0.01585418 0.16878998 0.107990466 0.13901351 0.15431926 -0.21379113 0.012004604 -0.0451816 -0.012317959 -0.25235653 0.19669089 -0.06594521 -0.15372376 0.13242786 0.013454137 -0.20476837 -0.10941177 0.025546435 -0.07859305 -0.105267756 -0.1097892 0.14148751 -0.14967641 -0.32702366 -0.1291943 0.030656105 -0.10379176 -0.33488297 -0.16609451 0.1513504 0.16330168 -0.19113165 -0.018385116 0.027217275 0.11394862 -0.120657146 0.25565195 -0.05238141 0.22602026 0.044586305 0.29853728 -0.17198938 0.29387322 0.008628554 -0.15327963 0.0078577325 0.11112542 -0.01906632 -0.12531959 0.15809503 0.07622133 -0.19919907 -0.026754193 0.04473093 0.13215706 0.18694931 0.11523129 0.1687772 0.11486855 0.07739782 0.10021498 -0.035745475 -0.040868115 0.28271067 0.039356485 0.24512224 -0.15863612 -0.07785471 0.17246297 -0.11231021 -0.21191292 -0.1213785 -0.22165148 0.028112182 0.21704182 -0.1382503 -0.13429594 0.022555757 0.033944495 -0.08671461 -0.19265187 0.27479845 -0.2140242 -0.020136535 -0.446422 -0.07830401 -0.22840141 -0.091609 -0.02791408 0.11455607 -0.098602414 -0.3377439 -0.036828104 -0.10443634 -0.0037821033 0.12114113 0.0077721556 0.02595926 -0.16311112 -0.22329038 -0.069802836 -0.06451445 0.17506115 0.090955354 0.08835049 -0.23796338 -0.022560645 -0.01893492 -0.035111025 0.14375511 0.043241456 0.07933669 -0.030509504 0.07907412 0.074774794 0.033150684 0.20490631 0.14460178 -0.08584891 0.24635217 0.23289078 -0.34569815 -0.0019518276 0.108058915 0.2194549 -0.10995049 -0.21879755 0.2444754 0.021491243 0.23574568 -0.08620177 0.036457058 0.113541596 0.0151726855 0.11844955 -0.260603 -0.054241642 0.05734457 0.30978203 -0.07235287 0.038873427 0.10113169 0.1887491 -0.21899436 0.3009803 -0.033696212 0.024958245 0.118493214 0.082144104 -0.2030646 -0.12370229 0.13321793 -0.14754172 -0.17186128 0.13462958 0.06955564 0.17143817 0.13855492 0.016491875 -0.28850874 -0.03827592 0.3504871 0.052339252 -0.01696217 -0.206637 0.022296637 -0.10665662 
http://dbpedia.org/ontology/owner -0.10572753 0.12513392 -0.045747202 -0.21568923 0.12298454 -0.03912466 -0.057675175 0.056177635 -0.13129903 0.013821463 0.015046433 -0.03841203 0.011393813 -0.016219757 0.013247473 0.16166985 -0.059064295 0.047167696 0.079186715 -0.15855068 0.0035771083 -0.16530488 0.08812912 -0.02637168 -0.21812303 0.056844693 0.0057389284 -0.12425153 -0.0072680246 -0.03439979 0.17522992 0.16818954 0.05967012 0.017585294 0.18396431 -0.021403033 0.044324722 0.14335679 -0.12253219 0.18617958 0.1075847 -0.09162085 -0.046295222 0.14771087 -0.0038806044 -0.16212866 0.2200737 -0.053455684 -0.086888716 -0.041360196 0.18981354 0.07148991 0.083855994 -0.20912834 0.04423714 -0.028406996 -0.18380603 0.09286591 -0.036016297 -0.16565837 -0.1210118 -0.13922682 0.055189244 0.15457702 -0.07600624 -0.069696486 0.03822846 0.093630604 -0.021973174 0.20017032 -0.23360454 -0.02068697 0.076138966 0.26017404 -0.013475828 0.18839444 0.04249992 -0.10856555 0.033899575 0.10216833 -0.0646792 -0.042957928 0.09005038 0.069316976 -0.18381256 0.014480997 0.0713658 0.18993872 0.012130897 -0.054793313 0.24026181 -0.017557874 -0.015848253 0.14537475 -0.0709979 -0.04515598 0.2305113 0.166615 0.037118517 -0.12337474 -0.079188615 0.16866988 -0.026819563 -0.15575917 -0.2916881 -0.10852642 -0.104799084 0.22109349 -0.137902 0.057185043 -0.056062203 -0.0397987 -0.13477041 -0.14007714 -0.084158 -0.27638534 -0.17687157 -0.335434 -0.04627017 -0.07702754 -0.2115297 0.06387199 0.0788457 -0.13840532 -0.29547217 -0.15301582 -0.15407799 -0.13720956 0.07959182 -0.11645256 -0.10958924 -0.088288724 -0.14963508 -0.042428575 -0.15569131 0.17434098 0.019376643 -0.012466201 -0.23765375 -0.183929 0.0024535607 -0.16470598 -0.060740426 0.08687116 0.060126714 -0.050409388 -0.024916735 -0.0124919545 -0.013747864 0.08818993 0.13205096 -0.075282045 0.23105246 0.23530567 -0.16823982 -0.11767655 0.18399489 -0.16865693 -0.1495411 -0.09407026 0.25672126 -0.017049268 0.23621711 -0.19503382 0.092331976 0.006120228 0.08181991 0.12600783 -0.23946457 -0.08199799 -0.04720043 0.115362816 0.007879604 -0.027229503 0.022919644 0.30350307 -0.1997186 0.08314485 -0.067789234 0.07358419 0.14349666 0.073005445 -0.16457434 -0.09597792 0.073944576 -0.1338465 -0.16526859 0.2194833 0.0443078 0.31872743 0.1593459 0.08165713 -0.18997036 -0.06603465 0.31493133 0.13188416 -0.12824808 0.006371131 0.01882397 -0.21153115 
http://xmlns.com/foaf/0.1/homepage -0.087488756 0.05578375 -0.025054624 -0.05155278 0.10965786 0.032074153 0.013910265 0.07659428 -0.2322543 0.05506277 -0.024431664 -0.015809616 0.03596726 0.047300823 -0.014819033 0.062169142 0.003751139 0.035253063 0.02180667 -0.22707932 0.03532015 -0.1279295 0.21424954 -0.064309254 -0.09866071 0.03112889 -0.056980275 -0.009271745 -0.044759013 0.013968149 0.12565297 0.10952335 0.035333373 0.020534985 0.074232094 -0.007905086 -0.033164777 0.07540828 -0.116900496 0.035323236 0.06366545 -0.09951857 -0.10319001 0.1436607 0.0020737166 -0.08152832 0.10475763 -0.06573424 -0.054843135 -0.058540784 0.06537765 0.0043412647 0.00954297 -0.1501439 -0.032600332 -0.11542969 -0.18484917 -0.09187635 -0.113837026 -0.17356677 -0.08683929 -0.14165886 0.10261866 0.04801643 -0.13976021 -0.00029935967 0.11908021 0.15154341 -0.111688085 0.15006372 -0.15329017 0.07858749 -0.007012503 0.16387424 -0.0053843986 0.100603834 0.0874793 -0.021983242 -0.027097875 0.028481716 -0.005056638 -0.11323811 0.06282037 0.13032316 -0.17043677 -0.064939424 0.06816956 0.072237656 -0.05454767 -0.035519954 0.1643684 0.015072566 0.035188843 0.051003814 0.000101053156 -0.021997705 0.17910814 0.099611714 0.0985892 -0.028086875 -0.13177668 0.14227186 -0.019829152 -0.015482523 -0.14974654 -0.10871444 0.033988837 0.13710462 -0.092809424 -0.050988287 0.03360136 -0.06641624 -0.08421314 -0.119526 0.0025808502 -0.19923176 -0.034405444 -0.2647213 -0.09720442 -0.044808432 -0.16510114 0.04958834 0.105695926 -0.05121443 -0.25165513 -0.07576861 -0.14570974 -0.05959572 0.01116096 0.015735073 -0.0016165872 -0.1336946 -0.16628021 -0.08474811 -0.08781351 0.09491413 0.040789213 0.08182761 -0.07245211 -0.053704947 0.08055158 -0.14638713 -0.09681742 0.05353199 0.06275094 0.043594018 -0.061308455 0.044646956 0.06877882 0.100094035 0.09176584 -0.15081465 0.22508416 0.10821488 -0.143908 0.041094318 0.15895458 -0.03865527 -0.08162775 -0.001493129 0.13717318 -0.035540808 0.19188805 -0.17846026 0.078133054 0.0013281263 -0.0046333564 0.15539159 -0.13423967 -0.11164891 0.043489393 0.081882186 0.08916526 0.018848833 -0.041388042 0.1734675 -0.18944736 0.04606348 0.007750813 -0.019496297 0.019699354 0.022976473 -0.045555115 -0.10881263 0.11051691 -0.19472277 -0.11364998 0.13238876 0.11155017 0.13617863 0.116645075 0.059186228 -0.17116968 -0.03740274 0.24941926 0.11087039 -0.03574287 -0.08652419 -0.013821499 -0.16171616 
http://dbpedia.org/resource/Mumbai_Football_Arena -0.16918126 0.15255907 0.03605168 -0.01699368 -0.056767575 -0.052707713 -0.070322335 0.20055045 -0.3278806 0.06344027 -0.0005201597 0.00050783856 -0.026440848 0.14857517 -0.013000327 0.0394759 -0.10442177 0.07829262 -0.0007461512 -0.38190192 0.13805434 -0.21163125 0.3057622 0.10250619 -0.043689255 0.0009637686 -0.046030615 0.2144064 -0.28333646 -0.04641619 0.012469668 0.0950684 0.24591154 -0.21121757 0.22450803 -0.13987643 0.17713061 0.13874614 -0.12857217 0.04173273 -0.14186661 -0.03906018 -0.4416684 0.25292277 -0.01062582 -0.26069573 0.09857924 0.19636588 0.022773389 0.05937952 -0.081249915 0.14922513 0.033521675 -0.23959416 0.24064125 -0.20188637 -0.27907646 -0.19266507 -0.09080689 -0.021847062 -0.09561644 -0.14705646 0.01639944 -0.003101817 -0.16842385 -0.053482212 0.23408231 0.35772637 -0.0919331 0.3480661 -0.07209147 0.21053903 -0.06550447 0.16313617 0.04408901 0.3762385 0.08868159 -0.044729393 -0.0027747222 -0.23872803 -0.09623075 -0.1549852 0.21304712 0.21814588 -0.40862668 -0.025836954 0.2018689 0.03665616 -0.08551612 0.07308871 0.23710826 -0.0019301232 0.11576202 0.12065335 0.07673881 -0.017124882 0.04417906 0.09433426 0.105189934 -0.028749181 -0.29991752 0.24740121 -0.048998658 -0.1523047 -0.12849526 -0.20252767 0.06222129 0.36793688 -0.15573165 -0.13448681 -0.022735253 -0.06622476 -0.28028473 -0.14921755 0.14355515 -0.2701455 -0.09638981 -0.26005334 -0.21812989 -0.027027635 -0.23200832 -0.1617752 0.3254895 -0.108055204 -0.17491683 -0.11860772 -0.17369412 -0.19335945 0.16830845 0.14642677 0.15028414 -0.2500417 -0.19343922 -0.23004061 0.08827416 0.25547588 0.14309324 0.18636172 0.044729367 0.022802174 0.104516104 -0.28387603 -0.22191314 0.052533243 -0.011799553 0.16472642 0.12999147 0.1267528 -0.017567702 0.154477 0.3420628 -0.35359406 0.20455231 0.3700149 -0.2838895 0.041460022 0.37052187 -0.026197981 -0.17124656 -0.09967831 0.14801086 0.009642386 0.26374778 -0.40606758 0.18294655 0.15293744 0.25921515 0.06205371 -0.18757972 -0.039704546 -0.011624012 0.051896546 0.15800722 0.17947964 -0.102076225 0.21245748 -0.42281798 0.15314557 0.08530624 0.08235679 0.05176762 0.021127481 0.018598923 -0.4165291 0.13754869 -0.24445711 -0.14548169 -0.030692019 -0.013032077 0.14436026 0.3055158 0.06876437 -0.23422334 -0.20706442 0.37981233 0.17047971 -0.019088525 -0.21417809 -0.21851535 -0.18852736 
http://dbpedia.org/resource/Mumbai_Tennis_Masters -0.09890408 0.057344653 0.16746804 0.14767171 -0.120508336 -0.11802759 0.09348979 0.26662543 -0.44061315 0.020247828 0.15378702 -0.0063869855 -0.13196406 0.31080458 -0.15423027 0.046322815 0.02153872 0.09046223 -0.15379177 -0.6246551 0.26416597 -0.10453549 0.50991154 0.06151204 0.027338935 0.0449929 -0.088014476 0.11434449 -0.34353462 -0.19431148 0.044383142 0.1541485 0.24573001 -0.21029107 0.11464298 -0.16677919 0.14743543 -0.069119915 -0.21505643 -0.12194097 -0.08287393 -0.2212998 -0.3878929 0.22907917 0.06997172 -0.104088046 -0.10524592 0.13484424 0.03591773 0.034528743 -0.20095246 0.077278085 -0.05829567 -0.17164785 0.11872816 -0.33261466 -0.22973798 -0.42087364 -0.24572344 -0.09532896 -0.00730812 -0.17144704 0.09668284 -0.08965021 -0.20989265 0.08216093 0.17668955 0.44450152 -0.17672361 0.24147978 -0.15005478 0.34089535 -0.1217525 0.10339207 0.19373377 0.26166788 0.16292079 0.050266553 -0.071085334 -0.29867244 0.034128126 -0.29639682 0.16652197 0.3321483 -0.42477977 -0.02932062 0.27854243 -0.107780695 -0.2780849 0.038153823 0.23978479 0.05851396 0.155646 0.14170891 0.20129459 0.12030726 -0.039254654 -0.0068136808 0.037990417 0.092942365 -0.26862973 0.18781653 0.13264708 0.16230933 -0.12090026 -0.25250465 0.15635231 0.34548274 -0.19405502 -0.22811688 -0.0140442215 -0.121199265 -0.18774322 -0.1318434 0.11497108 -0.19122629 -0.02725143 -0.1406488 -0.244065 -0.13023137 -0.18623222 -0.1186679 0.32074067 -0.27434093 -0.17844228 -0.05870398 -0.2642902 -0.0184445 0.034404244 0.3518418 0.16630788 -0.21060261 -0.23503779 -0.27480277 0.07747486 0.27349898 0.15249743 0.23596531 0.15026478 0.13251925 0.40875575 -0.4327982 -0.33577996 0.063850455 0.110629655 0.26240632 -0.0007706005 0.11916055 0.21561317 0.12214012 0.3180167 -0.38227692 0.38334075 0.21726863 -0.26251063 0.28689995 0.27516815 0.028077282 -0.071309485 0.15284184 0.13611536 0.001090237 0.12831673 -0.44136813 0.2987266 0.1657659 0.2087473 0.1551247 -0.047311414 -0.13315319 -0.0001752108 -0.1104143 0.29160103 0.24748877 -0.22065811 0.24079679 -0.3387407 -0.037658263 0.26874778 0.02080811 -0.08392163 0.032947846 0.018008664 -0.3892769 0.17641242 -0.32415274 -0.10185366 -0.09245767 0.19527954 0.09994045 0.29641247 0.030630141 -0.24580029 -0.17891039 0.31730375 0.116074815 -0.040497877 -0.25591984 -0.16722777 -0.25663674 
http://dbpedia.org/resource/Mumbai_Angels -0.18984833 0.13919647 0.033319913 -0.008854198 -0.04536809 -0.024742601 -0.082052715 0.21274672 -0.3500333 0.078457795 -0.018625604 0.036116395 -0.050089665 0.1590264 -0.015784295 0.017536456 -0.10998252 0.08893098 0.0096906815 -0.3999502 0.11441367 -0.21667011 0.3184333 0.13052152 -0.027662445 -0.0034814891 -0.05075423 0.23839493 -0.30049223 -0.027627852 0.018029802 0.09594694 0.21475278 -0.22501625 0.24818332 -0.16630526 0.13608865 0.10322339 -0.10494926 0.019986691 -0.11873011 -0.08647111 -0.46255505 0.27701867 0.017350184 -0.25530103 0.09948097 0.19676472 0.023661649 0.018243872 -0.07647679 0.14824057 0.060941525 -0.22345133 0.21322314 -0.22817297 -0.2936385 -0.23565769 -0.083188646 -0.033238377 -0.057489324 -0.14435223 0.032559 -0.014991473 -0.17483859 -0.043992117 0.28992242 0.370868 -0.123025455 0.355873 -0.0827043 0.2250253 -0.09755571 0.1416638 0.045796238 0.3906589 0.06783145 0.0035272501 0.005658103 -0.28314596 -0.09048256 -0.18561618 0.21054944 0.21411832 -0.40119463 -0.035419904 0.2132222 0.018049298 -0.103140056 0.07471511 0.2173846 -0.018893525 0.121737614 0.09803324 0.08328654 -0.04655172 0.05422852 0.084944494 0.12075753 -0.01741809 -0.2995057 0.23880644 -0.06196986 -0.15945765 -0.13987976 -0.18870269 0.09128636 0.36710802 -0.15515897 -0.14728227 -0.025404682 -0.042323876 -0.28971338 -0.18223989 0.14593545 -0.26238 -0.10945327 -0.25422347 -0.21621066 -0.023730103 -0.23927976 -0.17871425 0.34011477 -0.049670454 -0.19121264 -0.11391889 -0.13412714 -0.21983974 0.172748 0.20208074 0.18645935 -0.2722148 -0.2014906 -0.2436373 0.12039079 0.25774837 0.1653847 0.2103829 0.096571356 0.0260082 0.13405506 -0.28865322 -0.23716487 0.031410437 -0.010716723 0.16763623 0.10823361 0.16819617 0.0012076562 0.13147995 0.3238378 -0.36126584 0.20474294 0.3584734 -0.28772715 0.079046436 0.36560997 -0.0338542 -0.17089777 -0.118746005 0.1510704 0.011458488 0.26063424 -0.40688837 0.19944128 0.16327482 0.26244798 0.07218302 -0.17491023 -0.096469335 0.0067301365 0.048828624 0.16235718 0.20609292 -0.1241273 0.21390602 -0.43452403 0.14052446 0.10797164 0.092352465 0.08154024 -0.023899375 0.074647464 -0.43369222 0.13240846 -0.26825196 -0.1363838 -0.022966428 -0.012874437 0.12849154 0.31486937 0.073410414 -0.24008775 -0.20453909 0.3891051 0.16264425 -0.01927761 -0.25611508 -0.19771197 -0.19531912 
http://dbpedia.org/ontology/owningCompany -0.086586155 0.15090835 -0.08239941 -0.24709797 0.14229572 -0.027645368 -0.1166589 0.046177503 -0.12280141 0.030654557 0.037587073 -0.021036966 0.0054419804 0.0066043185 0.018971583 0.16503642 -0.06945542 0.048907466 0.16583669 -0.1475943 0.05175752 -0.24978995 0.11312039 0.017799817 -0.23177773 0.030070867 0.004953831 -0.057677433 -0.041163865 -0.07501581 0.17882363 0.19400014 0.066371135 -0.052298762 0.24449062 -0.08243432 0.05746996 0.19000436 -0.1473455 0.18036166 0.15698487 -0.09615509 -0.097989574 0.18249477 -0.012220726 -0.16864775 0.21041071 -0.004989803 -0.10825891 -0.0008285918 0.17724478 0.07246328 0.07581297 -0.22795452 0.06911528 -0.031350438 -0.22307219 0.084917255 -0.061973397 -0.19508137 -0.11534883 -0.12585251 0.06742047 0.2029195 -0.07022321 -0.08455125 0.047207873 0.1177609 0.010926539 0.21887214 -0.23460667 -0.023453852 0.041850533 0.30900568 0.013112747 0.23386812 0.023789462 -0.09783062 0.050330073 0.077928156 -0.104566015 -0.066660024 0.101999216 0.03939293 -0.264153 0.018796658 0.14899138 0.18052459 -0.025180997 -0.07900418 0.24975353 -0.05733586 -0.05639889 0.20569082 -0.13898747 -0.09510957 0.20688894 0.21157745 -0.036520958 -0.12123813 -0.06891066 0.1276478 -0.029776508 -0.22913146 -0.3484243 -0.096844025 -0.10734351 0.25496024 -0.14961125 0.07291137 -0.074949205 -0.03250327 -0.17554022 -0.14692254 -0.05744493 -0.34975484 -0.24856609 -0.3681101 -0.06699583 -0.056326587 -0.22687565 0.02910773 0.13053675 -0.16170709 -0.33949694 -0.19954029 -0.15019381 -0.19964285 0.16642006 -0.12440985 -0.14628367 -0.0924096 -0.15286016 -0.08897774 -0.1264066 0.18014935 -0.0037204823 -0.04894502 -0.3099045 -0.17036508 -0.022834573 -0.15618007 -0.084341355 0.1213692 0.08455715 -0.04052585 -0.017499065 0.0059428364 -0.042885203 0.09799024 0.16436419 -0.10104863 0.26354742 0.3152609 -0.20436664 -0.11942422 0.23644981 -0.21179108 -0.14814618 -0.14291233 0.296925 -0.044937976 0.24739066 -0.22346504 0.11159183 0.05603932 0.07961624 0.177291 -0.26796308 -0.07924457 -0.026348205 0.12494014 0.05308732 -0.024769109 -0.028679132 0.32979032 -0.1660844 0.078716055 -0.08142403 0.078885816 0.12615149 0.050597906 -0.19151796 -0.18171136 0.088286884 -0.13153705 -0.16965584 0.23138623 0.016415084 0.39302614 0.2646292 0.07542293 -0.29200628 -0.098250166 0.36074615 0.21113525 -0.15242068 0.003336119 -0.006474587 -0.2503383 
http://dbpedia.org/ontology/tenant -0.036706008 0.14628837 -0.05833461 -0.2124537 0.12003078 0.023536058 -0.09014638 0.039472174 -0.15370128 0.045797408 0.008857595 -0.07677627 0.061883427 -0.029706618 0.073522426 0.16502757 -0.066656314 0.055326194 0.14415449 -0.13282827 0.0021649417 -0.23106484 0.071266554 -0.013463214 -0.18636127 0.08013031 -0.00404123 -0.029659955 -0.011803473 -0.01772427 0.11049535 0.123243585 0.06778005 -0.048284963 0.192292 -0.011535574 0.07440502 0.22596377 -0.1722839 0.16853285 0.064476006 -0.064354114 -0.10459535 0.23641166 -0.022844085 -0.18244661 0.1993287 0.0052288207 -0.11930129 -0.023971131 0.12718667 0.038245417 0.011761961 -0.22421527 0.047395103 -0.07980046 -0.23686841 0.046406824 -0.0016845322 -0.17146927 -0.14059754 -0.12696396 0.06826774 0.18017499 -0.08784222 -0.068000235 0.08366801 0.1595636 0.013389899 0.16608292 -0.15025379 0.025278963 0.025930613 0.30438706 0.0035558757 0.25272316 0.032453127 -0.11325117 0.05884729 0.084076576 -0.09067925 -0.08227198 0.12278104 0.004950646 -0.2171402 -0.009382596 0.047480226 0.17043506 0.027884822 -0.06520975 0.2027603 0.0051206644 0.006751543 0.17164347 -0.085378565 -0.05390648 0.24687517 0.21033847 0.032543246 -0.13821839 -0.077947535 0.13636738 -0.03078768 -0.17666663 -0.28855908 -0.10187867 -0.036034696 0.23192132 -0.12155013 0.01587488 -0.028908508 -0.015014381 -0.15056093 -0.17248853 0.011371279 -0.29967713 -0.19411421 -0.3362056 -0.06225881 -0.061984785 -0.21638091 0.010867987 0.13682228 -0.083429776 -0.31632978 -0.1333882 -0.12434133 -0.1535554 0.12787439 -0.08496406 -0.121643744 -0.12831882 -0.113498285 -0.05440455 -0.1438723 0.17956538 0.011765919 -0.041911516 -0.27595368 -0.13000026 -0.026967056 -0.10479078 -0.040059976 0.13748169 0.10814959 -0.04507734 0.049737588 -0.0020205812 -0.03948826 0.110285535 0.13299666 -0.11753539 0.22686079 0.24370633 -0.24136642 -0.105298206 0.18096349 -0.11992312 -0.08602352 -0.15764454 0.26136485 -0.024198085 0.25065866 -0.20609969 0.064704776 0.04630377 0.04460391 0.18176432 -0.2780821 -0.072079435 -0.027187623 0.19325796 0.049714644 -0.00806518 0.016414901 0.31902364 -0.19924626 0.14435904 -0.09044254 0.07646412 0.13042155 0.057585265 -0.16238919 -0.15021124 0.106690735 -0.13309635 -0.13960771 0.13789928 -0.014667638 0.24641556 0.1819563 0.0629895 -0.25677478 -0.06649251 0.3604539 0.13740967 -0.08890037 -0.03172242 -0.008426778 -0.20513815 
http://dbpedia.org/resource/Grit,_Guts_and_Gumption -0.05207816 0.10528917 -0.07986599 -0.19342124 0.15237203 -0.0030875616 -0.09027007 0.01318835 -0.115224645 0.026452355 0.052385878 -0.051569372 -0.010178473 0.016401475 0.008453052 0.14768587 -0.045111567 0.07151904 0.14185035 -0.13127899 0.09553291 -0.2559831 0.13438182 -0.0639844 -0.1697683 0.05196622 0.018950554 -0.030066352 -0.014927435 -0.056480955 0.1625825 0.16830951 0.078883074 -0.041925922 0.19098423 -0.058242384 0.05527497 0.25030982 -0.1658481 0.18466692 0.115948334 -0.074291855 -0.077517964 0.1914977 -0.045769457 -0.15554297 0.18727435 -0.042370234 -0.1062482 0.012953454 0.17892449 0.044919346 0.01640432 -0.2685784 0.015987005 -0.03834813 -0.22578314 0.08889659 -0.121610805 -0.18878268 -0.13441774 -0.13096462 0.09285005 0.19918135 -0.09182946 -0.06212448 0.0649773 0.18430069 0.013282601 0.20143744 -0.21126153 -0.009597759 0.05960119 0.3100791 0.017065648 0.21445751 0.075798385 -0.10041898 0.035421122 0.10111015 -0.10846457 -0.087129645 0.1273165 0.026598476 -0.2561069 0.0025592307 0.1210719 0.13780797 -0.03807997 -0.13120858 0.2514742 -0.031444892 -0.04200021 0.21008918 -0.12408965 -0.0043133684 0.20416911 0.2150091 -0.053269967 -0.08708611 -0.12361354 0.17787321 -0.01954654 -0.15119871 -0.34966537 -0.11588222 -0.118171945 0.2263652 -0.14758638 0.036293086 -0.02079117 -0.078475386 -0.16794305 -0.11627085 -0.030877445 -0.36630076 -0.18031695 -0.3718721 -0.073121555 0.009017517 -0.19897492 0.05950104 0.16430475 -0.1427324 -0.3595236 -0.15728047 -0.18217933 -0.15972137 0.16409448 -0.15478182 -0.18883146 -0.117769934 -0.13467479 -0.040120702 -0.17181902 0.20996119 0.00063817913 -0.049719848 -0.35359254 -0.11596412 -0.0057683503 -0.13323592 -0.072079614 0.1551589 0.10953674 -0.009730003 0.0256001 -0.0545905 -0.044871736 0.09458044 0.1504393 -0.11036237 0.28504184 0.26963046 -0.19103137 -0.12845638 0.23958607 -0.22432417 -0.08553654 -0.09393006 0.28097287 -0.042431653 0.23950146 -0.22417156 0.11960142 -0.0036582728 0.040725034 0.21143305 -0.2634875 -0.021921901 -0.012251236 0.083364196 0.09561991 -0.011049571 -0.028845375 0.35872403 -0.16204758 0.09941604 -0.08811328 0.0022537042 0.055790056 0.07481624 -0.19098015 -0.16955848 0.13366118 -0.12629461 -0.16151081 0.18933445 0.0013387376 0.32205144 0.21181123 0.05007371 -0.2954582 -0.10794304 0.32963607 0.19863793 -0.13989893 0.025598845 -0.0020967037 -0.24708694 
http://dbpedia.org/resource/Air_India_Building -0.045086987 0.10090931 -0.049358897 -0.22823837 0.13615368 -0.06382857 -0.11239242 0.024603482 -0.116131105 0.0030366955 0.031959485 -0.022382913 -0.023173138 0.00066775165 0.03777058 0.16293596 -0.053121086 0.0042912955 0.17045164 -0.13747893 0.07317722 -0.20936823 0.14965846 -0.06006995 -0.15822119 0.08730205 -0.020018835 0.0035682095 -0.034285147 -0.056458913 0.16990373 0.16426837 0.037289724 -0.046247 0.19989155 -0.06818788 0.05232065 0.19860294 -0.17249413 0.1918922 0.10598692 -0.07590608 -0.12806936 0.19201493 -0.05588778 -0.16928893 0.14836103 -0.014964936 -0.11944758 0.0058906684 0.16114987 0.041053526 0.026134169 -0.21494295 0.06276645 -0.015696524 -0.23015194 0.06105262 -0.093348294 -0.17677169 -0.15815301 -0.11924602 0.06119988 0.184487 -0.07616405 -0.04494255 0.038094316 0.15138131 0.04366428 0.18296205 -0.23408887 0.032009598 0.05939525 0.27418435 0.024854038 0.18599294 0.03047179 -0.119839266 0.036143918 0.078892685 -0.109309345 -0.03406739 0.11079446 0.078084335 -0.2468461 0.015585302 0.10971258 0.18595813 -0.05452689 -0.13602796 0.2951838 -0.010442115 -0.020074122 0.1781413 -0.11607234 -0.022106534 0.19800185 0.2051013 -0.044618323 -0.11353966 -0.11138186 0.1788516 -0.008491623 -0.14925988 -0.29960933 -0.11547647 -0.095707685 0.23952006 -0.13236657 0.039190568 -0.049081597 -0.064317495 -0.12999943 -0.1063162 -0.027141934 -0.35149208 -0.20436423 -0.3451337 -0.0839023 -0.06379257 -0.20969896 0.030031277 0.100731246 -0.16807124 -0.31852075 -0.18630315 -0.13036524 -0.14507012 0.14049259 -0.13054155 -0.14609487 -0.10098041 -0.16170953 -0.061894435 -0.16919209 0.19460711 0.00877095 -0.020367086 -0.29321268 -0.14791447 0.015739318 -0.14848264 -0.08498808 0.11564936 0.07864316 -0.026068585 0.004609433 -0.018130237 -0.018008158 0.10995693 0.16301069 -0.12717606 0.27376148 0.26864132 -0.22161701 -0.09055534 0.26414138 -0.19772594 -0.10120217 -0.059869952 0.27782035 -0.042305674 0.23463443 -0.25651124 0.09835324 -0.003098015 0.055163987 0.18870367 -0.25378248 -0.020927968 -0.009347203 0.105749264 0.06989207 0.015534572 -0.019389542 0.31932214 -0.14375016 0.081368215 -0.072085634 0.014382657 0.10428685 0.09145117 -0.19090529 -0.17895974 0.13069683 -0.13365383 -0.20043588 0.18428625 0.012047611 0.34313345 0.24946122 0.058481395 -0.2733887 -0.0859437 0.29111263 0.18727715 -0.116298065 -0.03016132 0.028064225 -0.23973504 
http://dbpedia.org/resource/SBI_Cards 0.03053244 0.09328264 -0.08057041 -0.0864581 0.084385455 -0.14549372 -0.020409247 0.0504427 -0.06449675 0.00858594 0.23848838 0.06475217 -0.1572673 0.1603685 -0.14325455 0.15607393 0.111054406 0.10312596 0.035353705 -0.25148603 0.23864716 -0.29687673 0.23274498 -0.080868706 -0.18813719 -0.06312989 -0.036778145 0.059351254 -0.16840279 -0.2825944 0.15780637 0.21399014 0.15717757 -0.12442043 0.14233087 -0.21659733 0.09657931 0.15722334 -0.19194971 0.17704713 0.14720002 -0.07207573 -0.123092 0.09978088 -0.01644387 -0.119113006 0.05965278 0.04555774 -0.04918955 0.21659778 0.09341686 0.100648426 -0.064445235 -0.25362033 0.03618797 -0.028434694 -0.13680898 0.050129056 -0.27119273 -0.17878379 -0.02525113 -0.10114446 0.05369082 0.17709962 0.004656747 0.0020258005 0.018161498 0.22357377 0.039740194 0.14924566 -0.2707412 -0.0011083469 0.013032919 0.23005597 0.2168119 0.17059942 0.126771 -0.08990571 -0.038369175 -0.035980787 -0.09815502 -0.07968801 0.082479805 0.15119481 -0.40700755 0.044282056 0.28621107 0.010125267 -0.25250858 -0.19953518 0.26844984 -0.09008469 -0.115061015 0.3076587 -0.06752298 0.011664101 0.018058214 0.26480922 -0.2367086 0.0058385157 -0.17263642 0.10124609 0.1320337 -0.0142094195 -0.37414825 -0.13534507 -0.15871897 0.31529978 -0.11820649 0.044928785 -0.09471759 -0.13551195 -0.23569834 0.008189508 -0.114236094 -0.31942576 -0.19072002 -0.20665282 -0.1566148 0.077690236 -0.21965276 0.0054038637 0.26677018 -0.36851326 -0.27273718 -0.19554493 -0.29208636 -0.17410547 0.19550532 -0.10595982 -0.20949703 -0.058878142 -0.11430188 -0.18626644 -0.12497627 0.14454684 -0.033345476 -0.10657367 -0.36475646 -0.0038683524 0.11479831 -0.23872738 -0.27991134 0.19102709 0.14905638 0.07831906 -0.018931167 -0.10653891 -0.06451769 0.07150283 0.26693395 -0.27199462 0.29467538 0.28187898 -0.13757467 -0.031511087 0.3358263 -0.34399208 -0.033460557 0.11405139 0.20350517 -0.116390705 0.20793924 -0.31990594 0.23546785 0.052489575 0.14154053 0.24531054 -0.13788906 0.031984497 -0.054177478 -0.1661052 0.24144833 0.0065193404 -0.16530992 0.30846834 -0.08536321 -0.11341805 -0.011114236 -0.03268934 -0.14017057 0.10945409 -0.17603227 -0.29553467 0.17074116 -0.14538914 -0.07334372 0.14380985 -0.008336741 0.37802434 0.32430807 0.0005902355 -0.35715845 -0.1874991 0.26391247 0.32533994 -0.13450809 0.09191308 -0.14725927 -0.2526619 
http://dbpedia.org/resource/State_Bank_of_Mysore -0.0036261403 0.11665536 -0.13104297 -0.11191747 0.13659261 -0.08870272 -0.053623345 0.019723356 -0.028360287 0.03712873 0.17136948 0.065332405 -0.12264084 0.11998466 -0.11302337 0.14169413 0.06595975 0.10012777 0.08795109 -0.1801272 0.1930621 -0.31927592 0.15769711 -0.05755531 -0.19026428 -0.07496776 -0.015239175 0.054991134 -0.16930836 -0.25481728 0.18139958 0.19367428 0.118404955 -0.1274746 0.15641795 -0.20370331 0.08181095 0.21409667 -0.1597662 0.17828977 0.1554783 -0.057059944 -0.11905649 0.099061504 -0.0041016517 -0.1374732 0.10940162 0.033576835 -0.042216394 0.19937907 0.12679952 0.090806395 -0.028423205 -0.25616094 0.029771825 -0.0016067298 -0.15629965 0.076936655 -0.25368127 -0.19371507 -0.010503325 -0.078213476 0.06081163 0.19429529 0.004004659 -0.030859774 0.024945162 0.2118849 0.06536 0.17227405 -0.24397635 -0.028811155 0.03446364 0.25347516 0.18664214 0.17002718 0.082867794 -0.08438615 -0.006720099 -0.030908255 -0.12604572 -0.0973769 0.040528473 0.09688345 -0.3758348 0.015700428 0.27412236 0.032720916 -0.21275844 -0.20118703 0.23895979 -0.0879485 -0.10445176 0.30920222 -0.08595211 -0.021900844 0.031021487 0.28647852 -0.23744641 -0.033394184 -0.15710117 0.09832945 0.084927045 -0.1151869 -0.3702625 -0.10345152 -0.15899962 0.29962227 -0.097657084 0.07754736 -0.097940564 -0.111714795 -0.2031155 -0.008279298 -0.11207055 -0.3491122 -0.20559055 -0.25257662 -0.13120261 0.09664725 -0.22136731 0.019995047 0.24466698 -0.2924595 -0.266716 -0.19615823 -0.24045531 -0.21976085 0.20886672 -0.1417957 -0.21879943 -0.04752623 -0.097170986 -0.17631495 -0.12780856 0.15855657 -0.056227688 -0.13756125 -0.3852926 -0.04106549 0.04833071 -0.18797433 -0.21958758 0.17290287 0.124910526 0.04960467 -0.028493896 -0.08768726 -0.11077797 0.051414117 0.25416297 -0.21950339 0.24367905 0.2871112 -0.13903399 -0.09765119 0.32123145 -0.34351364 -0.064939596 0.027453106 0.23478408 -0.12000266 0.2229733 -0.26582137 0.21532987 0.040201414 0.11478593 0.22008151 -0.17334722 0.019899337 -0.02671058 -0.10993066 0.19166517 -0.024116967 -0.1309847 0.28764075 -0.078476414 -0.069804974 -0.042510457 0.013853705 -0.087828055 0.08152039 -0.18065254 -0.28631958 0.13922581 -0.117681794 -0.056222904 0.18808654 -0.04431743 0.38300994 0.33901364 0.018424613 -0.35520148 -0.1846189 0.27611092 0.323736 -0.14698008 0.09232118 -0.1252667 -0.26268688 
http://dbpedia.org/ontology/nonFictionSubject -0.06854796 0.14860448 -0.080970794 -0.1743035 0.15248859 0.019662548 -0.116017506 0.043656312 -0.17675938 0.06526165 -0.0007933506 -0.064638846 0.06710488 -0.0023033994 0.0867483 0.12559 -0.025171846 0.012868101 0.14047445 -0.15979123 0.009570888 -0.2083247 0.10702056 -0.04338284 -0.15748687 0.038591348 -0.03178771 -0.019556506 -0.07548868 -0.048862744 0.17070232 0.11438357 0.033663582 -0.07009018 0.16789015 -0.045805257 0.056380108 0.20346032 -0.14039998 0.118000224 0.03204464 -0.029811008 -0.13794579 0.21769153 -0.026295187 -0.115174964 0.18792039 0.0006514201 -0.11491726 0.0037179189 0.13151748 0.014379956 0.002676499 -0.20515959 0.07875756 -0.0782575 -0.22625539 0.05734708 -0.09558682 -0.1775269 -0.1616657 -0.106527224 0.04874774 0.18753822 -0.0678833 -0.046699107 0.041921906 0.12865196 0.017833661 0.16040727 -0.14006287 0.03591968 0.08088738 0.28507608 -0.010908775 0.20844872 0.046346188 -0.12161414 0.045484405 0.057910044 -0.10053276 -0.07980304 0.08359186 0.009819922 -0.24010587 -0.010540931 0.07524348 0.1581989 0.017143518 -0.052469328 0.24236251 0.013255587 -0.009531658 0.19017075 -0.07840927 -0.003914346 0.21133582 0.21912527 0.03759089 -0.1544265 -0.11212374 0.15872069 -0.011052354 -0.17339087 -0.25455508 -0.10577595 -0.05450125 0.22695227 -0.13938142 0.032461148 -0.059099145 -0.044142824 -0.120148584 -0.17467202 -0.0005480183 -0.30603006 -0.18309703 -0.35883015 -0.08190313 -0.03814061 -0.1795391 0.015095483 0.16458574 -0.13466848 -0.28011072 -0.15861674 -0.11499105 -0.15246004 0.120577745 -0.109226085 -0.13199247 -0.080479965 -0.12845252 -0.052765448 -0.16191792 0.21479961 -0.008201191 -0.042410366 -0.2974229 -0.12633687 0.0074247574 -0.12295312 -0.04130971 0.12328386 0.08395569 -0.02149638 0.018845586 -0.046136353 -0.06330109 0.106383964 0.16396573 -0.12258434 0.20237958 0.2293656 -0.22470586 -0.13262905 0.21811298 -0.09940376 -0.11032676 -0.11297056 0.28044367 -0.030038886 0.24734195 -0.23912354 0.11891778 0.044851217 0.05267296 0.1699867 -0.2648631 -0.07603838 -0.041877117 0.16514085 0.047906253 0.0012757273 0.018163674 0.2595231 -0.15023097 0.08885057 -0.08189603 0.053656857 0.08099113 0.055823456 -0.19006673 -0.16961779 0.09625184 -0.15622869 -0.10315556 0.18420444 -0.0010172635 0.24552536 0.16516654 0.08137218 -0.2660055 -0.061434336 0.36033356 0.16191146 -0.09489048 -0.01889759 0.020324377 -0.23069383 
http://dbpedia.org/resource/State_Bank_of_Hyderabad -0.008889284 0.11176478 -0.070843495 -0.12971327 0.11647228 -0.09770958 -0.059597977 0.052613936 -0.124222614 0.01920826 0.1644585 0.033013653 -0.102346316 0.12416749 -0.079122946 0.16727379 0.05795169 0.088547505 0.08481314 -0.24929425 0.18171813 -0.29396647 0.21870461 -0.062463097 -0.19805513 -0.014192308 -0.046117578 0.037075225 -0.13268365 -0.20955057 0.17453037 0.22036716 0.1160074 -0.101982296 0.17942315 -0.17522167 0.073988505 0.18044347 -0.19903284 0.18521607 0.14862654 -0.09903551 -0.13955916 0.16780111 -0.019765463 -0.14223263 0.11608009 0.017005462 -0.088150516 0.12637988 0.1293598 0.08030746 -0.030686468 -0.27032167 0.036359984 -0.05252069 -0.20242062 0.042837646 -0.22012162 -0.2088923 -0.06361673 -0.120755576 0.07502434 0.19399123 -0.03865381 -0.021587722 0.060203705 0.22318757 0.030691031 0.18144612 -0.28021976 0.008716045 0.014922803 0.2736693 0.15451157 0.21801516 0.094140574 -0.094251804 -0.014651848 -0.003409749 -0.09555246 -0.09958433 0.10993338 0.12697433 -0.3837443 0.03314496 0.24102676 0.06917166 -0.19118567 -0.18135588 0.29276094 -0.06946175 -0.092202544 0.28630906 -0.08545195 -0.007567766 0.104102574 0.26799238 -0.15819065 -0.036152955 -0.16152826 0.13684933 0.08592602 -0.0635621 -0.39711356 -0.12948631 -0.13504761 0.31104368 -0.14260718 0.045416094 -0.08567806 -0.10200568 -0.22551797 -0.06862469 -0.08638722 -0.3595252 -0.21639626 -0.29611704 -0.14352624 0.036903054 -0.23506199 0.014095204 0.24386089 -0.29010656 -0.33292732 -0.19547927 -0.25561267 -0.1859938 0.19228117 -0.09970208 -0.19156556 -0.09376399 -0.14755964 -0.15218875 -0.1404613 0.175847 -0.010452794 -0.07541845 -0.35380098 -0.05712274 0.09450169 -0.22855434 -0.22526947 0.1765535 0.14402136 0.050764088 -0.021259453 -0.065909095 -0.04255916 0.08705771 0.24011548 -0.24530366 0.31017455 0.29353994 -0.18891871 -0.051092386 0.32065573 -0.31021515 -0.060992405 0.036825016 0.25732225 -0.09346291 0.24345131 -0.32616785 0.21646689 0.046555493 0.1254811 0.25678325 -0.20177297 -0.015016127 -0.0465214 -0.058524303 0.19368815 0.005495425 -0.13203919 0.35445505 -0.13001099 -0.042985253 -0.022738423 -0.0040794397 -0.048655774 0.085890576 -0.18290395 -0.27285564 0.16492291 -0.17465669 -0.11918491 0.17790422 -0.003422348 0.38195443 0.31209767 0.02571066 -0.3630129 -0.15932077 0.32024494 0.2883189 -0.13572808 0.046088107 -0.091238834 -0.27480993 
http://dbpedia.org/ontology/successor -0.02976818 0.11649997 -0.07235908 -0.20662123 0.097895965 -0.037810374 -0.12389329 0.06674358 -0.1507212 0.05319207 0.05370559 -0.029226827 0.027921775 0.0362604 0.047404747 0.11998372 -0.0642837 -0.002417725 0.13324115 -0.15120997 0.074403465 -0.26088366 0.093857154 0.018953703 -0.15412252 0.016903693 0.026248792 0.019758673 -0.056029137 -0.011900483 0.1418242 0.15724325 0.117217995 -0.1018689 0.20391198 -0.05107351 0.09923109 0.24702415 -0.1395534 0.095048 0.093693435 -0.032680225 -0.17577802 0.2114442 -0.059429042 -0.1672204 0.15930326 0.06572918 -0.0923592 0.040468067 0.069355674 0.030878592 0.035639472 -0.2170567 0.12180857 -0.05410533 -0.23297021 0.060400642 -0.053864673 -0.096100226 -0.1265907 -0.12774083 0.07974838 0.13513722 -0.10912828 -0.094348826 0.05722214 0.15253203 -0.0016366832 0.19207957 -0.1337666 0.037194196 0.022850621 0.29252344 0.0071502337 0.22871539 0.027445253 -0.11654527 0.026949853 0.049246095 -0.06682337 -0.040239308 0.06836603 0.022876048 -0.296484 -0.00020783476 0.13801448 0.1265111 0.036361255 -0.003872858 0.23155127 0.0056367693 0.016453853 0.21423177 -0.12682365 -0.0683736 0.15459777 0.17598541 0.02628272 -0.13656549 -0.052538514 0.17145066 -0.028671365 -0.24372447 -0.21832852 -0.11369014 -0.084384345 0.25678736 -0.15282385 0.003468767 -0.028333798 -0.011102416 -0.15162168 -0.11141569 0.06594127 -0.31488928 -0.19565786 -0.3367415 -0.12919162 -0.076856114 -0.15904249 -0.053836916 0.17942268 -0.12906063 -0.27655524 -0.16816574 -0.13398641 -0.17245275 0.20367739 -0.07806353 -0.151978 -0.12570792 -0.11634079 -0.11966023 -0.06820146 0.19793731 -0.027923638 -0.005871016 -0.2549074 -0.110791676 -0.047936507 -0.14059877 -0.019410308 0.14146304 0.08141453 -0.0407704 0.07541511 -0.008621895 -0.08107143 0.1410705 0.18334353 -0.1037345 0.19797637 0.29989612 -0.25031388 -0.114435494 0.24004336 -0.076272905 -0.090766415 -0.15245587 0.2752941 -0.010385491 0.20625794 -0.16197743 0.070180915 0.10080682 0.089939 0.18968388 -0.22840297 -0.0094268 -0.011112411 0.13043576 0.031122854 0.023771659 -0.024465313 0.23288032 -0.20643619 0.17767093 -0.030667989 0.0667999 0.07477808 0.06857236 -0.19632737 -0.1894163 0.118997544 -0.07287063 -0.13192941 0.12527306 0.012415517 0.2925408 0.23567526 0.008448348 -0.2891284 -0.15243234 0.35624245 0.19387321 -0.09693262 -0.08496114 -0.08016025 -0.21199828 
http://dbpedia.org/resource/Imperial_Bank_of_India -0.0460608 0.14902328 -0.07436056 -0.16080207 0.11550286 -0.008715802 -0.0887609 0.042915244 -0.16317241 0.0443933 0.01981574 -0.06701936 0.05391086 -0.017248102 0.028034117 0.14828435 -0.04926636 0.03808934 0.124746986 -0.18201102 0.09157961 -0.21259148 0.17842057 -0.0416208 -0.16151547 0.05827584 -0.0050853333 0.015749227 -0.066157624 -0.06682423 0.13010195 0.108715944 0.12409582 -0.07611752 0.21386087 -0.059773624 0.08345728 0.22505677 -0.16945201 0.15007217 0.04263456 -0.049962357 -0.15741743 0.22020376 -0.051531535 -0.16093028 0.15303504 0.011406714 -0.13462476 0.036907226 0.14645553 0.030213585 -0.022294011 -0.25349775 0.09786438 -0.057743598 -0.23359545 0.02949269 -0.12270024 -0.15977256 -0.17261599 -0.13350266 0.048545614 0.19489425 -0.11370928 -0.057683982 0.04693102 0.19958979 0.023828993 0.22467999 -0.19550134 0.022272235 0.066777475 0.29449 -0.007183336 0.2298984 0.07957691 -0.15868685 0.019845765 0.050944936 -0.11962954 -0.0573512 0.12705387 0.037524544 -0.3124636 -0.0046132724 0.098741025 0.12858903 -0.04200121 -0.088673785 0.24934101 -0.014201117 -0.018065514 0.22010204 -0.07340452 -0.030931283 0.19318391 0.2321521 -0.036436222 -0.13535671 -0.15194164 0.14855343 -0.012040225 -0.14456606 -0.2729093 -0.16381657 -0.06968785 0.2809365 -0.124219775 0.0063894507 -0.041102372 -0.09683347 -0.19085215 -0.11833264 0.027367702 -0.32860208 -0.2061402 -0.3708944 -0.08806672 -0.0024152885 -0.2290154 0.025455795 0.15418807 -0.17508723 -0.29984608 -0.17756599 -0.18746959 -0.15925589 0.16734274 -0.14957272 -0.11304357 -0.104357116 -0.118450254 -0.047595315 -0.15584241 0.20963567 0.022704465 -0.0200789 -0.29520538 -0.1162112 0.0024454943 -0.13854295 -0.08720513 0.113828614 0.08493851 0.022956742 0.0114084715 0.014668851 -0.060815543 0.123028845 0.20129268 -0.13628587 0.28210786 0.30825302 -0.23632506 -0.10201609 0.25570625 -0.18377258 -0.08839201 -0.08573325 0.2579392 -0.016887516 0.240309 -0.26438296 0.105104744 0.018458683 0.08645093 0.18200645 -0.27167264 -0.016394913 -0.0038100376 0.11928164 0.088432886 0.004587232 0.0046986938 0.30080372 -0.15921064 0.099526614 -0.060365226 0.03043942 0.08359694 0.09001084 -0.17475049 -0.19528808 0.10808972 -0.11196351 -0.15276009 0.14689134 0.0008881948 0.29369143 0.23959321 0.06931636 -0.27875412 -0.08448344 0.33821815 0.22609575 -0.13923857 -0.00910157 -0.006932658 -0.23531805 
http://dbpedia.org/resource/India -0.0684407 0.027250914 0.05970535 -0.012781958 -0.0609276 -0.043489546 0.0030116984 0.14542688 -0.23298357 0.008564235 0.035382207 0.00972919 -0.024748957 0.11894493 -0.045056 0.03607464 0.008603632 0.0809442 -0.06860668 -0.32036465 0.10917116 -0.12500495 0.27197918 0.01891956 -0.02919502 0.001211179 -0.019665217 0.063003354 -0.17235051 -0.08219652 0.027973441 0.101659186 0.13564493 -0.09514285 0.08710038 -0.11146582 0.04508434 0.013565822 -0.13532348 -0.0057555907 0.0018363592 -0.064823434 -0.23869823 0.12232776 0.028089914 -0.079070136 0.012504775 0.050680116 -0.016663348 -0.0034109356 -0.027186392 -0.004060126 -0.04935773 -0.14195274 0.028535375 -0.17547217 -0.20106712 -0.20105319 -0.12375913 -0.08378683 -0.06064056 -0.09693458 0.05917291 -0.0018326084 -0.08513046 0.043791536 0.09784087 0.23004182 -0.114493035 0.16129954 -0.08632552 0.20493366 -0.04385282 0.10959574 0.10918781 0.18440744 0.12951267 -0.01297699 -0.07222438 -0.112998165 -0.018614037 -0.16691847 0.0917399 0.1854309 -0.29840553 -0.047215633 0.14750876 -0.04804876 -0.11689363 0.011422629 0.17110176 0.010274549 0.08819048 0.11146275 0.09361295 0.024956511 0.07361046 0.04150971 0.016001958 0.03731901 -0.1804077 0.16725929 0.048067577 0.039698247 -0.1390035 -0.16877247 0.052197993 0.23163168 -0.14266407 -0.14025605 -0.0018109509 -0.04463253 -0.13685673 -0.091602005 0.09021272 -0.16611585 -0.042636618 -0.12339859 -0.15268691 -0.0349602 -0.13333984 -0.09722668 0.23735231 -0.16294307 -0.20583582 -0.017133676 -0.1710693 -0.0689343 0.05431756 0.17068592 0.022694897 -0.13677311 -0.15374446 -0.15328585 0.03815131 0.10335375 0.062640265 0.12132035 -0.021205276 0.04217024 0.18726942 -0.18554153 -0.12313916 0.06365994 0.056617934 0.103613995 0.03450208 0.02531214 0.108221084 0.06577586 0.14811023 -0.2504762 0.22158156 0.13318439 -0.16894999 0.091163576 0.19707862 -0.0031208373 -0.074349396 0.057107512 0.1408232 -0.009008201 0.1537928 -0.21831186 0.16752872 0.118451335 0.11333634 0.12957975 -0.10409869 -0.07975144 0.009590109 -0.03730753 0.18298341 0.11758021 -0.10223132 0.18800284 -0.20650662 0.026971292 0.11038949 -0.034757018 -0.03271536 0.06849519 -0.035683613 -0.25088856 0.08265203 -0.22391179 -0.04618844 0.0404084 0.081503466 0.08468687 0.18243776 0.008100348 -0.23542415 -0.12448881 0.22702143 0.08472245 -0.0429171 -0.16598538 -0.09381648 -0.14991851 
http://dbpedia.org/ontology/routeStart -0.0349494 0.09221391 0.18318479 0.0013103918 -0.084318034 -0.068592474 0.051919367 0.23267418 -0.4329452 -0.0459773 0.10822412 -0.02866157 0.00060658285 0.23478703 -0.0033790877 -0.0018764392 0.06634599 0.14351137 -0.09376955 -0.58568054 0.105820954 -0.1424512 0.46953753 0.055007104 0.017985996 0.09231501 -0.14518356 0.17769837 -0.2825285 -0.052246753 0.024576511 0.14755252 0.1835348 -0.084365815 0.018800437 -0.15170223 0.046203315 -0.07366378 -0.19885638 -0.16799675 -0.08845002 -0.10002097 -0.33653003 0.16041584 0.025416454 -0.090088025 -0.077942386 0.048368175 -0.14259194 -0.0082333535 -0.13522078 -0.0052795922 -0.14839935 -0.24484631 0.121448375 -0.43805555 -0.2575056 -0.36114854 -0.13205002 -0.12402227 -0.16090709 -0.22978564 0.17198667 -0.064976506 -0.26547298 0.09742757 0.22640914 0.27558014 -0.29285702 0.20466265 -0.11531911 0.3741742 -0.12007195 0.18498638 0.12257485 0.31264782 0.15484428 0.038689975 -0.1993456 -0.1719586 0.051652342 -0.2455068 0.18078616 0.4050957 -0.36028403 -0.037895385 0.297863 -0.13301697 -0.20120466 0.11327643 0.16663863 0.07141573 0.1321207 0.042888984 0.1609324 0.048990685 0.15995671 -0.020284642 0.18084499 0.049296394 -0.21829386 0.22880737 0.044372447 0.14355035 -0.16094406 -0.25031298 0.11657436 0.30800432 -0.21259865 -0.26860884 0.019808672 0.023055092 -0.2703036 -0.19825268 0.23021689 -0.11279748 0.023640156 -0.17478049 -0.3447566 -0.19136862 -0.18612435 -0.10748401 0.32145393 -0.16657117 -0.2114348 0.004959504 -0.25129116 0.04926065 0.06156843 0.34686497 0.11941558 -0.20847504 -0.17610729 -0.25183016 0.09499886 0.17547922 0.12815562 0.18329296 0.024201827 0.13865861 0.2698827 -0.30520678 -0.2144772 0.077590324 0.14504297 0.18210933 -0.0009306511 0.11515167 0.259459 0.19289042 0.18241002 -0.40977833 0.2820248 0.17936058 -0.34731725 0.28052822 0.14667805 0.1079364 -0.091530986 0.06659106 0.23483753 0.05910976 0.17254955 -0.29438555 0.2447358 0.21208782 0.16387975 0.25604606 -0.1315685 -0.17113875 0.04217004 -0.000443798 0.2025177 0.16812687 -0.20340826 0.2373328 -0.28740802 0.026332248 0.21607544 -0.1012514 -0.032385256 0.0044977022 -0.08086552 -0.2555071 0.1861401 -0.32084197 -0.04870695 -0.010020492 0.12452429 0.016539952 0.24610268 -0.009204015 -0.33073252 -0.093164474 0.30168712 0.04078074 0.0068281833 -0.33874118 -0.16363172 -0.16166341 
http://dbpedia.org/ontology/country -0.049184408 0.1151433 0.046107356 -0.013679593 -0.005365792 -0.05077385 0.0033251776 0.1619487 -0.2597919 -0.039483245 0.06365875 -0.05390413 -0.018897224 0.12861101 0.0058432794 0.030686378 -0.019511567 0.0865287 -0.07234575 -0.31804535 0.06865422 -0.15481831 0.29884434 -0.019606348 -0.028607594 0.017777158 -0.0710242 0.07899184 -0.17449655 -0.055593815 0.0010085911 0.05323293 0.15873499 -0.106546685 0.042536132 -0.09725088 0.13161917 0.08039969 -0.13031971 -0.014209031 -0.07811682 -0.015745657 -0.22252396 0.14160918 -0.0057551404 -0.115001045 -0.017200446 0.09798521 -0.023220623 0.063039936 -0.049292665 0.00661235 -0.04913707 -0.20943658 0.10228573 -0.19650698 -0.1808392 -0.14242874 -0.1492513 -0.04598352 -0.12035308 -0.11235142 0.05912117 0.018359467 -0.11313724 -0.024927024 0.0727295 0.26018238 -0.106126584 0.16244188 -0.070525095 0.20153464 -0.004666591 0.1488991 0.04651667 0.18996044 0.09467451 -0.04525348 -0.055251718 -0.11807378 -0.011564097 -0.17276771 0.10405927 0.21568762 -0.27598768 0.0011560705 0.18463282 -0.01683781 -0.08077508 0.07736726 0.18615195 0.08944519 0.11377968 0.1211106 0.10312771 0.03808073 0.06297065 0.07409864 0.08004434 -0.03507456 -0.19594423 0.15420665 0.04210572 -0.00040912346 -0.087569594 -0.15487944 0.08703019 0.23682019 -0.14650738 -0.1431385 -0.0050010574 -0.079013176 -0.16753629 -0.1180416 0.15529294 -0.17071362 -0.041719846 -0.1948512 -0.19592986 -0.10566526 -0.15306313 -0.049217246 0.20314296 -0.14382629 -0.15728934 -0.07907024 -0.19444108 -0.056327064 0.03811133 0.090517126 0.0274649 -0.15943399 -0.12645563 -0.18909718 -0.00089789793 0.16669792 0.04327824 0.11485557 -0.047853243 0.068542324 0.15115987 -0.23547715 -0.11547529 0.09875017 0.06938567 0.15046988 0.04169411 0.024713976 0.035539746 0.1720831 0.17693526 -0.25131947 0.20479843 0.18268625 -0.19780733 0.070842855 0.16781916 0.06375595 -0.13896975 0.037484724 0.12751532 0.028458213 0.15441208 -0.2584598 0.11819259 0.086131476 0.14341371 0.14852299 -0.117058 -0.008571614 0.038670473 0.023155835 0.14142774 0.07893778 -0.043121412 0.14087912 -0.25135988 0.08187821 0.098129265 -0.037281077 -0.018979548 0.08235749 -0.105161674 -0.21465272 0.10354852 -0.14834352 -0.09205587 0.013927016 0.09546455 0.055901412 0.19244584 -0.021651717 -0.17527784 -0.08102348 0.21615607 0.11811011 -0.030164652 -0.18718737 -0.1327889 -0.17181712 
http://dbpedia.org/resource/Konkani_language 0.048845302 0.028080365 0.08049629 0.013874233 -0.04620686 -0.082895026 -0.0704859 0.17946072 -0.31861925 0.04861031 0.16250977 0.15387751 -0.14671125 0.30774146 -0.073937744 -0.01987381 0.20018962 0.14521502 0.032971688 -0.5280406 0.17963986 -0.22680642 0.26465887 0.15488964 -0.025695229 -0.040989604 -0.043994535 0.23644404 -0.30567244 -0.022922086 0.01090503 0.23646137 0.10247058 -0.22443569 0.13412224 -0.16920127 0.03229211 -0.16252701 -0.14712802 -0.044543847 0.020291641 -0.2406614 -0.24436185 0.24955893 0.14778875 -0.02930597 -0.10325069 0.07822542 -0.04850134 -0.00864063 -0.043418255 0.12386541 -0.15077008 -0.120838195 0.04727619 -0.2917037 -0.15889472 -0.29111794 -0.1555044 -0.11558225 0.06730163 -0.11242642 0.029340299 0.019364841 -0.15882476 0.16012028 0.22272386 0.2103425 -0.1540047 0.16872138 -0.1481216 0.22024512 -0.13709103 0.11072357 0.25945768 0.38964364 0.11102311 0.13655737 -0.057376336 -0.2434477 0.04999752 -0.13039342 0.11728533 0.2776159 -0.31238988 0.04677939 0.23442075 -0.015821777 -0.11688045 -0.026018314 0.26160058 -0.056674935 -0.016509848 0.10772061 -0.023302628 0.007041875 -0.022128979 -0.017310753 -0.0006515399 0.051697545 -0.01808501 0.22190881 0.14740178 0.03846175 -0.16172794 -0.12751377 0.11437306 0.2740061 -0.11114294 -0.09377455 -0.0672915 0.049636144 -0.24616574 -0.24309492 0.15098166 -0.25101653 -0.1543897 -0.121828526 -0.3680599 -0.09638638 -0.13073923 -0.129512 0.378555 -0.10380688 -0.26519626 -0.04998389 -0.07428943 -0.080598846 0.16350368 0.29466408 0.041630495 -0.13603288 -0.14957191 -0.26559928 0.11648006 0.21887136 0.21962084 0.05425541 -0.058045816 0.059981443 0.21015202 -0.30220604 -0.30944318 0.051968344 0.1219608 0.095458776 0.042716578 0.023554156 0.16432504 0.021175701 0.15139577 -0.44666043 0.21303205 0.090508945 -0.28096616 0.20056802 0.20037462 -0.021145782 0.05640197 0.07701835 0.28723398 -0.016391288 0.087931775 -0.33148557 0.31729674 0.2495463 0.20076819 0.26214543 -0.17823462 -0.20657614 -0.10862134 -0.06367357 0.20129041 0.24455135 -0.3357457 0.24990219 -0.25174594 -0.034794275 0.10650214 -0.046236582 -0.01624421 -0.028928902 -0.027109832 -0.2649591 0.19241433 -0.21172814 0.051433522 -0.01607891 0.015117601 0.049092315 0.31762826 -0.035689253 -0.3297563 -0.2339941 0.2913309 0.055979732 0.08921793 -0.25796714 -0.18507032 -0.31388164 
http://dbpedia.org/ontology/timeZone -0.009585044 0.09358866 0.12003145 -0.025195917 -0.044176567 -0.12155934 0.04764345 0.17290688 -0.3061112 -0.05635912 0.0987289 -0.0777539 -0.014043046 0.19145823 -0.034737546 0.059898455 -0.0154099865 0.06730014 -0.06825369 -0.44147187 0.12703787 -0.08792868 0.38229254 0.011057304 -0.029413294 0.06519973 -0.07295538 0.0907222 -0.16386825 -0.11091742 0.0578574 0.14384997 0.19458465 -0.04768325 0.021691669 -0.11919737 0.13019414 0.039742816 -0.17899431 -0.10347033 -0.023929495 -0.046662223 -0.25146526 0.14246778 0.012161447 -0.075016834 -0.04314611 0.029874682 -0.0899391 0.0680442 -0.13161995 0.024249937 -0.089275084 -0.21579435 0.10774613 -0.28914914 -0.2053645 -0.22609141 -0.14679125 -0.1065696 -0.13970357 -0.12339211 0.09484493 -0.03693464 -0.157135 0.020465005 0.110952444 0.24262464 -0.17983682 0.14932826 -0.120085455 0.25833225 -0.048362393 0.1943203 0.088069394 0.20725772 0.14470178 -0.04341957 -0.13167845 -0.09587233 0.045440108 -0.19257523 0.12037542 0.25760895 -0.27561167 -0.034047987 0.26524943 -0.07747979 -0.18697518 0.053115867 0.1410673 0.069052085 0.103191696 0.12771294 0.123823665 0.06450962 0.12639488 0.024148416 0.06820775 0.03341816 -0.16036375 0.17775644 0.019457545 0.05064298 -0.13505903 -0.20473054 0.058817204 0.26253322 -0.18662415 -0.1902153 0.027295077 -0.039392687 -0.1873542 -0.10004374 0.13344899 -0.17154291 -0.01009066 -0.16422904 -0.19908437 -0.1684529 -0.17250057 -0.06490888 0.2257895 -0.267345 -0.19429804 -0.06169486 -0.22267784 -0.023279918 0.033658516 0.18916565 0.04365494 -0.1774069 -0.11874287 -0.20160386 0.015176834 0.12571919 0.00991381 0.13037868 -0.044592917 0.09689757 0.2071898 -0.26505575 -0.16813523 0.08627533 0.11097319 0.16367067 0.025330318 0.015617418 0.15767497 0.1881915 0.17256258 -0.26188403 0.24444485 0.23062249 -0.23946825 0.16975375 0.14576025 0.01261688 -0.06549257 0.054695033 0.19555655 0.025930846 0.10565724 -0.2469551 0.1856191 0.13482365 0.14031368 0.1548369 -0.13188404 -0.045248903 0.018598363 -0.03437728 0.17040393 0.11870321 -0.14384726 0.17233428 -0.23415387 0.039015636 0.12297877 -0.026663039 -0.053154822 0.062016632 -0.1336546 -0.2151643 0.14330977 -0.24861766 -0.09205082 -0.001964393 0.13914661 0.1073331 0.19368912 -0.034702845 -0.28716615 -0.0736269 0.20667219 0.10670862 -0.036108192 -0.18791987 -0.16325863 -0.121217966 
http://dbpedia.org/resource/Indian_Standard_Time -0.07086621 0.04069979 0.07141862 0.0445647 -0.048781097 -0.07849745 0.021204118 0.17518961 -0.33208722 -0.012027136 0.0806684 -0.015795346 -0.058837865 0.20214805 -0.038193434 0.036578175 0.0072657056 0.10247134 -0.070401065 -0.38268164 0.1232418 -0.13128191 0.34053448 0.056103144 0.0119663 0.045651194 -0.10840826 0.101180255 -0.23679875 -0.086278826 0.035321224 0.14832386 0.13007817 -0.12629822 0.065538265 -0.13196647 0.031069122 -0.027872343 -0.1705279 -0.093048275 -0.033536106 -0.107832536 -0.2575323 0.15041883 0.0064948983 -0.086379744 -0.01988301 0.058889173 -0.05743982 0.026792958 -0.07656653 0.012039742 -0.014060634 -0.20567219 0.06898159 -0.27831295 -0.21015267 -0.25271618 -0.12507296 -0.08771456 -0.050060023 -0.15476778 0.079979666 -0.054744747 -0.15281326 0.052850507 0.13506591 0.27434355 -0.13469641 0.17612259 -0.1447016 0.21785519 -0.11956004 0.11900734 0.12243144 0.18745415 0.08838282 0.039126948 -0.07283044 -0.18843281 -0.0028346376 -0.19490209 0.13766056 0.23089144 -0.3181426 -0.03000803 0.24702542 -0.08164466 -0.18572958 0.012267745 0.1666203 -0.007444051 0.06903572 0.11209582 0.08600211 0.035620686 0.09079643 0.010740622 0.057809893 0.033489093 -0.21763168 0.13141298 0.058212988 0.079917565 -0.17015111 -0.16708563 0.065353535 0.25910723 -0.1572482 -0.1815749 -0.010061952 -0.059648905 -0.18529846 -0.11224642 0.08317642 -0.14711682 -0.041033972 -0.16796163 -0.21305501 -0.09288179 -0.1911595 -0.10030469 0.2336854 -0.14071515 -0.17364804 -0.015442891 -0.21661595 -0.028368311 0.046378173 0.2094079 0.058961075 -0.15927963 -0.1681434 -0.18298459 0.053842247 0.15836781 0.09049153 0.12853266 0.033174917 0.062540896 0.20953095 -0.25270063 -0.20369601 0.057654124 0.0807245 0.12812573 -0.014035484 0.10218269 0.165849 0.14223216 0.17817968 -0.27872223 0.25025058 0.19493382 -0.24482074 0.16236061 0.20511563 -0.036385275 -0.115852356 0.034415204 0.17657898 0.010308067 0.15925775 -0.2545668 0.16979101 0.12383499 0.1506418 0.1772705 -0.071912974 -0.08469377 0.059337743 -0.037132166 0.19280376 0.14675164 -0.13479184 0.22490439 -0.24740973 -0.0114755845 0.17157091 -0.013884407 -0.024917856 0.019554023 -0.007674364 -0.29270336 0.11605326 -0.26946366 -0.060388897 0.022820165 0.08322978 0.09922123 0.25632656 0.039932217 -0.22160651 -0.07906273 0.25365528 0.13450779 -0.038039252 -0.20632741 -0.14328668 -0.15116338 
http://dbpedia.org/resource/List_of_Mumbai_radio_stations -0.10518225 0.12988056 0.18327402 -0.008020566 -0.11784418 -0.09997626 0.0007134122 0.22961485 -0.40672567 -0.041447952 0.1076902 -0.009129944 -0.059269782 0.2546591 -0.062606156 0.08785358 -0.08724191 0.046590786 0.055409137 -0.5193324 0.14403908 -0.17181036 0.5368481 0.15888524 -0.01979065 0.10423393 -0.19963184 0.15661722 -0.2381723 -0.14740308 0.031675026 0.2379646 0.19663809 -0.14664769 0.20084888 -0.19790405 0.10887869 -0.066388585 -0.21315548 -0.17726372 0.0021073113 -0.12611979 -0.42296618 0.13558625 0.0058898786 -0.13983124 -0.08076387 0.15707873 -0.056035798 0.00874876 -0.19074348 0.042237937 0.0022821545 -0.1581877 0.2382158 -0.3536568 -0.33455858 -0.36593917 -0.09990466 -0.09367447 -0.17500822 -0.17885847 0.11950732 -0.047966048 -0.19942328 -0.06049852 0.18098614 0.30154476 -0.19159324 0.27772927 -0.16044745 0.3201535 -0.21892712 0.18267266 0.08433579 0.22690797 0.05731225 0.012471014 -0.06720673 -0.2321369 0.013725266 -0.26487216 0.20427072 0.3373129 -0.43290782 -0.056314144 0.41952798 -0.058896694 -0.27355975 0.12524518 0.16615601 0.0017054649 0.06106396 0.15339386 0.08886942 -0.07811659 0.10364528 -0.0066748178 0.09633574 0.09314232 -0.19723113 0.08170643 -0.01357621 -0.0075177066 -0.18201685 -0.17745674 0.14439242 0.313509 -0.2760664 -0.1661787 -0.06092873 -0.051121328 -0.258393 -0.13317657 0.17721134 -0.16057566 -0.05776424 -0.18433407 -0.24478559 -0.2727229 -0.23765384 -0.10638169 0.20738898 -0.2898418 -0.20560615 -0.041560296 -0.25949413 -0.12152581 0.08338987 0.3513449 0.16418216 -0.20363069 -0.21038213 -0.31191656 0.10090491 0.15928131 0.032921907 0.25537384 0.118997134 0.059166003 0.29239252 -0.36428735 -0.27357095 0.10853684 0.07772863 0.19267087 -0.042877752 0.21817812 0.23352712 0.21085232 0.21235056 -0.36970887 0.4072577 0.4256792 -0.35834637 0.32935604 0.22959132 0.032942522 -0.20650132 0.010065458 0.22028643 -0.011143554 0.12787975 -0.30308124 0.22203718 0.27035543 0.13400806 0.15793584 -0.090045124 -0.09949574 0.058944397 0.03471456 0.2146799 0.11294284 -0.1856598 0.22300318 -0.26081023 0.03636786 0.24537833 -0.014671796 0.034403794 -0.06389736 -0.07702547 -0.4205104 0.15076767 -0.300549 -0.17366925 0.011003091 0.14156257 0.2026036 0.4033457 0.028095221 -0.36479202 -0.06728926 0.2968318 0.17320055 -0.074397705 -0.3258749 -0.12922385 -0.1317398 
http://dbpedia.org/ontology/governingBody -0.025629135 0.094519384 0.09942835 -0.059836432 -0.04466272 -0.079108045 -0.001473737 0.13717969 -0.27916193 -0.007665745 0.092645384 -0.08592216 0.020408047 0.119850755 0.015498691 0.037031572 -0.0012915245 0.07394607 -0.07418036 -0.3645019 0.12775582 -0.13593762 0.2546398 -0.008516512 -0.056822587 0.029017435 -0.023028407 0.10919395 -0.18876673 -0.07427263 0.04574547 0.06167526 0.1752451 -0.100873396 0.020886963 -0.07865301 0.1458279 0.074268356 -0.15772156 -0.037363708 -0.079502545 -0.040411454 -0.24566802 0.14879346 -0.004732531 -0.10937003 0.020265555 0.08137321 -0.07421413 0.10357061 -0.0722988 -0.00878557 -0.08027085 -0.20777741 0.12970454 -0.1943736 -0.20518799 -0.1825266 -0.14741386 -0.09135687 -0.14845496 -0.10629227 0.087325215 -0.014195975 -0.12046099 0.05118498 0.105359346 0.24984409 -0.12354036 0.17429514 -0.038914196 0.2151694 -0.014914342 0.15617509 0.08314183 0.2600633 0.11889307 -0.03708773 -0.06215539 -0.088731565 0.004664772 -0.16483112 0.08039506 0.23126948 -0.2961282 0.0068441057 0.14300328 -0.055439692 -0.07104123 0.08824664 0.16602254 0.07959644 0.111933246 0.107103206 0.09589663 0.040948845 0.079030976 0.020468516 0.089454636 -0.044284567 -0.15252648 0.17339522 0.033711232 0.004127026 -0.116033025 -0.1997509 0.046670415 0.26594374 -0.13891561 -0.13651912 -0.0014344814 0.0033208835 -0.16816485 -0.10019451 0.13048744 -0.13701154 -0.009759092 -0.1763659 -0.23598136 -0.09549071 -0.16027556 -0.05512354 0.20428078 -0.2051166 -0.16630937 -0.042780433 -0.2253027 0.004531401 0.06529117 0.14400767 -0.0117217 -0.13976474 -0.16068308 -0.18701756 0.012654806 0.15115468 0.04111702 0.08166157 -0.07152434 0.05698227 0.10042141 -0.22313902 -0.09438363 0.10927425 0.12113155 0.14207886 0.061419614 0.03355982 0.038561217 0.15450391 0.20042357 -0.24665642 0.2121895 0.17655115 -0.24584319 0.08433462 0.17448089 0.058333524 -0.106641315 0.026653245 0.13286778 -0.017474014 0.12887242 -0.23351064 0.1773921 0.14346315 0.14982271 0.17090328 -0.13678148 -0.03535049 0.0397941 0.014863494 0.1602024 0.13854513 -0.08760241 0.17712411 -0.2543949 0.10198415 0.11322254 -0.046751652 -0.053359848 0.11203709 -0.09362072 -0.21696225 0.15859255 -0.18305 -0.024962703 0.0017589299 0.06523444 0.09184216 0.20919709 -0.0016034931 -0.24645877 -0.1253547 0.22683044 0.11271833 -0.032492857 -0.17747702 -0.15072966 -0.11277565 
http://dbpedia.org/resource/Navi_Mumbai 0.052653983 0.024787238 0.081144154 0.030981671 -0.040990878 -0.08342964 -0.04559218 0.18098353 -0.32415128 0.047395296 0.16984263 0.15834436 -0.16318323 0.31441736 -0.09004997 -0.026424475 0.21472833 0.15537097 0.011441633 -0.53625613 0.18488999 -0.21458444 0.27711388 0.14132245 -0.013453034 -0.04753185 -0.053755786 0.21642104 -0.30715308 -0.042471007 0.011212951 0.23750576 0.10540074 -0.22411428 0.117229536 -0.1730834 0.024617357 -0.17623712 -0.14600883 -0.054539923 0.029944513 -0.24427986 -0.23191874 0.23277599 0.14964624 -0.016847419 -0.116608925 0.069175676 -0.043413036 -0.0050719376 -0.048955 0.11532528 -0.15550785 -0.11856863 0.033634633 -0.30060375 -0.15390386 -0.29200143 -0.16850585 -0.12738745 0.07301521 -0.1127967 0.04010762 0.0039208974 -0.1563909 0.16100524 0.21759503 0.21510182 -0.16400239 0.15413679 -0.15113957 0.23042166 -0.13296813 0.10531956 0.2712806 0.36340082 0.124330536 0.13519572 -0.07336724 -0.24450593 0.053042535 -0.13708845 0.11203388 0.27931315 -0.31454363 0.03619975 0.24081579 -0.03255118 -0.14046045 -0.030157268 0.25380626 -0.048946176 -0.012687428 0.10555594 0.0006494334 0.020539226 -0.022879036 -0.02382792 -0.004461733 0.058793906 -0.028776243 0.21393825 0.16258958 0.07068409 -0.15987705 -0.13196571 0.111620314 0.2760454 -0.115536965 -0.10495894 -0.06353401 0.035902523 -0.23852631 -0.23262827 0.14069001 -0.2304397 -0.14062175 -0.10870176 -0.36158243 -0.09580205 -0.13306065 -0.11772554 0.3791335 -0.11914386 -0.2626533 -0.04037168 -0.08023528 -0.059290774 0.14581998 0.30133006 0.04140632 -0.1352848 -0.14686579 -0.26756415 0.102423206 0.21081845 0.21175861 0.046831463 -0.0435777 0.06401578 0.23552376 -0.3058368 -0.317019 0.052947618 0.13575244 0.1097485 0.025429197 0.010434678 0.18055987 0.01032945 0.15156373 -0.43573797 0.21624124 0.07913476 -0.27089527 0.20878573 0.19800937 -0.02299963 0.064519025 0.10252953 0.27993166 -0.014142507 0.0731874 -0.3273438 0.3189223 0.24453574 0.18977897 0.2628762 -0.1553846 -0.21325828 -0.10882222 -0.090284586 0.20728807 0.24659394 -0.33952895 0.24888872 -0.24182294 -0.057020955 0.11931516 -0.05482592 -0.03155384 -0.02155063 -0.02105768 -0.25350907 0.19477339 -0.20975837 0.057324976 -0.012249498 0.0271497 0.03840284 0.30896378 -0.03925232 -0.32546672 -0.22638048 0.28795514 0.057912275 0.08124678 -0.25692797 -0.1784117 -0.31403846 
http://dbpedia.org/resource/Maharashtra 0.031407174 0.034171518 0.05903687 0.016554829 -0.029366678 -0.06413103 -0.059462093 0.17516844 -0.30799165 0.053647578 0.14135909 0.15601082 -0.14421268 0.29334277 -0.08015638 -0.034044594 0.19766673 0.15015775 0.019826116 -0.5050152 0.17247066 -0.22545403 0.24256343 0.14683981 -0.011242238 -0.053801868 -0.03026492 0.22546071 -0.30593348 -0.023687271 0.011697555 0.21923728 0.09140171 -0.23072094 0.12993594 -0.16160814 0.036233168 -0.15165044 -0.13155623 -0.04089602 0.013405405 -0.23441042 -0.23405103 0.24280919 0.15362076 -0.031008055 -0.08961355 0.0757653 -0.03160777 -0.011678126 -0.041345943 0.120269775 -0.13619207 -0.11346636 0.031816144 -0.2809183 -0.15240943 -0.2838244 -0.1566191 -0.116409354 0.086372055 -0.10527762 0.03490784 0.010951761 -0.1548035 0.15681626 0.22775696 0.21223181 -0.15286277 0.16855343 -0.14086929 0.21545632 -0.12557326 0.10235507 0.24525744 0.37906423 0.10540482 0.13676678 -0.05275976 -0.24330713 0.041911647 -0.13036248 0.10119661 0.25469363 -0.29672462 0.037805296 0.2185022 -0.025563316 -0.107986495 -0.022608377 0.24555448 -0.04845147 0.0006407657 0.09600102 -0.009631783 0.009318826 -0.027534137 -0.022145893 0.0076464177 0.03950345 -0.03229974 0.2185852 0.13950256 0.02627965 -0.14383724 -0.1302509 0.11292127 0.2651124 -0.102306046 -0.09615382 -0.055415332 0.04681053 -0.22512662 -0.24317019 0.14692059 -0.24348892 -0.14767061 -0.1166354 -0.34883073 -0.07432583 -0.12871958 -0.12796754 0.3740126 -0.07301464 -0.2576911 -0.049442634 -0.053419936 -0.08585945 0.16157751 0.27867615 0.046342563 -0.13430215 -0.15111586 -0.2553661 0.11003524 0.22201204 0.21809289 0.04771886 -0.04583707 0.052353576 0.2121882 -0.28527468 -0.2912083 0.033089917 0.112879 0.097015925 0.032113984 0.023311818 0.14831457 0.0018683012 0.15671721 -0.42276186 0.19107346 0.076006904 -0.26670852 0.17939739 0.19532648 -0.021410197 0.055426486 0.06386238 0.2755272 -0.010448379 0.084454134 -0.32632935 0.30924606 0.23301348 0.19834876 0.24248339 -0.17012775 -0.21544473 -0.102821834 -0.06492829 0.18903044 0.24963033 -0.3210486 0.24077065 -0.25339866 -0.02212908 0.09850972 -0.03755285 -0.011323308 -0.02952211 -0.012548752 -0.25092036 0.17305304 -0.19661333 0.05846494 -0.015061659 0.014093072 0.033861868 0.30133227 -0.025920019 -0.31135628 -0.22870621 0.29591504 0.052883893 0.086938046 -0.25473154 -0.18155915 -0.3098865 
http://dbpedia.org/resource/Municipal_Corporation_of_Greater_Mumbai -0.04670268 0.03767288 0.057467256 -0.034772143 0.0145763215 -0.040481824 -0.026443519 0.15007156 -0.25306955 0.023032522 0.043131094 -0.0016197299 -0.047909528 0.13527536 -0.046972718 0.039937172 -0.007694995 0.07268027 -0.05681963 -0.32640222 0.08541167 -0.12107252 0.28755465 0.0402655 -0.015282614 0.043677285 -0.065159984 0.09214778 -0.17311953 -0.045250185 0.049405605 0.1073478 0.119133614 -0.10427754 0.057823192 -0.09674197 0.04209412 0.020736335 -0.15314792 -0.012260618 -0.012346358 -0.099777445 -0.22636735 0.17641446 0.03912332 -0.11299828 0.0193625 0.025799258 -0.032509897 0.011606409 -0.06328984 0.019352617 -0.048953414 -0.15055467 0.070219636 -0.21701771 -0.18031712 -0.20590565 -0.11208424 -0.12245996 -0.07035802 -0.14777315 0.092239544 -0.011157625 -0.15160389 0.03400237 0.1556864 0.20683792 -0.10026182 0.18103838 -0.1308877 0.18454011 -0.090093896 0.16912392 0.07227133 0.24662158 0.11658187 0.0016826824 -0.07084263 -0.13181832 0.029080447 -0.17950368 0.09925733 0.17842394 -0.29357588 -0.029363034 0.15323198 -0.013460718 -0.15374471 0.034427222 0.13979933 0.016843488 0.06567296 0.09069731 0.073145434 0.01491058 0.10405654 0.06623294 0.056141995 -0.020201573 -0.19113979 0.16741133 0.02423128 -0.0007514375 -0.13927147 -0.16473082 0.07159225 0.2579506 -0.10907711 -0.14063941 0.0103317145 -0.0069234828 -0.13221341 -0.14656562 0.08650475 -0.17550552 -0.051659714 -0.16688669 -0.17241693 -0.08351419 -0.14861888 -0.08585448 0.21209513 -0.13520987 -0.18829124 -0.037785362 -0.15628345 -0.0323689 0.07242296 0.13430128 0.01981268 -0.17523026 -0.17507234 -0.14433403 0.048003327 0.15469131 0.08117477 0.08030733 -0.00852305 0.035183977 0.15952869 -0.22624607 -0.15540151 0.03480049 0.10065621 0.08633144 0.0294433 0.050268166 0.073489286 0.09749424 0.15003255 -0.23052931 0.20073397 0.16448915 -0.2002229 0.13259968 0.1820115 0.006677419 -0.07607314 0.01517664 0.1719465 -0.021161113 0.16555712 -0.27430743 0.15815109 0.12386589 0.10630818 0.16161017 -0.107825644 -0.09829837 0.049154848 -0.017353183 0.17219836 0.15310019 -0.13989884 0.19476783 -0.22656812 0.010302098 0.08473372 0.028029876 -0.022800699 0.00011059713 -0.037674714 -0.251689 0.12044834 -0.1982257 -0.05722933 0.030388659 0.09427271 0.06283088 0.17169102 -0.006058169 -0.20039757 -0.089719675 0.24144822 0.083154745 -0.012407301 -0.18017736 -0.114435524 -0.14904507 
http://dbpedia.org/resource/List_of_educational_institutions -0.111293815 0.120736785 0.18507648 -0.0063589504 -0.10058678 -0.072889164 0.008740544 0.21655253 -0.40151903 -0.028187055 0.09112166 0.007650628 -0.077751055 0.26188058 -0.06797238 0.08749255 -0.09481339 0.05400621 0.07127075 -0.49537808 0.12447132 -0.1659195 0.54839975 0.17498267 -0.01668302 0.10698655 -0.21566729 0.13457306 -0.21658416 -0.15220591 0.052963186 0.24696037 0.15036455 -0.12489136 0.20555224 -0.2195161 0.0716678 -0.08674708 -0.20025083 -0.1942803 0.0480956 -0.15924793 -0.3971984 0.12882109 0.008923253 -0.11112335 -0.09146978 0.13669378 -0.05888436 -0.028263249 -0.17830053 0.030081054 0.030812068 -0.1504159 0.19589788 -0.3576784 -0.33398372 -0.38420936 -0.0862323 -0.12717095 -0.1592777 -0.17644878 0.13523422 -0.047060266 -0.19339105 -0.07172816 0.18678707 0.28384554 -0.20088996 0.2626168 -0.18970387 0.3000091 -0.2454801 0.17731428 0.0820909 0.18485786 0.034852836 0.04510765 -0.070330665 -0.22521266 0.021266095 -0.29573783 0.19763671 0.32089406 -0.41928473 -0.06845244 0.43437797 -0.07350414 -0.30334625 0.09915772 0.14048292 -0.009639661 0.038163938 0.14166065 0.084223405 -0.10566739 0.11738719 -0.0074736066 0.08678811 0.114884965 -0.1903581 0.04690172 -0.019667275 0.0026143657 -0.20739736 -0.15010604 0.15261029 0.29278687 -0.27722797 -0.16037457 -0.06577372 -0.04044176 -0.23992585 -0.14098872 0.15747204 -0.14678358 -0.06585001 -0.17880334 -0.2210567 -0.2912111 -0.23836237 -0.09500552 0.18077435 -0.26167506 -0.21763986 -0.036365442 -0.2435135 -0.13035506 0.07149707 0.37419498 0.16268751 -0.1908849 -0.21434936 -0.29992375 0.09256715 0.1289979 0.022569966 0.2576964 0.14387834 0.056990024 0.31982785 -0.35460082 -0.26773918 0.0982956 0.08474207 0.1785332 -0.08819544 0.24297853 0.26004174 0.20197587 0.16629253 -0.3436011 0.42076996 0.42336756 -0.34302315 0.3568717 0.20264843 0.008814878 -0.20295912 0.012074859 0.23722309 -0.02451776 0.12243393 -0.27874646 0.21939142 0.25694096 0.103467815 0.1686678 -0.07297644 -0.1315168 0.087222725 0.039401453 0.21408905 0.08983635 -0.19731057 0.23337108 -0.22654279 0.0059910463 0.2525731 -0.013649819 0.055800326 -0.09742691 -0.06206891 -0.40565374 0.13623452 -0.30798542 -0.18772061 0.047807332 0.15300456 0.20593481 0.41155508 0.032750662 -0.36978364 -0.026188042 0.29351282 0.17686167 -0.08984837 -0.3333719 -0.0943997 -0.12484046 
http://www.mcgm.gov.in -0.057523627 0.08057441 0.06044934 -0.05124955 -0.013679777 -0.08818884 -0.0230709 0.17437515 -0.23470244 -0.016699193 0.06910482 -0.022494463 -0.055237614 0.17342697 -0.087246135 0.085609026 -0.024981543 0.10328743 -0.060077935 -0.367824 0.075130105 -0.13619739 0.26933694 0.0190576 -0.075765535 0.06124236 -0.045782223 0.09791887 -0.19703718 -0.04776513 0.060967498 0.091860555 0.1655941 -0.13045077 0.12393157 -0.08424083 0.09117077 0.039507985 -0.12403304 0.022344459 -0.049379252 -0.076656654 -0.29707217 0.1706319 0.02230175 -0.14203931 0.060369287 0.057281923 -0.0071933405 0.0063543003 -0.03279795 0.041184712 -0.019783523 -0.16742885 0.10048783 -0.15643682 -0.23340972 -0.1712896 -0.11037238 -0.08572085 -0.020407217 -0.15703425 0.04934367 0.03698708 -0.11280975 0.0200923 0.18683703 0.2196219 -0.083228536 0.20326182 -0.104911104 0.20078908 -0.034208182 0.12806737 0.07931749 0.29075655 0.10029683 -0.04963795 -0.035162855 -0.15229405 -0.020353517 -0.10937715 0.11860363 0.1996057 -0.33428833 -0.018494638 0.16905269 0.014117802 -0.13542928 0.020911222 0.21096806 0.027209533 0.08267299 0.12551802 0.088554494 0.014070763 0.07766945 0.056409866 0.0745918 -0.010795613 -0.21269287 0.21576655 0.03861118 0.0016795648 -0.15714408 -0.1657426 0.023277417 0.2523172 -0.10859597 -0.10077461 -0.029035693 -0.07703143 -0.1838321 -0.11796092 0.059843794 -0.17319189 -0.08572698 -0.18145476 -0.15202945 -0.04171342 -0.19145687 -0.058147196 0.2731113 -0.16319357 -0.23178007 -0.08635336 -0.14007092 -0.107973024 0.102783024 0.13336958 0.06702023 -0.19940986 -0.1447641 -0.15230782 -0.004632343 0.2043268 0.075972475 0.08475327 -0.007984355 0.023503108 0.17061976 -0.28978232 -0.16475976 0.051717456 0.03912984 0.119776174 0.046958916 0.052010406 0.020667223 0.08529269 0.25269634 -0.29418638 0.24280062 0.19443396 -0.22098838 0.10420493 0.2798519 -0.047063258 -0.12280035 -0.0010883984 0.15271236 0.0073100226 0.1556747 -0.30556262 0.21060352 0.07634886 0.19296934 0.14562257 -0.14679864 -0.0764778 -0.012124658 -0.036418032 0.16203666 0.16083011 -0.070479535 0.2544035 -0.29474917 0.03958546 0.088875785 0.016745826 -0.033210777 0.031183634 -0.029234836 -0.25430173 0.14035359 -0.23899812 -0.08680826 -0.0048838267 0.039563954 0.10855019 0.21455172 0.02904377 -0.19371465 -0.13214204 0.2588847 0.12100888 -0.043560237 -0.15817323 -0.119530305 -0.1723631 
http://dbpedia.org/resource/Heritage_structures -0.08999764 0.12318385 0.17656703 -0.010589042 -0.087767586 -0.071850196 0.0027842072 0.22323284 -0.4306604 -0.027507517 0.101047374 -0.010761601 -0.044207744 0.26513624 -0.047468547 0.073274545 -0.061784666 0.08074938 0.035238475 -0.53255826 0.12915972 -0.18437167 0.5392716 0.14122304 -0.006107363 0.09849733 -0.1725214 0.14961325 -0.24663469 -0.13695092 0.058240265 0.2266423 0.17624411 -0.1266205 0.17617896 -0.20154436 0.087920606 -0.066186555 -0.21499018 -0.18275051 0.009945759 -0.14839636 -0.40220836 0.15995312 0.016271163 -0.11616557 -0.07723403 0.13261317 -0.07785239 -0.012409362 -0.1712251 0.018813508 -0.021298641 -0.17915094 0.18596722 -0.37744567 -0.33464667 -0.3825133 -0.1074742 -0.13558723 -0.15336144 -0.19180171 0.15143901 -0.039852876 -0.22229311 -0.025278494 0.18697956 0.298907 -0.21756518 0.27213556 -0.16649531 0.32757735 -0.21039757 0.20363547 0.090169474 0.24465965 0.06863016 0.038963456 -0.08317293 -0.22125895 0.037212223 -0.29592296 0.18499163 0.3295256 -0.42438158 -0.06335774 0.40312818 -0.089600325 -0.26598153 0.11172463 0.16186641 0.011472459 0.066019766 0.14519233 0.09519736 -0.06676782 0.12780665 -0.010061598 0.10792868 0.07218295 -0.19991884 0.09830793 -0.002907698 0.0134975305 -0.19760852 -0.18482426 0.14772369 0.3235536 -0.2578565 -0.18614142 -0.043717656 -0.02287095 -0.24303783 -0.16332334 0.187585 -0.17446117 -0.051402077 -0.20135224 -0.2588587 -0.2680906 -0.22675754 -0.106718466 0.23092073 -0.2518875 -0.24331732 -0.03722416 -0.25565726 -0.097035326 0.086767614 0.36102682 0.13855903 -0.20973091 -0.2255322 -0.3002774 0.09970302 0.16713947 0.05840369 0.23189612 0.088581525 0.08110895 0.2954189 -0.34154412 -0.255002 0.10192109 0.105462536 0.18448132 -0.04530989 0.21025957 0.24418229 0.20683835 0.1992061 -0.36628684 0.39505383 0.37696394 -0.36617622 0.3215929 0.21371435 0.041278172 -0.17373358 0.009985217 0.24569811 -0.0049148356 0.14825688 -0.30337384 0.22726789 0.2565192 0.11682266 0.20501496 -0.11187536 -0.14773118 0.07501014 0.041510575 0.22078279 0.12916112 -0.20584841 0.23378691 -0.26265877 0.037335932 0.23413959 -0.02367932 0.028073052 -0.052086942 -0.0749111 -0.38992578 0.1595944 -0.31380194 -0.15411341 0.0312528 0.14609046 0.17948432 0.38291985 0.019696292 -0.379608 -0.0588447 0.32714364 0.15792032 -0.07315017 -0.33546674 -0.11955555 -0.16215968 
