http://dbpedia.org/resource/Mumbai -0.14970459 0.08336619 0.1618372 0.2101408 -0.15462941 0.016666094 0.096962385 0.25055856 -0.29677254 -0.1970487 0.15717724 -0.009611664 -0.13673848 0.11441608 -0.23396903 0.039433185 0.10312655 -0.015791055 0.07774799 -0.46679142 0.15712453 0.20162581 0.3422054 0.24395344 0.0810184 0.14300911 -0.11845866 0.15602362 -0.18782637 -0.00069643283 -0.17458737 0.24132608 0.11473434 -0.0833072 0.15280312 -0.13388948 0.10217564 -0.15665676 -0.11391605 0.012678465 -0.030893657 -0.19467928 -0.39252457 0.09005459 0.1415568 -0.0794204 0.05943423 0.01178834 0.062491637 -0.032355104 -0.1348406 0.12370033 -0.06993353 -0.20487602 0.13668646 -0.40672582 -0.27010027 -0.40589967 -0.0076158824 0.109705135 -0.08303874 -0.063229844 0.08658409 -0.1339442 -0.23657492 0.053019196 0.009559719 0.19182295 0.008981585 0.189018 -0.0074509834 0.3062239 -0.22718465 -0.024244394 0.18929732 0.20516114 0.12844002 0.0765295 0.021523789 -0.21131237 -0.06212565 -0.25968757 0.38791382 0.14524549 -0.3803337 -0.060685836 0.29434 -0.061686758 -0.28635117 -0.09480448 0.1598874 0.016780034 0.028838523 0.07052309 0.18957081 -0.023041349 0.1700398 0.050223693 -0.11340713 0.31506357 -0.25637788 0.31664133 0.059587978 0.113836944 -0.24629828 -0.12533845 0.043849636 0.34670377 -0.27687815 -0.052615847 -0.16880101 -0.079551004 -0.23372103 -0.1010949 -0.025403647 -0.14943 -0.058107402 -0.17287242 -0.0022984114 0.07082649 -0.13849042 0.00095564313 0.40540844 -0.06610062 -0.21538967 -0.12516767 -0.23296985 0.15860046 -0.019932514 0.3316178 0.33873528 -0.4478379 -0.08148321 -0.1451667 0.09016811 0.247251 0.2611571 0.26799056 0.24440159 0.20176919 0.2668535 -0.2825427 -0.35726747 0.0398603 -0.20288976 0.17900203 0.04755241 0.22109921 0.09342447 -0.07817352 0.108465984 -0.44232497 0.4285908 0.20236278 -0.22969179 0.25822037 0.3807921 0.032872185 -0.07387547 0.040441655 0.095700644 0.0028156713 0.11311524 -0.2650493 0.14685516 0.2115652 0.17106959 0.15854935 -0.025270162 0.008540961 -0.19183972 0.07907261 0.3939361 0.13058192 0.04341778 0.3083899 -0.19682519 -0.03987368 0.23744439 -0.06289091 -0.14572094 -0.14701115 0.15665303 -0.26828387 0.015829366 -0.27366638 -0.3641293 -0.13001448 0.14916587 0.14716884 0.2390399 0.06633512 -0.32837138 -0.22756648 0.12568939 -0.023629956 -0.0023849 -0.15974014 -0.12789455 -0.15430139 
http://www.w3.org/2000/01/rdf-schema#seeAlso -0.08581818 0.12307892 0.15755162 0.12033565 -0.1555979 0.022654736 0.081456706 0.20700102 -0.3416843 -0.23155996 0.26527604 0.016090011 0.00857022 0.11761232 -0.13926157 -0.00041675605 0.18207312 0.1100506 0.02312213 -0.52077854 0.0026249222 0.121809065 0.3381386 0.0654455 0.22922857 0.119911276 0.010241613 0.3008809 -0.34813046 -0.09262422 -0.12539577 0.13360214 0.0012016171 -0.11602507 -0.0566584 -0.14330171 0.06688759 -0.07780301 -0.114229195 -0.14024457 -0.064573646 -0.15163289 -0.42203423 0.13414547 0.20122188 0.029332077 -0.028892435 -0.07081653 -0.044548564 0.08380632 -0.19353911 0.016295053 -0.34810957 -0.28887266 -0.065102465 -0.51393867 -0.2796626 -0.4986725 -0.12625015 -0.0036640235 -0.005393738 -0.06817268 0.25576046 -0.061628446 -0.33457968 0.26455796 -0.022107871 0.22008123 -0.018697044 0.12175475 0.20413022 0.49811223 -0.1487994 0.17294087 0.3025798 0.34791356 0.21328676 0.11916123 -0.0016080079 -0.14788735 0.025375973 -0.38955626 0.20422788 0.18394959 -0.36057773 -0.16620073 0.31353793 -0.24870108 -0.26196316 -0.075839676 0.07272976 0.14241591 0.18769293 0.0881482 0.2706974 0.102673166 0.23499161 0.034019418 -0.20035434 0.14059432 -0.15509243 0.3767493 0.09843225 0.078720294 -0.078891814 -0.24184486 0.10919325 0.43335676 -0.160757 -0.15607469 -0.019433776 0.08733568 -0.090814136 -0.11902105 0.20236737 -0.19894251 0.050181862 -0.10099521 -0.1891622 0.17827787 -0.078599945 -0.059537955 0.5886296 -0.07596802 -0.3665037 -0.17784859 -0.11270114 0.26293063 -0.045135584 0.3597474 0.25571173 -0.48289773 -0.04880821 -0.2089493 0.18262751 0.41906452 0.26782355 0.13015771 -0.16380511 0.49092337 0.23757492 -0.09726721 -0.20389368 0.10513604 -0.059264876 0.28582567 0.17524962 0.11987449 0.007695704 -0.09614156 0.13306782 -0.5393424 0.28480127 -0.04676905 -0.34713542 0.2768147 0.30470255 0.17735343 -0.018454801 -0.047400016 0.17891575 -0.003253631 0.11835264 -0.17751856 0.21226874 0.25880098 0.13715063 0.37306532 -0.17100644 -0.032070126 -0.005462986 -0.036546033 0.44791996 0.25505552 -0.049557805 0.22217114 -0.13693443 -0.036343195 0.11166865 -0.10051219 -0.34686708 -0.037890095 0.010486307 -0.3135426 0.056171075 -0.2909875 -0.14294253 -0.11767528 0.14110142 0.0051493803 0.2455804 -0.07124433 -0.4579807 -0.25714073 0.13089176 -0.09282189 0.048692513 -0.24478844 -0.21568318 -0.3090779 
http://dbpedia.org/resource/State_Bank_of_India -0.43916404 0.19056283 -0.2621708 -0.11065058 0.22632743 0.17689478 -0.087403506 0.08401663 -0.068803646 0.222916 -0.29989716 0.063589804 0.02444844 -0.16950867 0.009874216 -0.08995344 -0.20519088 0.08423142 0.099313185 0.030598583 -0.04782834 -0.13732941 -0.13121897 0.07006189 0.03729173 -0.0731866 0.13474573 0.22114268 -0.2573096 0.052684683 0.14953692 -0.11631134 -0.17018424 -0.23816973 0.32957548 -0.109427534 0.041397873 0.29126045 0.23866366 0.26437917 -0.09446963 -0.110875644 -0.4416599 0.25276172 0.1864368 -0.3857892 0.3688558 0.071826085 0.20819473 -0.25436926 0.1360521 0.22762448 0.34008142 -0.30279818 0.09458743 0.070735775 -0.31533882 -0.09562063 0.0630478 -0.04049643 0.19411127 -0.120850794 0.11659283 0.013864618 -0.18981415 -0.0846174 0.29985023 0.44553 0.07518713 0.4788219 -0.17576233 0.04245845 0.07712925 0.0487941 -0.03954866 0.4007054 -0.1419356 -0.0096644815 0.14909545 -0.3006146 -0.3206164 -0.22856346 0.01431955 0.09624701 -0.20245965 -0.22137387 -0.05865048 0.11877408 -0.010852468 -0.23805954 0.1453502 -0.055203177 0.31175062 -0.07211612 0.25596607 -0.10728022 0.07835365 0.34717327 0.066482544 -0.20675927 -0.39778998 0.39624646 -0.27962506 -0.51716703 -0.08004517 -0.112746894 0.004385496 0.3399498 0.038882386 -0.06228964 0.0061170775 0.020930452 -0.04581042 -0.19348934 -0.0034694157 -0.3970444 -0.17756698 -0.4020723 -0.0090447655 0.2604132 -0.238595 -0.042967115 0.21534793 0.42774826 -0.17528899 -0.3315381 0.15378493 -0.26579592 0.16533355 -0.088042796 0.34865096 -0.31000498 -0.20528777 -0.11231023 0.015546359 0.44013524 0.31747186 0.078781866 0.17435351 -0.13347031 -0.045422483 -0.08843901 -0.05606335 -0.1635484 -0.2813256 0.029116344 0.085128404 0.27920255 -0.28593615 -0.09166629 0.3178 -0.1974897 -0.065277055 0.21643636 -0.16982551 -0.20996031 0.44497028 -0.21354303 -0.18442303 -0.42807397 0.14924994 0.04026844 0.4988826 -0.34893858 0.056445472 -0.13856003 0.17853265 -0.17012331 -0.3197598 -0.17149492 0.06843001 0.18305166 0.07538523 0.14227687 0.1293821 0.08969308 -0.41474262 0.24385883 -0.056536168 0.37157187 0.28172603 -0.05495787 0.19623864 -0.20227595 -0.029726312 -0.18419188 -0.2565812 0.20464922 -0.1914825 0.16478464 0.18548875 0.30947205 -0.060416814 -0.23003559 0.3421532 0.105478644 -0.058798213 -0.17799969 -0.027419789 -0.28227645 
http://dbpedia.org/ontology/location -0.108989194 -0.06763998 -0.1742035 0.04740695 0.18376619 0.2034843 -0.066811174 -0.00608496 -0.2386247 0.06726375 -0.2401661 0.15861712 -0.08612143 0.18529442 -0.13219324 -0.10397867 0.042887937 0.09367177 0.24879459 -0.33995315 -0.029628133 -0.059274945 0.1991251 0.32587495 -0.017945118 0.1172972 -0.124901645 -0.039872624 -0.16261676 0.1113994 0.33788773 0.34405115 -0.08162667 -0.0022237154 0.031390987 -0.07548174 -0.28631857 0.031286158 -0.088381946 -0.16580921 0.31321585 -0.39125654 -0.07939707 0.15617248 0.29103887 0.092100866 0.11277573 -0.3794247 -0.05445039 -0.36973464 0.05888539 -0.17287679 0.05247707 -0.17001437 -0.16370553 -0.39420915 -0.4295466 -0.43057066 -0.18075274 -0.35689154 0.055187028 -0.065411806 0.17435355 0.017429842 -0.15933536 0.06431116 0.094523974 0.12590191 -0.1017278 0.2024706 -0.18152663 0.22669514 -0.12110344 0.31907684 0.20279601 0.042171802 -0.08235167 0.3659614 0.0019554086 -0.065505624 -0.023146527 -0.50376064 -0.039449666 -0.071569726 -0.19437768 -0.31736186 0.31067953 0.07845571 -0.30560473 -0.23657961 0.03840289 0.07135997 0.03307674 0.004814621 0.021276334 -0.16230519 0.41028506 0.14914826 -0.07098516 0.17341629 0.13057633 0.17267601 0.051012855 -0.087328844 -0.47481552 0.10400969 0.20523708 0.10458102 -0.23778898 -0.17517784 -0.1685151 0.124421895 -0.0022062338 -0.42042968 -0.14156438 -0.23317476 -0.19146362 -0.49993026 -0.109224625 -0.10628018 -0.30096915 0.21030603 0.23737898 0.17972894 -0.38189518 0.047695942 0.06617933 0.0036961287 -0.10782865 0.36663228 -0.0764068 -0.26649985 -0.0863966 -0.1972447 -0.07696574 0.20817906 -0.11337399 0.05728178 0.028098905 -0.12722933 0.3490992 -0.17577438 -0.033076387 -0.113825165 0.100644715 -0.10848764 -0.26628685 0.21252166 0.18525186 -0.08224869 -0.28363732 -0.07555707 0.38036594 -0.053436782 -0.2668449 0.10386041 -0.054215357 0.02380055 -0.15580551 -0.16531362 0.5418969 -0.16865113 0.18908393 0.11670965 0.12769905 0.16612501 -0.17528121 0.3112242 -0.20848356 -0.31382716 0.102209516 0.23515509 0.2545153 -0.0383077 -0.08444973 0.36649957 0.071843274 -0.0073732124 0.21984625 0.07379213 0.13379444 -0.31941074 -0.04432546 -0.13617924 -0.07794973 -0.24526277 -0.10014229 0.47101936 0.1645781 0.0756105 0.24093895 0.01756549 -0.41519675 0.0695111 0.13788766 -0.08646439 -0.25158948 -0.3374957 0.1988405 -0.3608073 
http://dbpedia.org/ontology/isPartOf -0.32332957 0.31343478 0.2922556 0.30836716 -0.020457039 -0.034474514 0.27556244 0.050882924 -0.31241247 -0.05298853 0.2902429 -0.16656265 0.26495725 -0.018043282 0.03805022 0.13180165 -0.15570803 -0.08850981 -0.14922795 -0.5306396 0.067987636 0.48929894 0.54552263 -0.06276675 0.15197438 0.26895398 -0.057529937 -0.20996661 -0.1833942 -0.32476398 0.20566545 -0.016868126 0.38614342 0.2999025 0.07775267 -0.026901871 0.088655144 0.12897468 -0.024393005 -0.2630978 -0.0745238 -0.003416468 -0.39672717 -0.0960152 0.16934533 -0.19299644 0.1198263 0.079733476 -0.049611002 -0.04248369 -0.2717819 0.07345836 -0.25644624 -0.25326908 0.29002428 -0.3844984 -0.22714402 -0.4211235 0.21929803 -0.14921215 -0.3176168 -0.21996193 0.41250938 -0.1550058 -0.49496895 0.15037334 -0.2969603 0.27613044 -0.24981467 0.3105045 -0.15127583 0.42796466 0.008825707 0.35733998 0.027576039 0.012453569 0.024210388 -0.14861459 -0.3274879 -0.15343451 -0.054021765 -0.5086024 0.3753517 0.20271763 -0.20684579 -0.19368047 0.22574085 -0.27773505 -0.36016256 -0.010159751 -0.2032968 0.14142528 0.1456938 0.086217396 0.52311754 0.23765725 0.3427687 0.27327406 -0.04616573 0.018025672 -0.22382535 0.18798153 -0.22130407 0.28212368 -0.24639219 -0.3572427 -0.11062122 0.5965681 -0.2522228 -0.17596333 -0.060035657 -0.012726633 -0.18132192 0.018164141 -0.15936224 0.19157867 0.18147855 -0.41420028 0.21012118 -0.15030885 -0.21617141 0.14516509 0.22715443 -0.41525915 0.0005454279 -0.1868271 -0.45018283 0.51908684 -0.06955698 0.21933505 0.46685988 -0.2401125 0.11404161 0.022632513 -0.14150883 0.42686334 0.051112015 0.22311363 0.06659543 0.28287897 0.30852273 -0.008920101 -0.30625904 -0.047669575 -0.14848731 0.19338591 -0.008313242 0.35980165 0.10255773 0.123398654 0.18829429 -0.06730968 0.34978378 0.40998068 -0.100564316 -0.034074567 0.17042722 0.038779553 0.09726475 -0.018936614 0.08116814 0.124985866 0.35848153 -0.044049025 -0.037923522 0.10989125 -0.07658838 -0.09861444 -0.06480621 -0.09001245 -0.03433348 0.08165069 0.2858719 -0.13378812 0.11452646 0.013371684 -0.008696078 -0.14856283 0.3421619 0.10082238 -0.13275386 -0.111419655 0.0031635703 -0.09180152 0.17351158 -0.36217347 -0.42969337 0.007512096 0.35000852 0.38030732 0.025697345 0.17800607 -0.2754697 0.038304288 0.3912818 -0.30449817 -0.47720253 0.010959899 0.11907218 -0.043517757 
http://dbpedia.org/ontology/parentCompany 0.06374466 0.10216858 0.057985086 -0.4507734 0.023784649 -0.0316038 -0.15416992 0.21670322 -0.14978914 -0.067695804 0.08100462 -0.20656705 0.28437892 -0.34280252 0.12317154 0.15444583 0.064577736 -0.001237354 0.1629186 -0.2830816 -0.15720393 -0.10359922 0.107727915 0.045835942 -0.3218025 0.17713614 0.0753177 -0.20947449 0.3111247 0.24744913 -0.031040324 -0.02154625 0.21289657 0.20907758 0.43828323 0.064041674 0.07883473 0.070225105 -0.07623985 0.17253567 0.03734281 -0.1856282 -0.19954295 0.48865667 -0.058439367 -0.33007213 0.19684756 -0.011205634 -0.25048023 -0.24139068 -0.03464104 0.10061366 0.03307936 -0.11416553 0.017881133 -0.11191929 -0.27737114 -0.101238675 0.3936586 0.08840071 -0.27003086 -0.27017784 0.095345564 0.1115874 -0.276409 0.10809726 -0.06964171 0.0072792233 -0.028087435 0.13262485 -0.16585726 0.15140943 -0.11107447 0.30358362 -0.10178276 0.501882 0.1313386 -0.18658148 -0.044642374 0.14088166 -0.12603588 0.10137372 0.29799774 0.1036643 -0.29933232 0.034153532 -0.2580344 0.24675752 0.24866964 -0.043932322 0.13531971 0.03393539 0.07140136 0.10534992 -0.038032185 -0.24157876 0.5593722 0.109903656 0.28248784 -0.276911 0.16923256 0.40175116 -0.21668954 -0.072670564 -0.20646553 -0.23097622 -0.029301386 0.3692371 -0.13524531 -0.17446841 0.15419929 0.06525426 -0.19347933 -0.41069216 0.04579596 -0.19333296 -0.2282819 -0.49894342 0.052026562 -0.35360095 -0.391899 -0.22941367 0.111245506 0.05718078 -0.4501615 -0.30043173 -0.16047977 0.14459604 0.20458122 -0.017032284 -0.005565858 -0.3706408 -0.01938758 0.053165827 -0.057742473 0.122091554 0.19893906 -0.026403693 -0.087717675 -0.27758813 -0.110305235 -0.07946646 -0.013324184 0.1489097 -0.061757643 -0.1641857 0.19762787 0.23435652 -0.09586548 0.19739893 0.04132877 -0.11217733 0.33681595 0.3703363 -0.3094821 -0.055837233 0.12961179 0.10332512 0.03456545 -0.32148334 0.21475811 0.0675413 0.38424066 -0.08229128 -0.24486837 0.12245297 0.21788026 0.27227435 -0.36089435 -0.24056698 -0.11557779 0.529725 0.10126364 0.12152279 0.16935638 0.37264457 -0.36949137 0.3877951 -0.11746839 0.14573598 0.1732796 0.1758016 0.028178697 0.03910999 0.1312683 -0.014920419 -0.3340397 -0.0071164416 0.2876783 0.2746841 0.08877862 0.11994333 -0.36525363 0.18028335 0.53325963 -0.12353971 -0.28536987 -0.1699168 -0.066257365 -0.0539339 
http://dbpedia.org/ontology/city -0.27581027 0.12527019 0.16370986 0.21192448 0.08683513 0.18584609 0.07520144 0.2525782 -0.4192408 -0.044695728 -0.03872227 -0.080497384 -0.03307423 0.16123831 -0.09839879 -0.17463371 0.059546866 0.1812216 -0.025432361 -0.56888855 -0.035307012 0.14145043 0.2979988 0.234475 0.12992997 0.15014139 -0.114272825 0.2073802 -0.3550353 0.082280815 -0.0073462175 0.1986126 -0.031790543 -0.015231535 -0.022689916 -0.15703334 -0.08359605 -0.15157986 -0.021429244 -0.10682432 -0.03365052 -0.17520839 -0.39462066 0.10933404 0.18630496 -0.046537045 0.2016531 -0.1216204 -0.0602764 -0.13604428 0.01774151 -0.022189977 -0.043438677 -0.3342209 -0.05861026 -0.52990276 -0.37087154 -0.48486108 -0.08350059 -0.0568073 -0.06922778 -0.13463141 0.29191306 -0.13636003 -0.3094044 0.12739564 0.28175306 0.2849644 -0.27674827 0.27751127 -0.041221447 0.42946848 -0.16054875 -0.017665563 0.11012207 0.30564502 0.15145938 0.13754298 -0.07249875 -0.2534517 -0.104769915 -0.45182532 0.22302936 0.1951006 -0.32330507 -0.17092997 0.3387833 -0.2044989 -0.225404 -0.014153759 0.029043894 0.06384335 0.1918891 -0.07970888 0.3925839 0.0659518 0.33337915 0.1324735 0.08425497 0.28120047 -0.35518837 0.39347655 -0.043386023 0.07083688 -0.29423043 -0.15650034 0.094461344 0.2766464 -0.26853114 -0.16826041 -0.10151155 0.0459185 -0.23891474 -0.32231358 0.057304624 -0.029155374 0.08548189 -0.31456667 -0.080273636 0.041381706 -0.04999893 0.10591687 0.5375894 0.13826914 -0.27256694 0.048226595 -0.17136244 0.09097589 -0.06789985 0.41339394 0.43068144 -0.3280621 -0.066252105 -0.1950778 0.14841619 0.26503098 0.20221268 0.29078147 0.17933856 0.2550414 0.40671128 -0.24734944 -0.22428592 -0.05699161 -0.112175204 0.12531297 -0.05406335 0.24853581 0.17528462 -0.07528592 0.053989604 -0.34056628 0.26795176 0.060427275 -0.30832002 0.2567305 0.23971294 0.11262371 -0.098726414 -0.011721991 0.23325261 0.18979236 0.23874524 -0.14230487 0.2764054 0.13336475 0.17047413 0.23067608 -0.028942544 -0.23100282 -0.060930584 0.011990582 0.26585415 0.15496527 0.05177137 0.25360584 -0.22946875 0.03397938 0.29332927 -0.0037296775 -0.05833573 -0.2210481 0.24687675 -0.14059246 -0.010832222 -0.3968328 -0.10122027 0.14988165 0.11590266 -0.056227777 0.19249202 0.13680726 -0.34232408 -0.18652347 0.21365549 -0.11283 0.0796759 -0.31850284 -0.07944072 -0.16540347 
http://dbpedia.org/ontology/product -0.074155055 0.10010255 -0.19142427 -0.18546394 0.28016013 0.23651914 0.08199327 -0.007861361 -0.008937255 -0.004848481 -0.09401689 -0.065695904 0.07835553 -0.15459308 -0.10408253 0.12895332 0.13720898 0.029977469 0.2848356 -0.00011416117 -0.046491962 -0.026899777 -0.14410767 0.06413093 -0.15448132 0.025168937 0.06424583 -0.1877852 0.19711378 0.081692554 0.12988764 0.23475228 -0.32377884 0.061456744 0.20276134 0.012946683 -0.023680769 0.021929435 0.021905921 0.3064613 0.3162226 -0.30734757 0.093775176 0.1060138 0.24169868 -0.11684079 0.2700551 -0.3856248 -0.03078764 -0.36833534 0.2763941 -0.010942578 0.15768723 -0.22524583 -0.1533904 -0.034082472 -0.2865739 -0.024262294 0.07979519 -0.16066079 -0.013265701 -0.14581144 0.24810961 0.17187652 -0.20796043 0.0058622914 0.003488985 0.107137196 0.083577916 0.16919613 -0.32923618 -0.1085243 0.05609622 0.124743104 0.031706728 0.08664197 -0.019895077 -0.07071552 0.093777 0.18966241 -0.10345849 -0.26000977 -0.026841568 -0.0022018736 -0.12840326 -0.15366979 -0.002453807 0.20904706 0.0037749745 -0.4095334 0.13134089 0.01681613 0.015536093 0.088990904 0.0016825953 -0.196386 0.4235178 0.35077357 -0.035170525 0.0042961477 0.0005988229 0.25923344 -0.10624267 -0.16797295 -0.4051139 0.005312327 -0.11555321 0.1856155 -0.20442456 0.16699845 -0.0726144 0.054343134 0.08581741 -0.15963301 -0.22639966 -0.40260765 -0.28535014 -0.46286404 0.07810091 0.02200143 -0.24478504 0.27218586 -0.0810648 0.17934172 -0.5167995 -0.18439871 -0.06776696 -0.0009948028 0.015291241 -0.17049624 -0.01570714 -0.16097698 -0.14623943 0.015559205 -0.25710005 0.21332589 0.111171395 -0.07385177 -0.17504153 -0.2653851 -0.0010306604 -0.09327247 -0.01651902 0.08747501 -0.077994995 -0.18943751 -0.26577967 0.114280134 -0.016646596 -0.2138625 -0.073620886 -0.020750517 0.2785881 0.09888952 -0.16886394 -0.056307755 0.10097406 -0.22382239 0.015331113 -0.12770876 0.3611244 -0.080701746 0.2895113 -0.057814695 0.06406855 -0.09142393 -0.069832 0.15543668 -0.3146856 -0.14519416 -0.09887267 0.32418358 0.056512646 -0.17872983 0.2414199 0.37323615 -0.05920899 0.15438272 -0.0592819 0.10540194 0.12878773 -0.018292528 -0.1577851 0.1871358 -0.07380229 -0.057139285 -0.30544427 0.4272785 0.13875023 0.33274987 0.12160951 0.27390146 -0.26811516 -0.015324116 0.16405787 -0.00010563333 -0.10791195 0.010225892 0.24962416 -0.24403909 
http://dbpedia.org/resource/Mumbai_Nagpur_Expressway -0.042758856 0.105819955 0.063094854 0.21388756 -0.15356046 -0.10475673 0.21801078 0.31829512 -0.36689618 -0.13023897 0.167754 -0.092650294 0.043880507 0.2025871 -0.3029887 0.19143018 0.12527151 0.015717829 -0.08139335 -0.6482026 0.22050254 0.19240133 0.4118614 0.18177931 0.14209843 0.09868998 0.011773417 0.046706922 -0.2719978 -0.07851124 -0.023776582 0.1614475 0.29708254 -0.13913359 0.12826395 0.040145684 0.28560814 -0.14920476 -0.16426368 -0.17875592 -0.20132461 -0.08868171 -0.46988896 -0.027085131 0.29327556 -0.04297099 -0.106321245 0.00094017666 0.18114036 0.113229595 -0.390376 0.12207829 -0.20154321 -0.20190682 0.18727893 -0.4021403 -0.30421832 -0.5468274 -0.10997199 0.18883261 -0.02970884 -0.15440124 0.10353248 -0.15726288 -0.39917496 0.11005305 -0.20165092 0.28198412 0.03239883 0.35069752 0.049994722 0.3999588 -0.17337665 0.10515264 0.23038465 0.15361892 0.27477437 -0.038777623 -0.08541371 -0.2099631 -0.04939266 -0.3523672 0.16495018 0.29951307 -0.5237633 -0.19029534 0.2278058 -0.10844638 -0.2332318 -0.091807336 0.1081846 0.21636286 0.1789002 0.1447913 0.3209105 0.037111316 0.04994097 -0.08793382 -0.078071415 0.21310937 -0.20643896 0.4110036 0.027248211 0.016992649 0.10513623 -0.3093326 0.16098385 0.5083918 -0.26943335 -0.19689497 -0.03759413 -0.21870454 -0.0522989 -0.021574812 0.13244699 -0.20375226 0.07748927 -0.30912706 -0.07193266 -0.092296004 -0.21084677 -0.057999086 0.3530437 -0.2476576 -0.20684966 -0.17735554 -0.22301319 0.31029785 -0.017759789 0.2086383 0.31560415 -0.39587465 -0.14538832 -0.20574827 0.12859628 0.3435533 0.20332798 0.112347014 0.22731447 0.271525 0.2840403 -0.30687612 -0.26652133 0.08005421 -0.22378549 0.23601656 0.021854147 0.29079008 0.03694817 0.012359948 0.24360597 -0.4602857 0.43242794 0.20574608 -0.23583248 0.23087527 0.4292909 0.27872893 -0.012102632 -0.009705892 0.06499151 -0.035311714 0.11774052 -0.14711735 0.05262639 0.29344285 0.17412996 0.14091577 -0.10953342 -4.7793117e-05 -0.10534378 0.061972197 0.44764555 0.16552594 0.0362427 0.13333556 -0.19533099 0.06273063 0.22442849 0.11770616 -0.33450732 0.083569355 0.026223253 -0.25493848 0.10459708 -0.14619733 -0.24018054 -0.14685833 0.35753557 0.12671466 0.29572114 0.108656235 -0.36225086 -0.17223406 0.2992453 0.06349638 -0.033297107 -0.29617617 -0.2739333 -0.24156137 
http://dbpedia.org/resource/SBI_Life_Insurance_Company 0.024689745 0.07038932 -0.16181858 -0.2693651 0.13846442 0.023233611 0.08728531 0.13366991 -0.022381434 -0.082746744 0.06162935 -0.08411449 0.16464587 -0.22760989 -0.025510907 0.15153351 0.10712754 0.03350655 0.25241402 -0.060670115 -0.08872235 -0.10561659 -0.071036175 -0.12052437 -0.02758746 0.038499847 0.07943741 -0.023068842 0.1448402 0.006008861 0.05731532 0.043260675 -0.10802707 0.0071880124 0.25142738 0.03821805 0.08683614 0.12432372 0.06014913 0.13984366 0.07015699 -0.18063273 -0.11987703 0.20234634 0.1630531 -0.27884585 0.14419128 -0.16304855 0.0003704592 -0.2129452 0.00966026 0.013360366 -0.051683404 -0.22213368 0.0066461344 -0.0058612963 -0.24469627 -0.104072355 0.23355243 -0.042012334 -0.053193916 -0.1652416 0.26927835 0.12480455 -0.35179445 0.15829383 -0.064863324 0.2651563 0.08255516 0.17458221 -0.13294408 0.10362817 0.06408871 0.27946183 0.18562146 0.24967095 0.053590856 -0.18424976 -0.043110125 0.068754904 -0.12131586 -0.10663423 0.010586877 0.19926728 -0.19413964 -0.21668008 -0.0821803 0.17256637 0.008580072 -0.34683186 0.13605171 0.08112699 0.20409854 0.18235259 0.17392623 -0.113567546 0.40546075 0.32952598 -0.007789798 -0.22940746 0.060295723 0.41926357 -0.1508817 -0.20337002 -0.1520841 -0.19522004 -0.028569082 0.37389222 -0.042736772 -0.06279227 0.11469922 0.05716652 0.07852989 -0.085184745 0.039045002 -0.34625587 -0.15993236 -0.3734857 -0.026199205 -0.02876215 -0.33324307 0.06244029 0.0635663 0.04634301 -0.46539137 -0.3219941 -0.06820333 0.08262735 0.10912337 -0.0824487 0.059708335 -0.35740888 -0.023648597 -0.062066205 -0.23943357 0.3609756 0.16011837 -0.11807364 -0.26770255 -0.14368266 -0.10306933 0.02501928 -0.033218812 0.17560504 -0.1035226 -0.07526453 0.07399716 0.0933186 -0.15797803 -0.04990096 0.050378643 -0.26748076 0.15171367 0.14493163 -0.27390084 -0.0119267665 0.20873843 -0.06987917 0.05721265 -0.23326017 0.30493778 -0.09255022 0.3555273 -0.08073261 -0.07329839 0.05995577 0.008186466 0.14201877 -0.44160947 -0.05625751 -0.026613101 0.33911988 0.18228452 -0.026786437 0.21440724 0.26204714 -0.21355394 0.2585854 -0.16489276 0.112527646 0.004260885 0.09509171 -0.1569527 0.017822802 0.122519344 -0.021487128 -0.28145817 0.13863945 0.14759207 0.22945336 0.18549035 0.16651833 -0.3483551 0.012784463 0.2095231 -0.0798179 -0.16524225 -0.03778504 0.022392247 -0.21282697 
http://dbpedia.org/resource/Andhra_Pradesh_Grameena_Vikas_Bank -0.09356196 0.07277141 -0.17811126 -0.14330985 0.017586492 -0.0391966 0.20323686 0.14269938 0.11113585 -0.20312478 0.19077723 0.07518669 -0.05194027 -0.14632146 -0.2672794 0.16568016 0.12126145 -0.027000189 0.23871396 -0.056756314 -0.0132235335 -0.015312678 -0.11501415 -0.025220465 0.07435082 -0.036108132 0.06651316 0.040251676 -0.086050384 -0.12496922 -0.046429098 0.20463215 -0.15807042 -0.098395474 0.15854737 0.004335448 0.13641533 -0.0015518679 0.07009173 0.12792747 0.12423965 -0.17154948 -0.1455114 -0.083582774 0.28574923 -0.24233355 0.093473405 -0.1905364 0.14521317 -0.056229923 0.01633727 0.06611112 -0.063087724 -0.23315147 0.07856214 -0.022748359 -0.1617759 -0.11118062 0.08661807 0.01034327 0.066958375 -0.06391551 0.21065281 0.021198645 -0.31772414 0.09635944 -0.18581863 0.22549963 0.23277096 0.15787025 -0.05290112 0.11709247 0.038072705 0.21100792 0.3772028 0.122214936 0.02126462 -0.1555313 0.013245281 0.009086729 -0.086543426 -0.14332838 -0.060962014 0.2872629 -0.25210547 -0.2131773 0.16474535 0.1053828 -0.1751236 -0.36121577 0.18767333 0.073491685 0.18405114 0.2334442 0.2000856 -0.0873074 0.21531257 0.29329365 -0.3215129 -0.10279935 0.035627462 0.40144137 -0.044183243 -0.32320243 -0.08801286 -0.16690019 -0.07123341 0.38674805 -0.069708444 0.09083063 -0.041501526 0.022679215 0.14354074 0.09844652 0.0025959443 -0.4419087 -0.19579978 -0.18716902 -0.056491353 0.14826883 -0.27874348 0.15626803 0.15031856 -0.05510219 -0.32052755 -0.39365622 -0.087286346 0.0596853 0.0004342352 -0.07945 0.124406524 -0.34800002 0.035751835 -0.19618551 -0.18301736 0.43668482 0.1087192 -0.11191937 -0.2921383 -0.04514136 -0.12946753 -0.09456039 -0.14246327 0.14422914 -0.18929122 0.012643716 0.043805934 0.049403034 -0.16368712 -0.1837762 0.11674061 -0.37939072 0.14018238 0.060508512 -0.24463359 0.018061932 0.2802168 -0.13756482 -0.09583323 -0.13429546 0.36221 -0.15373422 0.18478128 -0.046723653 0.04743883 0.1527892 0.06734428 0.06313105 -0.37695652 0.14176716 -0.060035396 0.13680546 0.26251805 -0.057678297 0.2002806 0.24050406 -0.11873713 0.04558012 -0.08892044 0.10682674 -0.09060274 0.03479751 -0.30123258 -0.07575311 0.035256576 0.019478526 -0.24260771 0.10914436 0.0816574 0.3078949 0.36049116 0.10234236 -0.31329674 -0.2274783 -0.023536045 -0.023460805 -0.06940451 -0.007083506 -0.10184048 -0.35752097 
http://dbpedia.org/ontology/type 0.01209316 0.09195384 0.015426982 -0.17536615 0.016163649 -0.03658374 -0.045754842 0.15841855 -0.13733158 -0.07210852 0.001456775 -0.14860626 0.21947902 -0.15527625 0.06158218 0.12657377 0.03155475 0.02791796 0.13889803 -0.21254268 -0.074659236 0.0061612646 0.02904736 0.044394623 -0.095582 0.14023577 0.02321956 -0.06442636 0.15550008 0.09599057 -0.00632889 0.041524645 0.05838912 0.06810406 0.23544434 0.062356662 0.10080223 0.016071716 -0.06798892 0.123315185 0.04907807 -0.14158352 -0.18632856 0.20254983 0.034120604 -0.19144651 0.1368557 -0.06268676 -0.117331326 -0.18439688 -0.012685597 0.030100122 -0.08067056 -0.08550471 0.035877887 -0.08218344 -0.22921564 -0.17687604 0.20952469 0.017170066 -0.17297949 -0.18823415 0.13548659 0.08518999 -0.19332631 0.10619435 -0.06307641 0.077659555 -0.05990689 0.1811679 -0.10818369 0.14449231 -0.042437907 0.1741287 -0.03210282 0.3075942 0.081105985 -0.10841089 -0.037709672 0.111464106 -0.1005989 -0.02712651 0.16327642 0.06730448 -0.209345 -0.06967522 -0.08733689 0.118895866 0.13020791 -0.08152441 0.0655697 0.04997608 0.05849202 0.09713939 0.08933345 -0.16040583 0.3516967 0.1247365 0.123797834 -0.10056423 0.059413947 0.28209075 -0.09018258 -0.109813884 -0.152882 -0.1893991 -0.037840273 0.29103324 -0.071516134 -0.12907262 0.05911547 0.043954376 -0.09160278 -0.18957403 0.082149364 -0.1079711 -0.053689692 -0.3485834 0.06258906 -0.16091593 -0.2038727 -0.04560861 0.13715863 -0.05600067 -0.3651683 -0.14023045 -0.1123449 0.13517347 0.11688124 0.027915517 0.10248036 -0.2672188 -0.06361495 -0.043613143 -0.049296096 0.12472927 0.1538954 0.013608516 -0.12313381 -0.0629772 0.026408784 -0.0112912925 0.011622301 0.0374763 -0.044421274 -0.09402026 0.0665099 0.15050699 -0.05222504 0.064733356 0.045237303 -0.11630988 0.24446124 0.2225611 -0.23734085 0.055102967 0.14155008 0.12599455 0.057692073 -0.20095299 0.15014268 0.0129972175 0.24440888 0.009466698 -0.08962399 0.107474804 0.10804591 0.12023579 -0.21175618 -0.10088473 -0.06881364 0.2718132 0.08838054 0.036922716 0.15288486 0.18968828 -0.18282287 0.21401912 -0.08084203 0.1246689 0.024946142 0.08973566 -0.00904327 0.033809647 0.078693554 -0.038640857 -0.23254609 0.08671151 0.1471299 0.18732782 0.09311529 0.03948276 -0.29032713 0.023813937 0.2721218 -0.041427318 -0.12314166 -0.104756355 -0.04111202 -0.039962906 
http://dbpedia.org/ontology/owner -0.08331321 0.10747484 -0.080243625 -0.17651826 0.06960656 0.039697543 0.110492535 0.10086056 -0.05252905 -0.08440212 0.05372246 -0.06759565 0.117889926 -0.13402133 -0.09369847 0.12397186 0.117051564 0.058369003 0.07583989 -0.13293807 -0.07638129 0.00339799 -0.08488883 0.029809209 -0.11520569 0.00207518 0.10100744 -0.16238143 0.09331699 0.0005826379 0.046623375 0.15933475 -0.10696645 0.075617224 0.16737702 0.0315331 0.08345841 -0.07461262 0.031420648 0.19367127 0.12678355 -0.17665966 0.0016534745 0.0104600275 0.19987932 -0.16204701 0.20745054 -0.18676302 -0.006995578 -0.18768518 0.10438608 0.07895428 0.052493274 -0.16455877 -0.017823292 -0.039106503 -0.147024 -0.031034978 0.13726404 -0.010733688 0.0025551533 -0.1655978 0.18616825 0.067008175 -0.21997352 0.059587605 -0.09632832 0.06803141 0.013326987 0.18384366 -0.19769917 -0.0017742277 0.027513875 0.103506885 0.055321887 0.17178318 0.06538903 -0.10361058 0.024160763 0.120545104 -0.030525098 -0.121670194 -0.009154862 0.15068863 -0.128227 -0.09208082 -0.023966722 0.12075586 0.074550815 -0.16375658 0.07457563 0.011592769 0.079844095 0.07211619 0.09818868 -0.13047652 0.31818694 0.17173566 0.030904764 -0.09097436 0.036996625 0.26682612 -0.09084739 -0.13204078 -0.1644666 -0.124769405 -0.09934991 0.26257232 -0.11089891 0.06322258 -0.004458624 0.058685273 0.015550636 -0.08714245 -0.11415617 -0.22599597 -0.1234349 -0.270658 0.012026136 -0.038159024 -0.20435375 0.10684173 0.0053938087 0.012249827 -0.34477675 -0.19717595 -0.12463675 0.08854055 0.01787455 -0.079688795 0.09013841 -0.16805862 -0.10031085 -0.06854824 -0.10261001 0.19968833 0.15647757 -0.052259184 -0.12917934 -0.13929948 -0.03905648 -0.09996363 -0.04988541 0.06879257 -0.10033704 -0.10785513 -0.07931822 0.09260613 -0.035168014 -0.09706593 0.054672625 -0.11041088 0.15891927 0.09885485 -0.1466543 -0.025592834 0.09495 -0.06938872 -0.031074561 -0.11806966 0.20787038 0.00776242 0.23075208 -0.0430498 0.0029235345 0.027552223 0.06887198 0.06644108 -0.24553555 -0.105331 -0.11653556 0.17045143 0.059032746 -0.06424024 0.18426718 0.20042627 -0.1643185 0.143431 -0.049470812 0.13076125 0.046993945 0.096181124 -0.11353215 0.122387685 -0.025924996 -0.0257818 -0.19899286 0.22504814 0.14829277 0.27073056 0.08566157 0.16281573 -0.16877834 -0.055663887 0.18001099 -0.044202622 -0.093310565 0.006652993 0.0027400323 -0.16724211 
http://xmlns.com/foaf/0.1/homepage -0.08044356 0.06566747 -0.055408377 -0.028364299 0.081617475 0.05652615 0.055314776 0.09290972 -0.16524343 0.00817574 -0.024257852 -0.014632046 0.12910092 -0.03266051 -0.058104306 0.034217387 0.06816392 0.036011577 0.05794832 -0.2496459 -0.021466011 0.0019216446 0.10518202 -0.002257648 -0.023660818 0.028610215 0.011557886 0.017861286 -0.05602095 0.04230653 0.08483385 0.075105734 0.0053990846 0.046954483 0.05034497 0.025091799 -0.015617579 0.022618555 -0.01790004 0.010057482 0.051700763 -0.12746336 -0.15720098 0.06944172 0.14629282 -0.09536968 0.111862324 -0.14311104 0.003180677 -0.10842709 -0.019909091 0.00966115 -0.06792422 -0.147718 -0.032709662 -0.14082026 -0.20313187 -0.21828711 0.003264415 -0.0970318 -0.029159186 -0.13529976 0.17034754 0.00055281306 -0.2371336 0.108941905 0.013832815 0.12584457 -0.07675933 0.17794119 -0.05809728 0.14331451 -0.023023874 0.14917992 0.069550656 0.12855746 0.100230105 0.006306076 -0.056979842 0.016663522 -0.036835317 -0.17875186 0.010297206 0.13976234 -0.162803 -0.1710509 0.025359422 0.0371433 -0.033579186 -0.111757174 0.05194006 0.06362706 0.11361229 0.01282852 0.13868976 -0.060009196 0.25098854 0.12556255 0.034355417 -0.02426035 -0.020022348 0.26647156 -0.06864466 -0.0580548 -0.06994952 -0.12738442 0.053823687 0.21961285 -0.05606785 -0.0715489 0.042995702 0.013518483 -0.0046121585 -0.1155922 0.00638344 -0.16118222 0.006561054 -0.2806831 -0.053056218 0.013509455 -0.18266703 0.074724756 0.16017921 0.023121275 -0.26792708 -0.11593931 -0.08102479 0.10603276 -0.00905733 0.068733975 0.1273636 -0.22993946 -0.071289085 -0.10440899 -0.04333865 0.16780317 0.08161333 0.035438385 -0.050214205 0.016394556 0.051983636 -0.05796761 -0.0712794 0.0061146356 -0.056842037 0.019533677 -0.03338587 0.1254149 -0.011310576 -0.010118464 0.022994941 -0.18089785 0.17066792 0.027305648 -0.15480864 0.046600714 0.13960454 0.06972061 -0.011036136 -0.08779339 0.155929 -0.038634736 0.20027536 -0.022419889 0.011274918 0.066788495 -0.007183003 0.1294847 -0.17847855 -0.113251336 0.010618997 0.13122815 0.1608416 0.0036238057 0.0544763 0.10167634 -0.14258793 0.08383885 0.01091026 0.059109792 -0.048873376 -0.00042585022 -0.0040374943 -0.026434876 0.06868222 -0.1320928 -0.12076727 0.12219878 0.1542439 0.10084927 0.12277844 0.06359892 -0.21552986 -0.05386531 0.18294446 -0.03115238 -0.06255952 -0.11442556 -0.049506705 -0.1653716 
http://dbpedia.org/resource/Mumbai_Tennis_Masters -0.06670778 0.094639786 0.054695435 0.20191109 -0.13356361 -0.048507858 0.16238137 0.25212902 -0.33309275 -0.112909175 0.13331653 -0.043947954 0.018852565 0.17626354 -0.24047188 0.10709721 0.12047441 0.028215254 -0.039734572 -0.55444926 0.16305037 0.14982337 0.35712275 0.18030265 0.13973589 0.0829958 -0.022251908 0.10426456 -0.25671867 -0.045751803 -0.026222555 0.16522005 0.21969968 -0.11997746 0.08750773 -0.009362005 0.18524243 -0.11520189 -0.1308387 -0.13742404 -0.14909403 -0.10049153 -0.40086085 0.010686613 0.23554887 -0.032462455 -0.056303367 -0.010511564 0.11384143 0.067141175 -0.289868 0.095965944 -0.16819236 -0.19688617 0.13045399 -0.389338 -0.27986476 -0.47098285 -0.09780882 0.1261606 -0.023534602 -0.12485799 0.10613745 -0.13454136 -0.3347279 0.0995307 -0.10821745 0.23951972 0.008087654 0.28094038 0.039061435 0.35059503 -0.16144116 0.09342836 0.21410997 0.17249788 0.19496338 0.028622752 -0.06723708 -0.19900881 -0.04464274 -0.3245683 0.17565401 0.24063417 -0.43443492 -0.1627207 0.24503355 -0.10236407 -0.22368214 -0.07793577 0.089898564 0.16028577 0.13624035 0.09050618 0.27295887 0.018385794 0.089929245 -0.050825726 -0.06217118 0.20490028 -0.19216114 0.3354398 0.028950721 0.029866166 0.011568499 -0.2251332 0.12796018 0.4120505 -0.23911664 -0.16444932 -0.056248255 -0.1331266 -0.080123976 -0.057651863 0.09845621 -0.17162569 0.049798623 -0.26563847 -0.09213203 -0.03549424 -0.18086308 -0.035840478 0.3602288 -0.14701204 -0.18886566 -0.12958731 -0.17629153 0.24966928 -0.018853316 0.24064569 0.28096348 -0.3723559 -0.112419315 -0.18909399 0.12319974 0.29464927 0.20105457 0.11942481 0.18219118 0.25985247 0.25248381 -0.2514505 -0.24598077 0.04531039 -0.17535014 0.20820177 0.029435342 0.25576383 0.038163997 -0.014248748 0.17477651 -0.4210354 0.3508877 0.15808684 -0.24573542 0.20838903 0.35740376 0.210088 -0.023526711 -0.015886797 0.097125255 -0.020430796 0.12619668 -0.13858308 0.07526896 0.24458818 0.14475413 0.14794983 -0.10848969 -0.0091643045 -0.08426731 0.06782002 0.38373536 0.14575273 0.007738887 0.1409023 -0.1796944 0.038340986 0.20817412 0.06336312 -0.25859395 -0.0017255126 0.044875044 -0.2411659 0.05862123 -0.17617607 -0.21989925 -0.10157331 0.25294983 0.08761988 0.25043163 0.08044217 -0.33300358 -0.15330428 0.22722031 0.021076664 -0.017247565 -0.27002782 -0.2204075 -0.21376334 
http://dbpedia.org/resource/Mumbai_Football_Arena -0.15271148 0.13884546 0.005690417 -0.06718886 -0.070156634 -0.068829246 0.04320561 0.27199948 -0.18095171 -0.085191086 0.1181559 -0.032517843 0.038583327 -0.10235857 -0.09013173 0.025154857 0.010619739 0.045910146 0.026988713 -0.35782364 -0.004610695 -0.00011209732 0.16731352 0.06625197 0.060120307 0.06787039 0.042164598 0.15461792 -0.20756984 -0.008059046 -0.08514349 0.0019384734 0.15856592 -0.113190785 0.22959065 -0.054239336 0.14899375 0.035557393 0.03498541 -0.0024990062 -0.15520649 -0.08229588 -0.44979 0.17595644 0.13053593 -0.2658005 0.110971205 0.11778272 0.069888294 -0.011432354 -0.16724771 0.16091125 -0.04151406 -0.23237778 0.14822018 -0.2144505 -0.22484462 -0.3044829 0.113414496 0.12881537 -0.022266176 -0.15756996 0.113495536 -0.08148354 -0.2968689 0.10842698 -0.0071462006 0.30199462 -0.0011205368 0.27346152 0.007709598 0.31672612 -0.08063757 0.1509502 0.16523996 0.3852762 0.114067584 -0.06643521 -0.024213728 -0.21210445 -0.15283139 -0.12637852 0.17995708 0.26849505 -0.3476945 -0.15005468 0.08326144 -0.003476831 -0.06962369 -0.059592552 0.12397555 0.07513646 0.2656635 0.08362769 0.29786786 -0.027253445 0.17199272 0.10759248 -0.0017758074 -0.10180231 -0.16231315 0.43806988 -0.11105213 -0.17506833 0.021745421 -0.2885689 0.062593535 0.45368072 -0.054368287 -0.20482828 0.052695937 -0.03501405 -0.13845779 -0.13868968 0.15826271 -0.1982468 -0.047567505 -0.24680963 -0.06873148 0.016901888 -0.25411174 -0.14237504 0.39533317 0.015240356 -0.18433093 -0.29330292 -0.09645698 0.099603906 0.08292301 0.149868 0.30077615 -0.42803386 -0.014589179 -0.17365815 0.066167906 0.3729959 0.26863912 0.08150271 0.053668663 0.114271365 0.058841247 -0.15433411 -0.18599659 0.03441188 -0.19504057 0.13641188 0.22521971 0.21583733 -0.115840845 0.04713116 0.23639949 -0.4133226 0.1822265 0.21016942 -0.28762633 0.07694066 0.36538336 0.099818684 -0.08512547 -0.22095919 0.14791346 0.049217764 0.2747917 -0.1922889 -0.013312467 0.18174428 0.24094772 0.07986669 -0.23529048 -0.046396464 -0.044029597 0.15166385 0.28858134 0.21226959 0.084537424 0.15865284 -0.36038888 0.15060818 0.040539198 0.15208292 -0.041502796 0.030774811 0.08087451 -0.23869398 0.09028014 -0.12331745 -0.2231896 -0.12034361 0.114804305 0.115988925 0.24467885 0.07944472 -0.29303384 -0.17821011 0.28470063 -0.026133765 -0.06581128 -0.22442505 -0.25699815 -0.21544284 
http://dbpedia.org/resource/Mumbai_Angels -0.13941419 0.14382334 -0.0063765557 -0.111812465 -0.069914326 -0.08141182 0.050949983 0.2776588 -0.14368433 -0.11332529 0.15267783 -0.03799722 0.044264022 -0.1428237 -0.084992364 0.059509154 0.020422203 0.03801898 0.036399595 -0.3131334 -0.01904115 -0.0059727556 0.1276753 0.031729188 0.045952816 0.05236986 0.064688474 0.14104784 -0.15880266 -0.0064323815 -0.12178087 -0.010188937 0.13674945 -0.10441989 0.25942788 -0.03720515 0.17000848 0.02498857 0.055450395 0.040242784 -0.15012246 -0.07179407 -0.43143722 0.1650042 0.12654199 -0.296389 0.11960564 0.12548542 0.07262049 -0.005921465 -0.14721249 0.1781041 -0.032004654 -0.23054095 0.16308798 -0.1662863 -0.20163631 -0.24351308 0.15494262 0.15426433 -0.030741595 -0.15772639 0.10906031 -0.06431035 -0.29484326 0.105306864 -0.023764947 0.2949984 0.022479853 0.26446152 -0.0028431749 0.28311372 -0.06401704 0.1365876 0.15573335 0.39220124 0.114804305 -0.12051468 -0.014480194 -0.18303262 -0.15020719 -0.07753287 0.1810488 0.2866133 -0.32883456 -0.12407167 0.045281764 0.020201603 -0.035427067 -0.06841103 0.13714333 0.06275276 0.26179004 0.10027907 0.28223264 -0.03543543 0.17956878 0.12467645 0.0053952592 -0.13696493 -0.14880061 0.4503082 -0.13248187 -0.19299467 0.03660905 -0.2995352 0.03633508 0.4690877 -0.047090687 -0.17548355 0.064930476 -0.03560469 -0.13841267 -0.105971925 0.15304606 -0.2139709 -0.06831585 -0.23084417 -0.056423534 0.02591895 -0.25994527 -0.14947586 0.3610113 0.015521201 -0.19642144 -0.3349538 -0.10151203 0.08567799 0.098497555 0.09138902 0.2997012 -0.43026403 -0.012463001 -0.15985239 0.04338276 0.36984763 0.28620544 0.065278105 0.02414147 0.08815154 0.0012588756 -0.13931587 -0.1895971 0.06208848 -0.21574427 0.12069806 0.24483731 0.19572723 -0.14546059 0.0482679 0.25295663 -0.41942942 0.15666331 0.22287337 -0.27224246 0.05730239 0.37696984 0.06432193 -0.07766282 -0.22898027 0.12666862 0.05204809 0.27931088 -0.20578937 -0.039388806 0.17257373 0.25907502 0.05906777 -0.2567599 -0.022889622 -0.06321588 0.16368145 0.26861173 0.19832543 0.11551172 0.15686142 -0.37809196 0.16899489 -0.00075475127 0.14722526 -0.03616965 0.06613227 0.060886577 -0.21066089 0.1005011 -0.09279178 -0.24048908 -0.13488847 0.10758552 0.14338656 0.23065242 0.08932184 -0.271356 -0.18264928 0.27346572 -0.016035497 -0.0555342 -0.18683034 -0.2579427 -0.2037962 
http://dbpedia.org/ontology/owningCompany -0.06775909 0.10607832 -0.09974088 -0.2721476 0.041693065 -0.01209146 0.07383146 0.13128063 0.013991702 -0.11367361 0.10112344 -0.05007643 0.11663859 -0.2200799 -0.09880245 0.15157498 0.08285381 0.01162493 0.16324653 -0.111064404 -0.0787744 -0.009552827 -0.07019237 0.017178515 -0.11882444 0.037813928 0.116728455 -0.1367241 0.09622141 -0.004498377 0.01785764 0.121769704 -0.047171097 0.043886814 0.2345462 0.022254758 0.09515278 0.010659091 0.041018084 0.18526135 0.14123967 -0.1834623 -0.08089684 0.078323334 0.19055787 -0.24094456 0.20042461 -0.15330575 -0.008006813 -0.18393968 0.047960844 0.0853237 0.006780333 -0.19478588 0.038889833 -0.042124957 -0.17707174 -0.07319759 0.22076432 -0.015390028 -0.033343494 -0.18003082 0.18438856 0.07342642 -0.26899758 0.09039811 -0.14776145 0.11655586 0.06482294 0.18809192 -0.15388009 0.06242649 0.036204927 0.22387339 0.1312568 0.23729338 0.0517917 -0.13903888 6.59097e-06 0.12516887 -0.08106125 -0.08445234 0.02593684 0.16755024 -0.1766725 -0.14163643 -0.029387048 0.16555156 0.020169891 -0.22228771 0.10685669 0.033817273 0.13225983 0.13323784 0.10539577 -0.15966429 0.3593956 0.24494337 -0.0518318 -0.1685158 0.094395235 0.3459134 -0.115160905 -0.22038493 -0.17288208 -0.18237573 -0.096113905 0.35248637 -0.07833132 0.010177009 0.019042308 0.07934896 0.0050718593 -0.09548531 -0.058381367 -0.2885796 -0.19325957 -0.29379922 0.026286682 -0.03959283 -0.29899633 0.07059568 0.072884426 -0.019948255 -0.3661674 -0.3164853 -0.11406241 0.111126564 0.053722378 -0.07259471 0.07570431 -0.27800608 -0.024583878 -0.0908631 -0.13605666 0.28666613 0.13962375 -0.07863513 -0.20844546 -0.1591129 -0.10563772 -0.0695068 -0.05802511 0.09619049 -0.111774355 -0.09820121 0.016465297 0.120241456 -0.09181416 -0.066557646 0.06852146 -0.17421563 0.19700567 0.15715997 -0.20425726 -0.03960362 0.16284528 -0.07309445 -0.033892546 -0.20909414 0.2780127 -0.043133218 0.2773525 -0.03675125 -0.05815765 0.08919185 0.07786828 0.097022176 -0.34633625 -0.06963761 -0.088200055 0.24390659 0.13898474 -0.033948958 0.18982463 0.25568917 -0.18449293 0.14900342 -0.10715623 0.16141361 0.0411617 0.09733071 -0.17628662 0.057535242 0.02573565 -0.0038688553 -0.26680455 0.16772933 0.16427688 0.32908264 0.17038083 0.13101378 -0.26156944 -0.06795518 0.19424848 -0.05879993 -0.16946219 -0.011015942 -0.02899738 -0.21960214 
http://dbpedia.org/ontology/tenant -0.0234833 0.11325194 -0.11285938 -0.2097095 0.03774591 0.037521753 0.07997107 0.11516542 0.0017431527 -0.06740474 0.09331703 -0.06838371 0.09794029 -0.19348964 -0.082006745 0.14039502 0.08035491 0.029615806 0.18084146 -0.095636524 -0.07583546 -0.07103398 -0.07144631 0.020068102 -0.09057324 0.04566972 0.074974805 -0.0798503 0.07140269 0.002314942 -0.030759774 0.09250396 -0.029538834 -0.011592263 0.21062082 0.042639185 0.10392448 0.06634186 0.000823598 0.14862235 0.069456086 -0.14083469 -0.10100109 0.11974466 0.15956692 -0.23453459 0.16174036 -0.105894044 0.005598976 -0.1335289 0.011973022 0.07329523 -0.023425762 -0.19359502 0.02220762 -0.08059282 -0.19306381 -0.08950949 0.18777497 -0.014602442 -0.04231233 -0.14944772 0.139536 0.0674116 -0.22655416 0.053261187 -0.08683166 0.17009205 0.08607587 0.1317194 -0.080771945 0.08714815 0.0068858513 0.22585967 0.14393722 0.23401868 0.052436978 -0.13040467 0.038440146 0.08468233 -0.105099276 -0.10090698 0.05091292 0.112002045 -0.1802159 -0.15353218 -0.02887978 0.14381336 0.013343157 -0.2101277 0.08052864 0.056916118 0.13458589 0.14460577 0.11427939 -0.123423025 0.3213784 0.25204942 -0.046001844 -0.14151867 0.06694519 0.29393998 -0.08934523 -0.20494545 -0.14419405 -0.1518817 -0.025971869 0.30323553 -0.076762326 -0.013019996 0.024605032 0.037365623 -0.0066830744 -0.1186788 0.0010481669 -0.26545897 -0.16241406 -0.26400146 0.013913002 -0.033263016 -0.27946383 0.053744014 0.12344936 0.013275429 -0.31416878 -0.25141355 -0.09916827 0.062632844 0.04126619 -0.04583624 0.05007241 -0.2705546 0.017285705 -0.0913003 -0.15371938 0.2695438 0.10745955 -0.08943289 -0.19819604 -0.114171796 -0.08518009 -0.052655507 -0.05264449 0.13867608 -0.076173045 -0.07649417 0.066505775 0.08554741 -0.10344427 -0.039597396 0.058142263 -0.20681939 0.18447866 0.14674759 -0.2368183 -0.030952144 0.14845225 -0.03500619 -0.015273469 -0.21889631 0.2650328 -0.05113278 0.25102076 -0.034173883 -0.05833897 0.103841886 0.05150351 0.11186542 -0.33195034 -0.046376675 -0.08458433 0.27676964 0.16176736 -0.03078554 0.17400654 0.25412372 -0.19201034 0.166642 -0.11382424 0.14698577 0.03721421 0.06027143 -0.15464036 0.004511116 0.047748666 -0.005629436 -0.20815773 0.09201923 0.10142505 0.20924544 0.16263029 0.117891915 -0.2681341 -0.055360835 0.20354562 -0.041384134 -0.1055588 -0.035108373 -0.0531723 -0.20311747 
http://dbpedia.org/resource/Imperial_Bank_of_India -0.058392618 0.069491826 -0.13699837 -0.20528631 0.043200538 0.009440345 0.12361792 0.14954808 0.036723584 -0.13239561 0.12589242 -0.044086967 0.027840355 -0.20205885 -0.18561603 0.15902197 0.0951442 -0.013840621 0.22523417 -0.06480384 0.0042701126 -0.026653983 -0.058726497 0.01863597 -0.06499432 0.016422514 0.10255135 -0.101509094 0.12368469 0.013718411 -0.035483815 0.16092202 -0.05290158 -0.007362044 0.29168215 0.025891384 0.1323667 0.014832763 0.05277727 0.19075675 0.12355861 -0.18975314 -0.09471459 0.061234336 0.17566757 -0.25455192 0.17181064 -0.14851055 0.0655918 -0.16655709 0.05045893 0.10403892 0.033417575 -0.21134743 0.066207856 -0.020237 -0.18718083 -0.06450143 0.18602914 0.054522507 -0.03879077 -0.14557199 0.1608793 0.045414817 -0.2847726 0.039478842 -0.12701954 0.18644902 0.11710771 0.19134587 -0.14581956 0.03816674 0.012666967 0.17905489 0.1653699 0.19030915 0.07194059 -0.15207401 0.028063167 0.087526135 -0.119028285 -0.07141597 0.075311676 0.16605668 -0.23224564 -0.15259667 0.018726991 0.16882747 -0.02947103 -0.2926257 0.15051134 0.021495821 0.10393256 0.19098888 0.09778919 -0.15280055 0.3103696 0.24819823 -0.11065629 -0.091442056 0.034958243 0.3883259 -0.11895461 -0.24438842 -0.17713764 -0.16679004 -0.09837048 0.33621642 -0.12248583 0.04183323 0.013209596 -0.02468339 0.0005056504 -0.03394139 -0.04804516 -0.34783384 -0.19964115 -0.29766682 0.045329113 0.014473534 -0.29848102 0.10938128 0.09029494 -0.011548656 -0.37352282 -0.3211621 -0.15317033 0.06603912 0.073252104 -0.10848776 0.07796216 -0.32993835 -0.00528046 -0.0788886 -0.18398613 0.31888694 0.15311687 -0.053907562 -0.16841355 -0.16760126 -0.11238393 -0.105866954 -0.108402275 0.15009469 -0.17292185 -0.06270849 0.03210268 0.10527121 -0.11083174 -0.09431652 0.06718059 -0.23593752 0.2568815 0.21214627 -0.19488934 -0.008927176 0.24910943 -0.12161892 -0.024446296 -0.17920466 0.27786654 -0.07897148 0.23099047 -0.05949663 -0.04781737 0.100487135 0.07508143 0.080727756 -0.3384836 0.024280997 -0.12050061 0.24835286 0.20182592 -0.043529943 0.20859152 0.29949442 -0.2004042 0.16005167 -0.10649344 0.106626265 0.00023372502 0.06851909 -0.17079611 0.02087748 0.05254298 0.03537957 -0.32586867 0.111539826 0.15355016 0.32094216 0.20868452 0.15097335 -0.2974314 -0.11337012 0.1417527 -0.012956273 -0.14878893 0.008338401 -0.032460876 -0.22075579 
http://dbpedia.org/resource/SBI_Cards -0.07849449 0.10199534 -0.14264052 -0.17186938 0.041352857 0.0011414698 0.17940235 0.099050395 0.0901392 -0.20336133 0.17910694 0.029282348 0.009044478 -0.18665233 -0.19729531 0.17731577 0.1282316 -0.033616006 0.26432714 -0.026251135 -0.0133163165 0.01452544 -0.09490354 -0.046235234 0.040478535 0.00368626 0.08625254 0.0027626196 -0.003739946 -0.11526922 -0.045654666 0.17813453 -0.20216915 -0.060719628 0.17827746 0.0008035002 0.12326318 0.012338892 0.0652239 0.16878343 0.13769391 -0.1624846 -0.13021055 -0.04241425 0.2453366 -0.22548115 0.12890282 -0.19058827 0.093651414 -0.09825866 0.049407672 0.06623935 -0.0782242 -0.23482236 0.04271968 -0.020108795 -0.17677502 -0.09830826 0.11378274 -0.011485257 0.029579738 -0.091039605 0.21685728 0.059700005 -0.295189 0.098947935 -0.19968605 0.20882273 0.20937245 0.14440443 -0.091964826 0.10030867 0.07568437 0.19745529 0.2880355 0.13667986 0.018475518 -0.16802326 0.038862254 0.07505501 -0.08468533 -0.14819469 -0.021270245 0.23656704 -0.20630898 -0.20709306 0.09921315 0.11181907 -0.12742065 -0.37757015 0.17161532 0.07003679 0.15886337 0.21373992 0.1575751 -0.07368432 0.24920475 0.30931363 -0.26705322 -0.11524937 0.029709687 0.38741472 -0.06819381 -0.26875445 -0.11608163 -0.18201323 -0.10662985 0.37492943 -0.068440065 0.093745746 -0.023037435 0.023337703 0.118561774 0.0744402 -0.016583748 -0.40931696 -0.19040398 -0.21535933 -0.002938435 0.12785013 -0.25333974 0.15802985 0.12062638 -0.041541114 -0.35152465 -0.38568926 -0.10475638 0.09727219 0.009077998 -0.11560161 0.100457236 -0.31296962 -0.0042749895 -0.13380356 -0.20736723 0.41331577 0.14845239 -0.09200215 -0.3040495 -0.04347476 -0.12702952 -0.047549702 -0.099701375 0.15270649 -0.1846437 -0.0065881303 0.011090948 0.0604111 -0.13375859 -0.1656415 0.10759662 -0.32665586 0.17661566 0.07625967 -0.21059959 0.0006859883 0.2694632 -0.14703096 -0.034955632 -0.13835745 0.3184452 -0.13692161 0.21450044 -0.068642735 0.026653258 0.10254313 0.039416905 0.07923656 -0.37668532 0.10374389 -0.07303849 0.17682043 0.2289546 -0.06725557 0.2019887 0.2513832 -0.102857776 0.05700143 -0.120412625 0.0796275 -0.08336842 0.06970405 -0.29134938 -0.020419348 0.043965936 0.013191284 -0.29799902 0.13831916 0.10925547 0.3272219 0.27962053 0.12232318 -0.32033065 -0.20092952 0.015362587 -0.03562866 -0.07807281 0.023701027 -0.030563567 -0.32597578 
http://dbpedia.org/resource/Air_India_Building -0.04291623 0.091846235 -0.11226665 -0.21290366 0.060099803 -0.012658741 0.1185211 0.13097495 0.02651225 -0.115932755 0.1457085 -0.019666005 0.053426534 -0.21328951 -0.13867703 0.1599313 0.11680807 -0.009622441 0.19043916 -0.09342439 -0.04575454 -0.018866649 -0.03106898 -0.030365935 -0.047650546 0.021041024 0.08950072 -0.06309079 0.07893155 -0.03281833 -0.008076768 0.112159595 -0.07211628 0.0066801147 0.25730452 0.007834582 0.10580581 -0.0055542174 0.051918842 0.15654854 0.10878622 -0.16695768 -0.119493105 0.055513166 0.17689303 -0.22970796 0.13616511 -0.11637406 0.025223373 -0.12316188 0.019903 0.09538206 -0.015812794 -0.17165701 0.022702651 -0.022148492 -0.17334099 -0.095656775 0.17637719 0.03873822 -0.019643862 -0.14488028 0.18574503 0.064370215 -0.26062208 0.094882295 -0.14098586 0.16438524 0.10264891 0.1602585 -0.13910212 0.09191642 0.013800405 0.17730299 0.17865227 0.18420058 0.058527615 -0.17002422 0.0063162977 0.050078038 -0.110287815 -0.07862939 0.036092248 0.19899058 -0.2293721 -0.14304118 0.012817894 0.114146195 -0.03990689 -0.28669637 0.11691249 0.041198116 0.11837976 0.16777605 0.12352778 -0.13657562 0.2828543 0.24428836 -0.11342822 -0.13033085 0.022534216 0.34245846 -0.12437015 -0.2170708 -0.12375908 -0.19318946 -0.08422263 0.35922492 -0.074603274 0.020339217 0.026762644 -0.003428753 0.026904725 -0.026555749 -0.024710473 -0.2974562 -0.17740428 -0.2708967 0.041037053 -0.00054319267 -0.2790152 0.05818369 0.10070717 -0.026634738 -0.34916735 -0.3392242 -0.11465919 0.09105456 0.07287994 -0.10466511 0.09768218 -0.28914192 0.0016207058 -0.08239607 -0.14705665 0.29081446 0.16081683 -0.07579921 -0.19832432 -0.09426462 -0.08743641 -0.06391241 -0.117643505 0.1350735 -0.15229541 -0.046278544 0.024806146 0.1299929 -0.12304698 -0.08764735 0.10110929 -0.24744147 0.21835971 0.1726987 -0.1878813 0.007397486 0.24948454 -0.09531309 0.005352951 -0.15393105 0.23335941 -0.07841997 0.25825372 -0.06551447 -0.048807632 0.09231067 0.08431217 0.10158948 -0.30286628 -0.01378764 -0.0741476 0.2120599 0.19316575 -0.007738605 0.18406993 0.22948088 -0.15852664 0.11164412 -0.10437663 0.10885532 -0.03713414 0.09457597 -0.14149597 0.007121134 0.06932625 0.015443247 -0.27257168 0.106902696 0.16203561 0.3034036 0.21193302 0.15282263 -0.30850852 -0.08185585 0.1660364 -0.013931409 -0.13310772 -0.025355842 -0.03980306 -0.21240143 
http://dbpedia.org/resource/State_Bank_of_Hyderabad -0.09043549 0.10655214 -0.13948445 -0.18232499 0.04622479 0.0036456196 0.14863652 0.11767512 0.06755818 -0.16900583 0.14947842 0.012794541 0.03419466 -0.20802537 -0.17411518 0.1694321 0.10634683 -0.029711446 0.24671263 -0.040128876 -0.030588862 -0.0022017409 -0.09870171 -0.03369907 0.005858054 0.004930153 0.08272125 -0.013223616 0.015884485 -0.08271823 -0.04035385 0.15224554 -0.1582142 -0.04577536 0.21589437 0.005688537 0.12233249 0.028930085 0.07292248 0.17685787 0.120617434 -0.1687546 -0.14872302 0.008226989 0.22569872 -0.2549556 0.16103238 -0.16211897 0.08208264 -0.12145985 0.04105463 0.083475135 -0.04293745 -0.23207684 0.05701189 -0.016369713 -0.18982324 -0.093677 0.15028587 0.0022907378 0.020115323 -0.10658917 0.2053033 0.055982955 -0.29401305 0.08122979 -0.16133536 0.21605752 0.1862798 0.1675193 -0.1021882 0.08950415 0.058845315 0.20069613 0.24931149 0.1803542 0.017204305 -0.17348917 0.031255025 0.057675593 -0.096909195 -0.1285012 0.0050160796 0.22220683 -0.2177416 -0.19413812 0.058235336 0.12764667 -0.09211447 -0.3468625 0.1628652 0.057519827 0.15818803 0.20678307 0.16083582 -0.09853321 0.26616466 0.3146417 -0.20862481 -0.13806705 0.026783878 0.39183527 -0.0954622 -0.27707195 -0.12604643 -0.18239056 -0.099475324 0.38254097 -0.06428152 0.07315809 -0.010847644 0.029395344 0.08045256 0.029169701 -0.017141916 -0.38926807 -0.19831036 -0.24883658 0.012483021 0.10734238 -0.27204475 0.12706952 0.12603325 -0.013804298 -0.34931034 -0.38269573 -0.10771186 0.079235226 0.0348855 -0.10684133 0.11308386 -0.32851622 -0.00041227893 -0.12047985 -0.1895583 0.39415696 0.15496387 -0.08065839 -0.25849113 -0.0786699 -0.13403371 -0.053783044 -0.099294275 0.14012912 -0.18435723 -0.013910209 0.030088823 0.090224005 -0.14825493 -0.13935494 0.113944754 -0.30772102 0.17417298 0.11452688 -0.21144815 -0.014506523 0.2678301 -0.13463776 -0.03724881 -0.17527232 0.29976737 -0.11669122 0.24533728 -0.07795309 0.0010957307 0.10168686 0.06742047 0.07049839 -0.3729108 0.06862468 -0.08124945 0.20524588 0.21343115 -0.055897865 0.20653507 0.25227585 -0.14742543 0.09164751 -0.117056586 0.116425745 -0.04306787 0.065183684 -0.2402695 -0.020537253 0.049559705 0.0069096955 -0.29893565 0.12309206 0.10618348 0.32155356 0.26031727 0.13214861 -0.30944103 -0.17545962 0.07051874 -0.03475666 -0.10206659 0.014713859 -0.043817766 -0.29855365 
http://dbpedia.org/ontology/successor -0.057551 0.10851199 -0.14356177 -0.20286334 0.07787961 0.010345046 0.07543722 0.16031604 -0.025973033 -0.061306924 0.085161254 -0.06164603 0.10387584 -0.20907155 -0.08621329 0.121001594 0.111599445 -0.028783474 0.18428639 -0.11405344 -0.06815244 -0.023854196 -0.04434838 -0.0008422234 -0.077755645 0.004888076 0.06294213 -0.10778584 0.049930923 -0.0054570176 0.027941367 0.088313445 -0.05928313 -0.014480401 0.24732806 0.009495835 0.099338174 0.013904255 0.067956395 0.1136396 0.06232792 -0.14002389 -0.1338298 0.11733186 0.16196088 -0.1942771 0.16714585 -0.099199854 0.023428505 -0.15024164 0.024131818 0.06297731 0.0113995345 -0.17960025 0.074649744 -0.060935177 -0.18323268 -0.08553678 0.17253202 0.019206168 -0.06791485 -0.14530468 0.13199432 0.05815327 -0.23973799 0.07782871 -0.13784385 0.15228173 0.077796005 0.15221055 -0.11092742 0.080165215 0.05417298 0.19756253 0.12262183 0.18699022 0.066780366 -0.1584012 0.008473489 0.053671136 -0.1318521 -0.067532584 0.02236329 0.1355654 -0.21500285 -0.16168159 -0.01797998 0.1560713 0.014464961 -0.21660307 0.13680278 0.053860407 0.13743038 0.17892595 0.14094658 -0.12482763 0.32272536 0.26570782 -0.02684966 -0.17469117 0.03973037 0.35146394 -0.09431403 -0.22782922 -0.11768868 -0.17210457 -0.04881123 0.33630687 -0.101913966 -0.0034201927 -0.0036631366 -0.007673576 0.016135752 -0.11718353 -0.021496968 -0.2705414 -0.18268567 -0.30652007 0.029830795 -0.042297408 -0.28950033 0.062170018 0.11830782 -0.035166733 -0.31013435 -0.31133908 -0.108278714 0.06978305 0.044272922 -0.07970782 0.074018806 -0.2620242 0.014105518 -0.07767144 -0.18180694 0.31663483 0.114351414 -0.06688949 -0.17606977 -0.15869187 -0.057322167 -0.08132658 -0.07100244 0.12074274 -0.13854961 -0.06832122 0.016493134 0.09443199 -0.1201452 -0.040197928 0.074606106 -0.21257527 0.18386103 0.17867012 -0.21605098 -0.026591213 0.21940584 -0.023559673 -0.02540619 -0.18447347 0.27823952 -0.05177219 0.25937778 -0.0632918 -0.04746203 0.11818709 0.08173517 0.0834083 -0.32893458 -0.061921544 -0.112384655 0.2781363 0.16605444 -0.021724004 0.20818262 0.20788519 -0.16873187 0.12701747 -0.10786861 0.15305212 0.01680328 0.075991794 -0.16078262 0.018064767 0.035271164 -0.0026352215 -0.22921479 0.13544147 0.16005346 0.24716361 0.15557916 0.1594818 -0.29192087 -0.04240441 0.21168302 -0.021294348 -0.14560248 -0.030257896 -0.009603956 -0.21122712 
http://dbpedia.org/resource/State_Bank_of_Mysore -0.12839042 0.10249207 -0.13914713 -0.062898204 0.04096113 0.0068509365 0.20245826 0.09463288 0.07244906 -0.20317465 0.15434113 0.071797855 -0.046242125 -0.09217021 -0.23839077 0.15199792 0.11359931 -0.024187913 0.24536735 -0.05263758 0.03052632 0.04057324 -0.07837773 -0.016365122 0.10911102 -0.016117563 0.04682251 0.07483577 -0.11902973 -0.1609518 -0.03903653 0.21624845 -0.22766738 -0.11440181 0.109352104 -0.022847839 0.117799714 -0.007220598 0.06538676 0.12359015 0.121291645 -0.14630556 -0.16843435 -0.12573619 0.28776726 -0.17973813 0.11202669 -0.19022757 0.14854302 -0.052683763 0.034268353 0.059534643 -0.09615613 -0.2481997 0.059741963 -0.050342772 -0.18434809 -0.14641708 0.020436944 -0.029946351 0.082169645 -0.04290798 0.21438496 0.027958086 -0.27695584 0.081384666 -0.16807151 0.24549273 0.21539071 0.1760371 -0.060945407 0.12430418 0.07218724 0.15524824 0.33289906 0.09018746 -0.0016648701 -0.12395462 0.035191976 0.0013675014 -0.073722325 -0.22547567 -0.05036858 0.2588691 -0.21343401 -0.22921865 0.19641118 0.056397095 -0.20581733 -0.38535485 0.17448997 0.0741087 0.15876065 0.20771758 0.19891945 -0.02128359 0.15587468 0.29817533 -0.32842466 -0.03649344 -0.036991697 0.36803883 -0.033803828 -0.27727902 -0.107446544 -0.1609453 -0.0811369 0.35992923 -0.070546806 0.10749011 -0.07787575 0.007206547 0.12972507 0.11581774 -0.0126140425 -0.40607813 -0.15296741 -0.18623844 -0.02637323 0.20234334 -0.20010664 0.20393796 0.17561631 -0.049546108 -0.29424354 -0.34502912 -0.093963556 0.07073386 -0.03013224 -0.07028319 0.14644146 -0.29416332 -0.021259034 -0.17905043 -0.17586374 0.43373132 0.12677872 -0.06411224 -0.26377097 0.03042505 -0.075842224 -0.07320148 -0.12725428 0.11363043 -0.19401538 0.055010654 -0.025573775 0.05854086 -0.10960307 -0.20242861 0.12703238 -0.3629146 0.15432438 0.021186383 -0.18774678 0.030636607 0.29607788 -0.14845693 -0.0665009 -0.09433644 0.30865347 -0.1565728 0.1793098 -0.0794496 0.10613179 0.11503437 0.03249708 0.046002433 -0.32205334 0.13749796 -0.061095472 0.08563664 0.25302145 -0.072698936 0.16350342 0.22077018 -0.062119793 -0.014526172 -0.06103936 0.07169045 -0.1256785 0.017990533 -0.2834043 -0.0761968 0.029959982 -0.029629445 -0.25523138 0.14774594 0.06964551 0.29365832 0.31767675 0.11013917 -0.3089121 -0.27337125 -0.050640997 -0.012777005 -0.023328569 0.0101141725 -0.05294989 -0.3553694 
http://dbpedia.org/ontology/nonFictionSubject -0.025355848 0.077659465 -0.077504046 -0.23221856 0.02342772 -0.0040327967 0.038777307 0.12571453 -0.044209167 -0.056549188 0.12951139 -0.035206053 0.087140486 -0.18034805 -0.06627948 0.10380727 0.071515255 -0.029316768 0.13573594 -0.12036641 -0.06198772 -0.049161054 -0.0067778644 0.0056375815 -0.07778826 0.04656499 0.09899351 -0.06739364 0.07150348 0.041408475 0.020450195 0.08405752 -0.0022876617 0.012114497 0.21985886 0.009572497 0.07120679 0.08323982 0.016265105 0.095575176 0.10826384 -0.13687992 -0.15835622 0.17065431 0.0978463 -0.22426227 0.15042008 -0.066767536 -0.038016874 -0.13594218 -0.021569021 0.057072375 0.0008045396 -0.1974258 0.02728617 -0.09234921 -0.20480214 -0.09189355 0.19850637 0.02191487 -0.04131805 -0.18384925 0.17755303 0.021243654 -0.2580505 0.055778667 -0.08490506 0.14627934 0.045439728 0.11509438 -0.10734051 0.12383072 -0.019559897 0.232305 0.10834433 0.24064326 0.041805353 -0.12555116 0.0016810511 0.079607144 -0.06357273 -0.06219122 0.054440033 0.112635 -0.23240228 -0.13860227 -0.022255512 0.08822593 0.010289329 -0.1595163 0.0956299 0.06632446 0.15169734 0.1281936 0.08681672 -0.133798 0.3184151 0.2240667 -0.0035649221 -0.16567679 0.075279914 0.33039308 -0.11198995 -0.19177231 -0.106418766 -0.17171884 -0.07380239 0.33580294 -0.10189723 -0.055901002 0.062467963 0.072289705 -0.025709761 -0.11458486 0.030932497 -0.23892069 -0.17322631 -0.26472908 -0.010170497 -0.07374656 -0.24536583 -0.034671508 0.15535969 0.019225394 -0.31689268 -0.30211785 -0.09757652 0.095023595 0.09459134 -0.0256705 0.027931323 -0.3013275 0.00033225943 -0.08491526 -0.07535906 0.27040717 0.111415684 -0.02229525 -0.14686628 -0.08464091 -0.06697641 -0.065834366 -0.031994753 0.13273211 -0.07960833 -0.082926214 0.09277464 0.12650694 -0.10699347 0.0066791703 0.077198364 -0.17811133 0.18587169 0.17972909 -0.23979235 -0.027501464 0.18809511 -0.0094902115 0.013307061 -0.21219584 0.24904431 -0.008954283 0.2474699 -0.031923108 -0.09378815 0.10856308 0.09080936 0.17090036 -0.2863153 -0.053483635 -0.046707384 0.23992674 0.14696133 0.03765057 0.12881446 0.20510912 -0.205835 0.18282586 -0.06341573 0.12713817 0.012345917 0.07881712 -0.13662302 0.0028032027 0.0719121 -0.0002783477 -0.2498127 0.0758771 0.15313247 0.2445687 0.14473702 0.07509174 -0.2842669 -0.06889007 0.25027034 -0.03917755 -0.14010708 -0.112562165 -0.06726003 -0.19552088 
http://dbpedia.org/resource/Grit,_Guts_and_Gumption -0.04687156 0.13058878 -0.092775375 -0.20591503 0.051502842 0.05433015 0.075730495 0.1043817 -0.031621773 -0.074950956 0.07173403 -0.06651518 0.13461964 -0.24619515 -0.088138625 0.12880072 0.08724368 0.0053484696 0.1810706 -0.12454912 -0.058144905 0.0025150294 0.0060806577 -0.015071386 -0.057460405 0.06628045 0.09594067 -0.04284669 0.065354094 0.011310343 -0.018875508 0.053716317 -0.05473673 0.008315381 0.24175453 0.011465561 0.078746326 0.04249642 0.029285345 0.15363492 0.068690956 -0.16311261 -0.15081725 0.15163173 0.14910547 -0.21733601 0.15113434 -0.14043623 -0.044753753 -0.17044191 0.054779008 0.056842204 -0.04494068 -0.22162515 0.021842318 -0.08120633 -0.22105946 -0.13568234 0.159056 -0.013341289 -0.065360315 -0.17667033 0.1650995 0.082978494 -0.28705218 0.087107636 -0.09746103 0.17955825 0.09020822 0.17589706 -0.13272634 0.09986591 0.030571958 0.21384977 0.09782548 0.24324115 0.078656405 -0.1686792 0.017778704 0.07641821 -0.11273054 -0.094788946 0.06376521 0.129697 -0.23596063 -0.17177483 -0.04607397 0.10977724 -0.021729814 -0.25401288 0.1048396 0.05258361 0.14007255 0.13545994 0.1418431 -0.13088295 0.34958836 0.27456808 -0.06753348 -0.16600277 0.0059432457 0.3363162 -0.11974959 -0.17545867 -0.11881421 -0.20514439 -0.04445028 0.35972434 -0.0639375 -0.018089531 0.033924084 0.012787366 -0.017573033 -0.10422572 0.02025863 -0.28766242 -0.1918332 -0.2999198 0.01494476 0.01573383 -0.2978676 0.07003011 0.109474674 0.016506135 -0.35786447 -0.30994776 -0.10846212 0.094493955 0.05770652 -0.09378025 0.10784573 -0.28673238 -0.006444805 -0.036425225 -0.1518735 0.31296962 0.18154012 -0.042444788 -0.18535763 -0.09675019 -0.06704931 -0.045262113 -0.06820867 0.09769079 -0.12187643 -0.026710358 0.026870798 0.16355975 -0.110046014 -0.060110677 0.081868276 -0.22036508 0.2340119 0.17639427 -0.25089344 -0.0059291227 0.20285109 -0.08249993 0.013115275 -0.1865537 0.26596123 -0.02892586 0.2673745 -0.09204598 -0.042474736 0.0487838 0.06925385 0.13418534 -0.35868493 -0.048770715 -0.04747975 0.26601815 0.17794472 0.0032987406 0.19616641 0.25309944 -0.16728044 0.15307666 -0.10135667 0.10973862 0.03499471 0.08809432 -0.12914777 0.014445116 0.037779503 -0.004858457 -0.26647964 0.109213024 0.12794022 0.23963955 0.17765173 0.14821836 -0.28534278 -0.046170466 0.1933693 -0.024909556 -0.14417951 -0.05266545 0.0062989336 -0.22905172 
http://dbpedia.org/resource/India -0.0851874 0.03335393 0.026217837 0.027071804 -0.06444947 0.0041025723 0.07395024 0.17704694 -0.14096865 -0.06251475 0.030019065 -0.0032237824 0.01638453 0.008734325 -0.13039845 0.039901208 0.060021378 0.032132156 0.025529273 -0.27988514 0.03259043 0.05064007 0.1329976 0.086180076 0.037506036 0.032651156 0.027165156 0.041031297 -0.14148282 -0.0041594026 -0.04743387 0.1050358 0.07150754 -0.05820587 0.099646054 -0.034284648 0.060580604 -0.06179244 -0.03732374 -0.0067360383 -0.0057588774 -0.08206632 -0.2504375 0.014461031 0.16837539 -0.0705378 0.05704482 -0.048964195 0.07008021 -0.051318437 -0.06763176 0.022073442 -0.08861278 -0.13507003 0.012047845 -0.20825933 -0.21239914 -0.28997728 0.0026670785 0.041888267 -0.03612787 -0.050936162 0.09025964 -0.058255706 -0.18178746 0.08504523 -0.023799025 0.17095983 -0.037306935 0.16573805 0.025947822 0.24147677 -0.062676966 0.05940821 0.17945282 0.14157528 0.14398322 -0.017162055 -0.050451912 -0.0895704 -0.07330626 -0.19259457 0.08827263 0.15225841 -0.27143076 -0.15209061 0.10355966 -0.027304372 -0.10488996 -0.08865488 0.08889226 0.06479905 0.13414432 0.08179944 0.21202545 -0.020497616 0.15264595 0.070358306 -0.08461815 0.10006762 -0.100521944 0.29997778 0.00030791305 -0.038408652 -0.06800902 -0.16800757 0.063411765 0.26692054 -0.14789411 -0.08921935 -0.026262537 -0.03192807 -0.048353788 -0.07133349 0.06922877 -0.15183422 -0.029396085 -0.14651686 -0.024589397 0.034235355 -0.1255645 -0.0021469716 0.26917538 -0.06945162 -0.2260329 -0.07812286 -0.09597733 0.07194769 -0.016001454 0.16959652 0.16860886 -0.24441697 -0.030354317 -0.11893299 0.034839258 0.18159509 0.09711254 0.09528368 0.027392024 0.0714379 0.13885884 -0.10621036 -0.1103616 0.044759315 -0.12606356 0.068612985 0.04792059 0.11045292 0.029775284 -0.073937535 0.04622318 -0.2854467 0.22468758 0.059280567 -0.1554964 0.09737986 0.21262018 0.086426936 -0.044099133 -0.027143165 0.14669144 -0.0070915017 0.12795259 -0.055647857 0.07707421 0.17134048 0.09164641 0.09605308 -0.13329162 -0.03593602 -0.06764604 0.051105913 0.24810702 0.07084675 0.0663996 0.1552675 -0.1420597 0.045324672 0.078927584 0.02485218 -0.086471885 0.011146026 0.0016952675 -0.1508287 0.017871723 -0.14726971 -0.11521549 0.01307231 0.13948797 0.06531235 0.18663837 0.050165437 -0.28001708 -0.14514731 0.14221576 -0.03507559 -0.035065494 -0.16356528 -0.09042375 -0.15784019 
http://dbpedia.org/ontology/country -0.015574861 0.09428237 0.026794372 -0.02729912 -0.009892513 -0.02273259 0.07561906 0.19068095 -0.18259841 -0.074947186 0.06334536 -0.058370106 0.093786344 -0.021196138 -0.017307285 0.041919094 0.045992073 0.08303529 0.0017935499 -0.33145887 -0.009357665 0.031183552 0.14873312 0.030050226 0.02446046 0.112019315 0.00020197153 0.05418694 -0.14985602 0.011424697 0.021709317 0.006105251 0.06813019 -0.007553753 0.06274977 -0.0002925998 0.05287927 -0.022972245 -0.06356495 -0.06400361 -0.08867385 -0.057305317 -0.26434988 0.06176701 0.15748148 -0.07582047 0.010100351 -0.062485255 -0.025322776 -0.040931053 -0.10997046 0.039484486 -0.12220009 -0.19039576 0.026460946 -0.29101658 -0.1642561 -0.29306567 0.0057773907 0.025304472 -0.061370824 -0.14731455 0.15195952 -0.067930155 -0.2455013 0.11592318 0.0051398696 0.13477235 -0.104665175 0.13485087 -0.016228067 0.27352476 -0.09854513 0.123246096 0.11802986 0.22224665 0.15792403 0.021403704 -0.10197737 -0.04585299 -0.07273438 -0.17427593 0.10671411 0.19718541 -0.2579779 -0.12962273 0.061500724 -0.076842204 -0.07530573 -0.060597606 0.022646131 0.12724833 0.15026663 0.016994966 0.23139842 -4.0174054e-06 0.17332196 0.03431393 0.01205406 0.020044532 -0.09815034 0.31004593 -0.024680639 -0.045385048 -0.023610726 -0.21402505 0.07893893 0.29928017 -0.09802732 -0.19145595 0.07837761 -0.021511234 -0.1011656 -0.12656 0.12246498 -0.084184565 0.040384594 -0.19767019 -0.05968641 -0.010509211 -0.1525236 -0.064851806 0.25953174 -0.012747779 -0.2050408 -0.12653731 -0.061019782 0.18989716 0.03141593 0.12446999 0.14972964 -0.25671825 -0.041286714 -0.10255288 0.07831168 0.19967103 0.14901154 0.013449685 -0.02051178 0.13503775 0.13285223 -0.09333959 -0.07790522 0.06876636 -0.054699104 0.069142774 0.045117535 0.15616845 0.011656552 0.045015756 0.07257407 -0.2768477 0.19909321 0.05834976 -0.20035818 0.13964118 0.14731145 0.15589601 -0.013452297 -0.12405148 0.11513661 0.045272373 0.13780166 -0.04787202 0.020963237 0.1631114 0.102390334 0.1858373 -0.12573944 -0.10820509 -0.0143152755 0.10431214 0.2326353 0.09336359 0.05018153 0.13565925 -0.1268063 0.050770976 0.04408336 0.06809972 -0.10092788 0.021121398 0.007199966 -0.07982041 0.093368925 -0.12539497 -0.09735537 -0.016080521 0.14003952 0.051383153 0.13738193 0.020077005 -0.30102983 -0.07396497 0.24002855 -0.02503261 -0.023188114 -0.20408206 -0.10202295 -0.14154294 
http://dbpedia.org/resource/Mumbai_City_district -0.07315903 0.057405528 -0.06650485 0.10196973 -0.07737751 0.038006645 0.17033973 0.27589497 -0.27421388 -0.23620917 0.20836015 0.05432294 -0.17199455 0.12777689 -0.25266093 -0.029747939 0.24883433 0.13630435 0.07317952 -0.43576092 0.0893289 -0.040934846 0.22059469 0.23490421 0.16463281 -0.0021970675 -0.06908255 0.22193521 -0.2658814 -0.0053728423 -0.21323174 0.28820652 -0.046515137 -0.21579063 0.115090065 -0.05683476 0.06571942 -0.20042545 -0.01942211 -0.111701205 -0.05908912 -0.1872034 -0.29045954 0.07653622 0.21409392 -0.02590771 -0.027461046 -0.020507552 0.090714775 -0.00079223514 -0.099394076 0.06611837 -0.04918328 -0.26733583 -0.011265874 -0.35983652 -0.20704624 -0.343316 -0.1213593 0.13217318 0.10977537 -0.074785285 0.06801018 -0.081860386 -0.24221587 0.11295026 -0.045460857 0.26879218 0.08096799 0.13584428 -0.024772814 0.3107505 -0.16052827 0.037109405 0.32932323 0.26156312 0.10202352 0.07898286 0.07285249 -0.2144052 -0.061442733 -0.23307866 0.16456392 0.30214453 -0.36806068 -0.09618311 0.3316188 -0.05533278 -0.15731883 -0.109412976 0.23633188 0.08025094 0.18796667 0.09275517 0.17874669 0.012367175 0.09281308 -0.03249242 -0.10748753 0.13380462 -0.11262858 0.3598255 0.07960653 -0.037722677 -0.029892502 -0.14770918 0.14838345 0.2958258 -0.18131807 -0.1686197 -0.055037063 -0.1069691 -0.0763333 -0.16651973 0.15720823 -0.29270828 -0.110083506 -0.21539864 -0.21726277 0.04289966 -0.16318925 -0.06935917 0.47324988 0.14265376 -0.22242483 -0.22970955 -0.09807346 0.07302186 -0.037815947 0.2208809 0.19522189 -0.39469805 -0.06865435 -0.25802144 0.059459224 0.32102525 0.30478153 0.07273381 0.06878828 0.22872151 0.21373214 -0.28747845 -0.24611002 0.08616925 -0.17170177 0.1428236 0.066102035 0.117516845 0.08289125 -0.015479611 0.10052131 -0.55333745 0.2439815 -0.019142343 -0.29692543 0.23270103 0.29723144 0.10344405 -0.12807074 -0.06553289 0.26371938 0.025206696 0.10494258 -0.19803454 0.095760465 0.25589076 0.21262355 0.23031676 -0.17686062 -0.018437784 -0.094501995 0.14132911 0.37334362 0.1792778 -0.009564703 0.28342292 -0.22090715 0.04468616 0.17902735 -0.05871683 -0.15128851 -0.07031874 -0.001287189 -0.20393457 -0.04616022 -0.10514883 -0.16764387 -0.05995193 0.15026565 -0.0153726805 0.2999116 0.053477053 -0.3394438 -0.22989918 0.09435843 0.005506122 0.13898632 -0.28659582 -0.27922633 -0.3847837 
http://dbpedia.org/ontology/routeStart -0.19537312 0.093446404 0.111848824 0.1931551 -0.008461024 0.083763815 0.08476118 0.25826046 -0.38657784 -0.09500587 0.056382522 -0.018022994 -0.05195138 0.16404803 -0.14714292 -0.094231755 0.0847916 0.12404272 0.01616714 -0.5925188 0.02200642 0.12282911 0.34219313 0.24393173 0.1317966 0.1428039 -0.10132263 0.1849844 -0.34504566 0.037923135 -0.017535903 0.22270998 0.06819502 -0.048106506 0.030462325 -0.11704292 -0.03320448 -0.13053553 -0.054278843 -0.16415364 -0.036061425 -0.19899063 -0.40070122 0.10817122 0.2191167 -0.035848998 0.0995327 -0.07757825 -0.015776712 -0.09336036 -0.09170615 0.010490278 -0.10098135 -0.2984657 0.0076965736 -0.5194624 -0.34165567 -0.5217686 -0.08472132 -0.025591336 -0.047268566 -0.12191263 0.21239054 -0.13948022 -0.3161886 0.14715633 0.12022326 0.2828312 -0.17523703 0.25909474 -0.02749456 0.43618006 -0.18319714 0.085849375 0.21756966 0.28037813 0.13713995 0.15016869 -0.06799313 -0.25345066 -0.071397945 -0.41404328 0.2176177 0.224421 -0.3589746 -0.18486632 0.35027027 -0.14581367 -0.25658095 -0.048426576 0.07288908 0.09460775 0.17614888 0.008634479 0.33684915 0.04263556 0.28075603 0.082499355 -0.0145300105 0.23128602 -0.22252771 0.39206365 0.0010180176 0.047975253 -0.23015937 -0.17231569 0.14266182 0.3421062 -0.24224795 -0.20758313 -0.097822 0.0053698723 -0.2022132 -0.2757296 0.074272744 -0.10022897 0.02238798 -0.31544155 -0.118745774 -0.0006305346 -0.14428528 0.050151084 0.53174025 0.04790784 -0.25003967 -0.046093993 -0.16394007 0.14650956 -0.06655152 0.4177431 0.34627038 -0.39095995 -0.038765077 -0.22452196 0.11862998 0.31391358 0.19543205 0.23013091 0.14353661 0.25135264 0.36355418 -0.25755665 -0.2582809 -0.024372885 -0.11457594 0.14500196 0.0059391917 0.25178483 0.14927958 -0.025383867 0.045451216 -0.41879228 0.33214077 0.07345717 -0.32915854 0.2598315 0.24932243 0.14330666 -0.10382311 -0.042709187 0.2724521 0.09030504 0.20625259 -0.12396114 0.19135322 0.22548056 0.14883262 0.24572262 -0.09844223 -0.16038738 -0.0500825 0.07271691 0.35750228 0.15731555 0.0018109521 0.2616134 -0.20767301 0.0052902326 0.27772102 0.0061181895 -0.10002087 -0.19337481 0.14262308 -0.22173804 0.013001168 -0.3310343 -0.14814405 0.062064227 0.17324868 0.0017397522 0.2563998 0.066192344 -0.3950827 -0.17809498 0.19762221 -0.100668475 0.0075789294 -0.3289169 -0.13385445 -0.24595393 
http://dbpedia.org/ontology/timeZone -0.052884188 0.06160198 0.0723317 0.051774926 -0.0800418 -0.09460832 0.108508684 0.24023324 -0.19885525 -0.14715032 0.10918739 -0.04430834 -0.025808292 0.047995333 -0.17697144 0.044427115 0.040150277 -0.00034289667 0.026142485 -0.42034107 0.051889297 0.13503498 0.24072531 0.11464268 0.052771017 0.10007351 -0.028211642 0.07409663 -0.13770217 -0.01967799 -0.036163583 0.15316044 0.1669238 -0.009573009 0.076816685 -0.050432976 0.1175066 -0.058021575 -0.051876724 -0.09582123 -0.028166635 -0.09874763 -0.30294636 0.058431625 0.16823742 -0.08634188 0.024592169 -0.041204218 0.023837138 0.015179717 -0.18495627 0.076805994 -0.111420795 -0.18649422 0.08940043 -0.3177156 -0.20787804 -0.34945548 0.020037375 0.06408396 -0.06126998 -0.06828823 0.09751471 -0.13374144 -0.23788348 0.08486692 -0.041899636 0.18380937 -0.06535332 0.15118936 -0.007112374 0.3166281 -0.116099894 0.12262148 0.2042408 0.18357855 0.15210769 -0.0048790607 -0.10099263 -0.12981863 -0.036410086 -0.19283582 0.15480362 0.19564603 -0.27924198 -0.14862178 0.21529877 -0.05895504 -0.20503898 -0.079356834 0.052747138 0.10192854 0.13968165 0.10418428 0.26725206 -0.00910234 0.20154585 0.046861295 -0.075582564 0.11688211 -0.07482696 0.34591162 -0.028122222 -0.03915361 -0.07313934 -0.19936325 0.060484003 0.335366 -0.16937584 -0.16208531 -0.011237592 -0.04941512 -0.12160151 -0.09097505 0.064300574 -0.12544073 -0.0046112575 -0.18271701 -0.013426893 -0.06041647 -0.19507441 -0.01057376 0.33043513 -0.1461665 -0.19451529 -0.14903156 -0.13807619 0.14788921 -0.028574472 0.22786501 0.22374584 -0.36496323 0.039614618 -0.17068301 0.046093777 0.21167171 0.08963113 0.11797343 0.06912512 0.1448033 0.1762438 -0.191248 -0.20406604 0.038140353 -0.12275512 0.12767465 0.08156693 0.14318016 0.03908767 0.014872469 0.062491495 -0.3290923 0.26347816 0.16183752 -0.2144449 0.17973465 0.23120755 0.09903306 -0.019548295 -0.044355877 0.18041638 0.009217678 0.09028094 -0.06554332 0.053404834 0.21370317 0.1564827 0.118692644 -0.13177502 -0.0028444189 -0.088920996 0.04512509 0.3054128 0.12063078 0.034832913 0.15677138 -0.18800262 0.024881829 0.109874114 0.063777395 -0.13056612 -0.027874243 0.006307241 -0.14951824 0.07069184 -0.16204402 -0.19131462 -0.061657622 0.20590395 0.101528086 0.19967179 -0.006547303 -0.33957487 -0.10990508 0.10796152 -0.044951018 -0.060367502 -0.1863697 -0.19126932 -0.12995745 
http://dbpedia.org/resource/Marathi_language -0.07629081 0.03835754 -0.061374832 0.10144412 -0.06168276 0.042804837 0.14387529 0.2426777 -0.2517051 -0.20331372 0.16480497 0.048494227 -0.16491337 0.12127724 -0.23135869 -0.02960978 0.21785991 0.117545485 0.0790753 -0.38807836 0.08695532 -0.028159084 0.18975465 0.2344182 0.14070375 0.008572985 -0.07357914 0.19109632 -0.23639303 0.009529448 -0.18015862 0.28159752 -0.04913924 -0.19033964 0.10697008 -0.05388239 0.038329747 -0.1865588 -0.026505139 -0.092915416 -0.03576272 -0.18577093 -0.25350776 0.07082552 0.19174533 -0.021178873 -0.0017890771 -0.036648378 0.075296134 -0.020114843 -0.073029324 0.054647278 -0.02159261 -0.23975112 -0.011284227 -0.33270916 -0.20061684 -0.31312084 -0.10549303 0.10664166 0.096701935 -0.0669506 0.056444153 -0.08127773 -0.21169522 0.09719469 -0.024528224 0.23690695 0.07012495 0.12917377 -0.040726956 0.26692057 -0.15591277 0.02262145 0.2933188 0.22532229 0.0818331 0.08708534 0.07125909 -0.19490457 -0.060411546 -0.21536775 0.15685627 0.25138557 -0.32894787 -0.0896617 0.30327109 -0.03886241 -0.15325014 -0.11316441 0.21285988 0.055011835 0.15018173 0.07825705 0.14710572 0.0031680295 0.101217076 -0.025939954 -0.09436856 0.14111659 -0.11003368 0.3193268 0.07217843 -0.028376458 -0.068715625 -0.11722318 0.124899015 0.2563481 -0.17274004 -0.14456302 -0.06689853 -0.092658475 -0.07710529 -0.15837044 0.10791336 -0.26082024 -0.10931306 -0.20772287 -0.18331766 0.04234856 -0.15497752 -0.04903178 0.41949558 0.13972789 -0.20280105 -0.18337746 -0.0927181 0.06039372 -0.038012955 0.21146442 0.17249638 -0.3520521 -0.07022095 -0.22300732 0.048690453 0.279235 0.2686551 0.07221386 0.08356782 0.17855649 0.19666943 -0.26516715 -0.22773947 0.06265083 -0.1537011 0.10969789 0.038819943 0.11662643 0.093229406 -0.025069064 0.07736014 -0.47906914 0.2342597 -0.011329927 -0.27027944 0.20947851 0.26823026 0.06996817 -0.12273483 -0.059437566 0.2520969 0.016933685 0.10083677 -0.1732404 0.09432704 0.22395216 0.18292397 0.20556025 -0.14842275 -0.026135653 -0.08933757 0.13089362 0.33151895 0.1577775 -0.0055473526 0.2802776 -0.19646366 0.032110542 0.17401677 -0.047248714 -0.11668805 -0.084089495 0.016846927 -0.18800484 -0.04899188 -0.11449039 -0.15488236 -0.032701798 0.12641425 -0.0016040221 0.27287737 0.06278958 -0.30522648 -0.20550396 0.084937654 0.008048599 0.11822105 -0.25357577 -0.23276117 -0.33658102 
http://www.mcgm.gov.in -0.11082858 0.080049485 -0.031570964 -0.02918934 -0.035761617 -0.021455599 0.037003994 0.20405288 -0.17807777 -0.12480682 0.09765563 -0.01051412 0.023919946 -0.026926754 -0.1385082 0.04708199 0.093755774 0.015748534 0.07803979 -0.31865647 -0.01568513 0.022811256 0.10368516 0.06193866 0.037061647 0.055240206 -0.00663348 0.09098304 -0.1296574 -0.00079879555 -0.025723228 0.12683395 0.009183617 -0.09818649 0.1362153 -0.008774529 0.06719978 -0.07814086 -0.0261107 -0.0139960395 -0.037263844 -0.08570822 -0.29934227 0.0595648 0.18167205 -0.1516398 0.062226504 -0.046956815 0.019703077 -0.04553419 -0.11667416 0.07931543 -0.069483936 -0.17075568 0.06872239 -0.21342722 -0.25689834 -0.25390467 0.0049263197 0.089068346 0.009244124 -0.103041135 0.15188782 -0.05629916 -0.26284978 0.09579503 0.016329227 0.22112791 0.024722522 0.2123964 0.00072788296 0.2763802 -0.09901992 0.10124722 0.15551038 0.25403178 0.11910829 -0.036302853 0.014571022 -0.13412647 -0.07551624 -0.16417502 0.062850356 0.21655303 -0.28855616 -0.17208175 0.13591671 0.015201095 -0.10977623 -0.091010146 0.078064226 0.061899044 0.1754773 0.0986449 0.20850915 -0.04180298 0.20388561 0.10048125 -0.009615894 0.013923212 -0.060422823 0.32720608 -0.048444487 -0.11794676 -0.03580196 -0.18084516 0.07507789 0.29886165 -0.13794582 -0.068705514 0.012044524 -0.028424375 -0.078910135 -0.108107686 0.07477916 -0.15865251 -0.0351313 -0.2055483 -0.07792002 0.0066532483 -0.2046426 0.012763937 0.26183945 -0.036169566 -0.2767222 -0.15430252 -0.06531279 0.091598175 0.026681807 0.12443097 0.22704615 -0.34031016 -0.04184496 -0.17712934 0.05994504 0.30512524 0.18105775 0.06332435 -0.007008074 0.05638447 0.1113007 -0.16613927 -0.15857665 0.07824785 -0.13378717 0.09384324 0.05907369 0.17905913 -0.044262983 -0.06233113 0.13018045 -0.34201574 0.21784838 0.13024886 -0.2521967 0.12816493 0.28285554 0.09128126 -0.07668763 -0.13879988 0.12548886 0.010695305 0.16353308 -0.10098855 0.058887754 0.18471014 0.15402561 0.13079302 -0.18290003 -0.025558336 -0.08775395 0.0648053 0.24907677 0.13888195 0.059426136 0.14819717 -0.20545556 0.12105083 0.043713212 0.089735106 -0.10276266 0.013763472 0.0019468749 -0.17053439 0.03977714 -0.115400225 -0.16476338 0.016944876 0.13612244 0.1367474 0.192653 0.09583735 -0.28753826 -0.13315696 0.1525159 -0.020924842 -0.034834184 -0.18984689 -0.12975341 -0.18388523 
http://dbpedia.org/resource/Indian_Standard_Time -0.1149031 0.06767757 0.05757814 0.08730525 -0.07050573 -0.0011094201 0.09609122 0.18948328 -0.22826406 -0.09974664 0.09534949 -0.0070320205 -0.054419167 0.064018875 -0.16797762 0.006109037 0.0696325 0.028926266 0.031500652 -0.3624395 0.08252205 0.08469029 0.17412968 0.13588913 0.07159316 0.056140117 -0.018759383 0.14592166 -0.23552813 -0.014725056 -0.042907763 0.13436891 0.05546634 -0.10237648 0.057890154 -0.060636126 0.09653933 -0.07767576 -0.045141958 -0.048950158 -0.045464978 -0.14751312 -0.31401062 0.058040902 0.18492171 -0.077325776 0.05974326 -0.02250359 0.05198934 0.016153151 -0.100443475 0.03935534 -0.07003114 -0.20294464 0.0683518 -0.28183338 -0.24072674 -0.35857743 -0.060697474 0.027195925 -0.016554518 -0.0377764 0.112589546 -0.123054154 -0.20170164 0.100513674 0.021919964 0.2259607 -0.017441407 0.17674685 0.03510075 0.28447682 -0.11443725 0.044291288 0.22108698 0.2136464 0.08634962 0.06771471 0.00093908905 -0.17785278 -0.05844622 -0.2568109 0.12841679 0.19044998 -0.31307867 -0.11070298 0.19486107 -0.079335645 -0.18728669 -0.07338564 0.10415193 0.09152558 0.13411695 0.053549238 0.2338091 -0.025065428 0.1244219 0.037093725 -0.08446213 0.12852302 -0.1381205 0.29417753 0.016048001 -0.058508545 -0.10289497 -0.1490801 0.07842385 0.30763152 -0.16417415 -0.085648485 -0.08247576 -0.0077959136 -0.09532847 -0.10278995 0.046549108 -0.14027414 -0.026490398 -0.17433886 -0.087986656 0.043654 -0.1560778 0.026000654 0.32095695 -0.03865663 -0.19154936 -0.12053825 -0.13168544 0.12669773 -0.030346328 0.23831105 0.20921366 -0.31941822 -0.066900715 -0.18467106 0.06842624 0.25097817 0.14974827 0.122559465 0.09252318 0.15663278 0.15448923 -0.20258449 -0.18488282 0.04436319 -0.113682814 0.14537519 0.045066494 0.18522045 -0.008763732 -0.04968284 0.09615406 -0.36526284 0.2599819 0.08446976 -0.2296383 0.16438311 0.27541512 0.08830444 -0.09146709 -0.03047967 0.13943125 -0.039341487 0.10041328 -0.12550545 0.12853837 0.20884755 0.15170516 0.15091021 -0.11846354 -0.019093642 -0.04030704 0.059356146 0.32369065 0.13814981 0.030812066 0.18702437 -0.18497477 0.024539297 0.14921986 0.010235526 -0.1281721 -0.045024157 0.053251784 -0.19180924 0.055791177 -0.1761566 -0.14774798 -0.023033544 0.107963435 0.07442923 0.2575024 0.05441128 -0.29950905 -0.18196529 0.104647905 -0.0067238244 -0.0039760475 -0.20957305 -0.14578399 -0.17201659 
http://dbpedia.org/resource/South_Mumbai -0.15723917 0.041290045 0.080898665 0.10216082 -0.12697707 -0.07254276 0.018046457 0.29274 -0.26429865 -0.10711634 0.059470188 0.04602843 -0.11606168 0.060141582 -0.22667311 0.005222159 0.012398119 -0.014033819 0.08529394 -0.53644186 0.0721284 0.13002194 0.33623138 0.2611068 0.049349666 0.16725893 -0.1047476 0.112160765 -0.25386965 0.045551624 -0.039298333 0.19246908 0.28111407 -0.076656215 0.18388897 -0.09907193 0.0523094 -0.06603477 -0.08380659 -0.09352416 -0.036762733 -0.20068005 -0.46191016 0.1320158 0.17941147 -0.16197348 0.07539148 0.020461565 0.061747212 -0.061808497 -0.2130534 0.10540968 -0.06564751 -0.19163534 0.19766346 -0.41607648 -0.33237237 -0.48725772 0.04085348 0.05660138 -0.09048298 -0.10498938 0.07430511 -0.17647947 -0.27169994 0.07369883 0.0071273725 0.24354565 -0.057920754 0.2842903 0.010768174 0.4085568 -0.21455498 0.15594429 0.2514905 0.25145003 0.11905859 0.09995099 -0.06623412 -0.26696154 -0.103567965 -0.24170057 0.27310693 0.1791426 -0.4184639 -0.19148861 0.26870078 0.009095191 -0.30496994 -0.07025649 0.11947768 0.07160575 0.1294531 0.088100985 0.26556435 -0.086068876 0.24662925 0.078281164 -0.07960369 0.16772898 -0.12915482 0.40797463 -0.002813502 -0.057192653 -0.20156275 -0.18481207 0.13336934 0.4203245 -0.21062052 -0.20766616 -0.12724899 -0.04063066 -0.2349055 -0.21109277 0.034684446 -0.1285768 -0.06568414 -0.27388257 -0.032056406 -0.056059588 -0.2970575 -0.024215799 0.45940053 -0.08679365 -0.19299357 -0.13622488 -0.1603519 0.14887144 -0.006355668 0.40527642 0.30440465 -0.5112401 0.015909884 -0.23112649 0.09006058 0.3029233 0.1400105 0.21449941 0.232985 0.07925378 0.24935089 -0.2852028 -0.31038994 -0.025932007 -0.15598956 0.13803114 0.10776809 0.28316003 0.042539306 -0.0014066638 0.07622939 -0.4127475 0.41221657 0.24122427 -0.30918843 0.20710476 0.34978378 0.12671322 -0.1390898 -0.0946827 0.23063566 -0.037401248 0.18118833 -0.11782274 0.053740207 0.30391806 0.17087229 0.15797509 -0.11613658 -0.06331052 -0.099677905 0.11686 0.41036782 0.1816709 0.022515893 0.2790196 -0.2588008 0.019543033 0.2188802 0.09418009 -0.051151767 -0.15332046 0.13647196 -0.32787675 0.07644388 -0.22770554 -0.27032545 -0.06615274 0.18004513 0.12777148 0.3226922 0.005802758 -0.3856229 -0.15936162 0.20469691 -0.04912793 -0.15004145 -0.2981287 -0.18093643 -0.20013769 
http://dbpedia.org/resource/Mumbai_Suburban_District -0.07872959 0.061253153 -0.064705215 0.093711056 -0.0865453 0.027516821 0.16265976 0.28291094 -0.2720706 -0.22834022 0.20856957 0.058172226 -0.16632545 0.12522395 -0.24626097 -0.034430664 0.24122526 0.13870205 0.059817333 -0.4415432 0.09300914 -0.04785128 0.21585397 0.23339073 0.17505299 -0.0065460396 -0.05628698 0.23848352 -0.28378242 -0.00807209 -0.21763374 0.26983646 -0.029480089 -0.22751866 0.11821112 -0.051211968 0.0761964 -0.19776908 -0.01599652 -0.12351973 -0.08569016 -0.17163557 -0.30685672 0.08172595 0.20856376 -0.03076241 -0.029773803 0.0067121834 0.09701457 0.015638165 -0.11860458 0.081099086 -0.050680775 -0.25761113 0.0006197238 -0.35580087 -0.1954623 -0.3450292 -0.11640763 0.13869584 0.11704401 -0.075505234 0.058858328 -0.092853054 -0.24239877 0.12046014 -0.034055255 0.26975855 0.07556772 0.1448371 -0.013755894 0.31515014 -0.16565685 0.036006287 0.32345092 0.28133577 0.104441166 0.077494875 0.06898174 -0.22734262 -0.06434586 -0.2108443 0.15902804 0.3075087 -0.36430266 -0.08983343 0.31950527 -0.06475683 -0.14398044 -0.086533815 0.23147689 0.079064175 0.19807799 0.084564604 0.18301846 0.023700606 0.07082245 -0.0582757 -0.09211295 0.11508024 -0.12005507 0.36306238 0.068583824 -0.050197832 0.0013735861 -0.16460735 0.1538187 0.2983204 -0.16220559 -0.18146485 -0.03862259 -0.103779614 -0.078836195 -0.16754793 0.17811613 -0.28396994 -0.09690636 -0.19723623 -0.22405799 0.049415324 -0.15805794 -0.09749984 0.4866078 0.15020816 -0.20066676 -0.2314477 -0.08224154 0.06525877 -0.021749513 0.22518001 0.20493034 -0.39071214 -0.07180161 -0.2547219 0.077269144 0.32419938 0.316351 0.06940281 0.07667302 0.23512343 0.20690908 -0.27865985 -0.24433897 0.07245773 -0.17468993 0.15176895 0.086275555 0.11949146 0.07549365 -0.009246031 0.12250452 -0.55761486 0.22022995 -0.018450813 -0.30313003 0.22812623 0.30345422 0.1099315 -0.12692995 -0.08085551 0.25174662 0.03546044 0.10173703 -0.20630041 0.09461756 0.2608077 0.2263819 0.21583447 -0.1759576 -0.02508617 -0.09022663 0.1341468 0.36472288 0.20778176 -0.025943818 0.27058935 -0.23707624 0.055989984 0.16926941 -0.048140533 -0.14832689 -0.06819274 0.012794826 -0.21708472 -0.04409293 -0.10076679 -0.14692871 -0.08849994 0.1378289 -0.027837759 0.2993046 0.051717874 -0.3301522 -0.23741144 0.11137764 0.008762183 0.15224123 -0.2936431 -0.30418772 -0.37766168 
http://dbpedia.org/resource/Growth_of_Mumbai -0.14452642 0.030483961 0.08898347 0.095489286 -0.12586157 -0.08335382 0.02228083 0.28166986 -0.24302404 -0.116053954 0.066511795 0.0374253 -0.108252235 0.05603744 -0.23361404 0.022996018 0.01113609 -0.03342232 0.08388374 -0.5243779 0.078240074 0.14357497 0.33915544 0.25458008 0.039742474 0.17982833 -0.10788938 0.09022039 -0.22973666 0.039348576 -0.030379975 0.20116398 0.28269285 -0.055287454 0.17178975 -0.08909782 0.05386602 -0.06657133 -0.098651975 -0.08675192 -0.024328474 -0.19790754 -0.4390585 0.11207997 0.17937464 -0.16301546 0.075263545 -0.0014986127 0.058710076 -0.058223635 -0.21629623 0.090916105 -0.07601405 -0.17570034 0.20292065 -0.40539175 -0.32108682 -0.48344383 0.04684017 0.049116764 -0.108890384 -0.10923612 0.077731475 -0.17093375 -0.27251342 0.07578891 -0.01469993 0.2206843 -0.052145906 0.2750882 -0.004026749 0.39482957 -0.21313153 0.16567044 0.24496777 0.23178688 0.11692584 0.08808048 -0.07804448 -0.24126914 -0.08777186 -0.24181515 0.26775718 0.17661558 -0.41170108 -0.18497956 0.26359493 0.015407064 -0.3151727 -0.07275935 0.108684994 0.07316367 0.115198724 0.09611166 0.25448135 -0.088207975 0.254713 0.08875973 -0.090809725 0.17114222 -0.113755986 0.39547545 -0.0012957036 -0.046476446 -0.21208037 -0.18559098 0.121734984 0.41337195 -0.2145687 -0.19551663 -0.12987968 -0.033327594 -0.21746889 -0.19648498 0.016100202 -0.12322247 -0.06646186 -0.2691696 -0.017522614 -0.07073693 -0.29406747 -0.011097883 0.42595482 -0.11866158 -0.18575431 -0.12856226 -0.17919032 0.16396968 -0.011257422 0.38692898 0.28159997 -0.49333486 0.017323272 -0.217504 0.07747706 0.28871349 0.11278201 0.20804678 0.21790376 0.06646272 0.24525198 -0.28244084 -0.30486447 -0.027410949 -0.14983585 0.11944281 0.09318615 0.27788243 0.044704113 0.0011056024 0.058098696 -0.39226303 0.42139563 0.24285296 -0.2919742 0.20939639 0.32658812 0.12445453 -0.13211572 -0.07750767 0.23420861 -0.052323878 0.17620952 -0.10501864 0.04916357 0.30476475 0.15573642 0.15177359 -0.11196065 -0.049005356 -0.09851458 0.116681404 0.4098688 0.15686058 0.029455667 0.27855527 -0.23157819 0.0071952823 0.21766646 0.09234908 -0.059374098 -0.15503706 0.108899586 -0.3145818 0.07711858 -0.21962549 -0.2757327 -0.05928047 0.2006605 0.14061868 0.3105903 0.0017602909 -0.38149598 -0.14167114 0.18422005 -0.060938872 -0.16174096 -0.27714965 -0.16797252 -0.18136987 
http://dbpedia.org/ontology/governingBody -0.05994443 0.10629117 0.06241285 -0.0069638034 -0.046342768 -0.011723166 0.03824074 0.18238014 -0.18666592 -0.07043064 0.076990984 -0.04569872 0.048220247 0.036585756 -0.06302719 0.035987012 0.06063062 0.07984162 0.006069758 -0.34525153 -0.027365837 0.051341906 0.17490822 0.07139879 0.046195243 0.07213981 0.017091196 0.06939666 -0.13772497 -0.011200873 -0.022137906 0.047855377 0.057305846 -0.025637392 0.042250477 -0.048811976 0.09324669 -0.017282145 -0.032988593 -0.08627356 -0.053724904 -0.069470935 -0.27513915 0.058786992 0.13132876 -0.053656768 -0.0031269891 -0.0442735 0.019106582 -0.0017140805 -0.16053687 0.054051157 -0.13440847 -0.19807807 0.025547126 -0.25451016 -0.185457 -0.3218871 0.015532907 0.008483739 -0.0640436 -0.10719032 0.13631356 -0.052409165 -0.26715514 0.12167525 -0.039998747 0.16645528 -0.048935447 0.18433861 0.045206137 0.25746086 -0.10416998 0.13882938 0.14295903 0.19601902 0.17947526 0.01617502 -0.0749049 -0.055166867 -0.040926617 -0.22626662 0.09094104 0.18625085 -0.26424316 -0.15726982 0.11363043 -0.051559526 -0.084650055 -0.07662834 0.0133248195 0.113341734 0.16123931 0.069063954 0.22234178 0.009076302 0.19655766 0.058942012 -0.026885131 0.039868567 -0.06694612 0.32490867 -0.025669996 -0.009713732 -0.01732385 -0.20803331 0.104189605 0.3217047 -0.09132896 -0.14599833 0.04911082 0.014823437 -0.06477988 -0.10730681 0.11754661 -0.096061036 0.027363343 -0.18101098 -0.0890158 -0.030651566 -0.17395546 -0.025865933 0.28555885 -0.053989474 -0.22428152 -0.1170598 -0.07859561 0.15294531 0.010022441 0.18445095 0.18548162 -0.27902105 -0.02143671 -0.1266089 0.033597704 0.23141216 0.13272917 0.04558877 -0.03056062 0.15184207 0.14992356 -0.10806138 -0.098211884 0.04236205 -0.0781635 0.10322079 0.06975673 0.12737684 -0.010797012 0.018556137 0.056764834 -0.27621147 0.19497542 0.09158924 -0.21535379 0.14009668 0.1729486 0.13693479 -0.029289968 -0.0851522 0.16844945 -0.009705208 0.15178964 -0.04506494 0.06703719 0.14819928 0.11196056 0.15119712 -0.1477172 -0.04549695 -0.004867231 0.05382593 0.23701891 0.098356985 0.033276547 0.14801475 -0.170718 0.07719322 0.04827691 0.060092527 -0.12371645 0.021368692 -0.00049112446 -0.15499637 0.047028042 -0.12335868 -0.12371561 0.007462191 0.16899906 0.039656296 0.18915342 0.009237512 -0.28137514 -0.08850853 0.19848475 -0.04113981 -0.045399167 -0.19413921 -0.16029847 -0.15350439 
http://dbpedia.org/ontology/governmentType -0.03333908 0.07841027 0.065154344 -0.00064673205 -0.029630303 -0.060588047 0.06474518 0.19216692 -0.16665003 -0.116592966 0.09538191 -0.040549167 0.012990207 0.06157144 -0.1533148 0.06261074 0.043214593 0.056957044 -0.005494815 -0.38434494 -0.009523127 0.08390367 0.18788566 0.09593346 0.03140346 0.12020143 0.0010775572 0.06481632 -0.17923257 0.02292243 -0.0074657365 0.07616528 0.12002692 -0.05333704 0.062639594 -0.012178917 0.068234175 -0.06200681 -0.040806 -0.100435555 -0.03230495 -0.08612197 -0.29792827 0.038138993 0.17888674 -0.059199598 0.04975797 -0.0454522 0.04264636 -0.027295593 -0.13167882 0.010555331 -0.123007916 -0.13756233 0.04261168 -0.26445547 -0.23084785 -0.32960528 -6.190591e-05 0.02260227 -0.024998816 -0.12223079 0.118766464 -0.05399968 -0.2080568 0.11544764 0.0018186627 0.13374723 -0.063150115 0.18006691 0.023672756 0.29807964 -0.08280306 0.10951055 0.1640918 0.21220452 0.13027069 -0.0022979637 -0.06232172 -0.12242416 -0.038574796 -0.18878037 0.071584195 0.17188795 -0.28335583 -0.15479201 0.15952814 -0.04208869 -0.1465168 -0.031922705 0.05124039 0.12956776 0.14422537 0.08240196 0.24117877 -0.021822872 0.17847869 0.02788737 -0.033024233 0.05275036 -0.079753324 0.3259104 -0.013225677 -0.02015 -0.047873605 -0.17522813 0.08590018 0.27060503 -0.09474288 -0.11762638 -0.03727409 -0.031595048 -0.07737083 -0.10983526 0.08202555 -0.07833382 -0.012048859 -0.18286577 -0.04330551 -0.027233014 -0.17329659 0.019135308 0.3225975 -0.09333325 -0.21678998 -0.104353406 -0.07903408 0.14473692 0.0014280806 0.19884631 0.18977055 -0.29597393 0.0065839295 -0.12253381 0.03809721 0.24292576 0.08366603 0.04909998 0.034284793 0.14274351 0.16935363 -0.16866745 -0.11710501 0.015501159 -0.100586005 0.106312454 0.04122441 0.1569945 0.007243165 -0.030901818 0.08623661 -0.30254388 0.25991222 0.07405888 -0.22178285 0.16901785 0.22071882 0.13299766 -0.07101155 -0.064016044 0.17308867 0.017027415 0.09781286 -0.037997637 0.08421496 0.16649382 0.104397506 0.16866545 -0.13231033 -0.06819257 -0.01926287 0.039700355 0.2482556 0.12509291 0.0522819 0.16825153 -0.16333248 0.03031577 0.11687423 0.047956765 -0.1411805 -0.04235842 -0.00028167784 -0.13489616 0.06853125 -0.14289911 -0.08957908 -0.029854843 0.1630415 0.041308552 0.2047174 0.01021572 -0.2852412 -0.12350596 0.14250232 -0.03470601 -0.051109903 -0.2026208 -0.12318403 -0.1503785 
http://dbpedia.org/resource/Mayor?council_government -0.06356719 0.06798754 0.034664758 0.07815332 -0.033515383 -0.0006631727 0.057660677 0.21710697 -0.21382686 -0.09277806 0.043946896 -0.02690554 -0.036904495 0.09417259 -0.1574441 0.025812434 0.061745174 0.05822583 0.051000003 -0.33872336 0.04480186 0.04267003 0.19776295 0.120705955 0.07719927 0.07647709 0.00508825 0.10780372 -0.20994525 -0.0041605486 -0.03236041 0.13788658 0.058597147 -0.06279837 0.074146114 -0.060922083 0.103760615 -0.10371505 -0.062346015 -0.032345526 -0.05702521 -0.101219214 -0.3036587 0.013382118 0.15081783 -0.05438095 0.047459844 -0.027163759 0.06911366 0.0012167542 -0.12335998 0.034983594 -0.06842065 -0.1863655 0.06877281 -0.2825572 -0.2235432 -0.3378608 -0.028922198 0.036018614 0.00051490864 -0.07589344 0.1049704 -0.10123632 -0.23508464 0.06038231 0.00085054064 0.18581145 -0.037510008 0.20977642 0.030218745 0.24624628 -0.12937184 0.043524858 0.1612165 0.18171883 0.13315211 0.06351461 -0.009467815 -0.14005964 -0.027169142 -0.23080957 0.083777644 0.17396222 -0.3030567 -0.15220863 0.19102032 -0.06488749 -0.16086632 -0.07728074 0.083430685 0.08206071 0.119092286 0.08988519 0.21729675 -0.018404024 0.12345207 0.023455799 -0.06898512 0.11884839 -0.14963832 0.29929847 0.009191632 -0.054987945 -0.06928349 -0.15122055 0.10666575 0.2935625 -0.1194137 -0.08785838 -0.033598047 -0.03686397 -0.070474595 -0.095323846 0.08967396 -0.16167545 -0.0020299433 -0.16162859 -0.046512168 0.015386748 -0.1140395 0.025497347 0.29994494 -0.025864765 -0.21364908 -0.07786907 -0.118262894 0.09372762 -0.009155505 0.20227008 0.19196326 -0.30195567 -0.07181235 -0.15626304 0.08938556 0.2279393 0.14944656 0.09273081 0.08152991 0.14225338 0.14962696 -0.17462696 -0.18498302 0.049294308 -0.13032894 0.1374745 0.03456012 0.1726638 0.03756029 -0.024183068 0.08931348 -0.3260984 0.24986641 0.070604615 -0.22086866 0.18305823 0.2650072 0.12424446 -0.055624694 -0.029684525 0.13675714 -0.0025500674 0.09445373 -0.11329386 0.082315296 0.19053845 0.1066403 0.1640552 -0.115226805 -0.03477312 -0.07771575 0.05696909 0.2867136 0.117875226 0.027987447 0.15201522 -0.17666423 0.05089661 0.08702479 0.056662645 -0.11597747 -0.0125990715 0.04590172 -0.16742131 0.04624168 -0.13893928 -0.15520005 -0.029060304 0.13099301 0.055133753 0.22677782 0.028849337 -0.28283787 -0.14845952 0.13182142 0.018413467 0.028862186 -0.19610363 -0.14265385 -0.20152768 
http://dbpedia.org/resource/Shiv_Sena -0.051256437 0.05284829 0.06391005 0.081471056 -0.05718955 -0.02013801 0.13310334 0.23161368 -0.24010913 -0.15337074 0.1120375 -0.01029602 0.0023641463 0.1022825 -0.18875374 0.047755044 0.09163846 0.058359843 0.042205304 -0.4184698 0.07644752 0.06709597 0.20364366 0.15014061 0.10526778 0.059498034 -0.0011249908 0.09512715 -0.1956946 -0.008236222 -0.088141374 0.17809895 0.08433148 -0.08463991 0.086372204 -0.02032158 0.1169888 -0.098923296 -0.06539003 -0.10533832 -0.050119754 -0.13070853 -0.30127037 0.052294925 0.20852461 -0.06771414 -0.0022468555 -0.030781155 0.070107184 -0.0061704703 -0.1523609 0.06669079 -0.14765798 -0.17750204 0.04246608 -0.35321134 -0.24849491 -0.39491308 -0.050861083 0.07672956 -0.047904484 -0.07820398 0.1341307 -0.100493066 -0.29287615 0.110637255 -0.03311372 0.22275175 -0.032734327 0.20327409 0.025783785 0.34674364 -0.13110445 0.080979586 0.23224612 0.19688943 0.18407097 -0.0018024915 -0.039362527 -0.122053094 -0.015015699 -0.24074051 0.12528877 0.1896322 -0.31125695 -0.17177552 0.23000027 -0.04354148 -0.16042511 -0.06417844 0.06844163 0.13246265 0.12190624 0.115736306 0.22763805 0.0011259924 0.17610005 0.043205537 -0.062815286 0.12924324 -0.123291016 0.35311183 0.030410677 -0.028973851 -0.04159556 -0.19586763 0.10180299 0.33278668 -0.15024924 -0.11091071 -0.04684114 -0.0636738 -0.09055817 -0.08432234 0.07226315 -0.1660345 0.00189681 -0.1846881 -0.090830036 -0.015610417 -0.1380384 0.031335324 0.3315178 -0.11276709 -0.2275102 -0.13873193 -0.13884209 0.14927125 -0.04942307 0.21460232 0.23540294 -0.33669835 -0.047752645 -0.20938669 0.049166147 0.2722211 0.1214413 0.10096446 0.06399008 0.1523509 0.17462145 -0.16220053 -0.17853731 0.058365185 -0.13114966 0.10630507 0.043352332 0.16468763 0.056673504 -0.040630028 0.116053335 -0.39834407 0.29568014 0.100281335 -0.25546613 0.2204137 0.23716517 0.14615713 -0.07275789 -0.035522554 0.16460298 0.014013183 0.1226836 -0.11206389 0.07860252 0.21017118 0.11163875 0.18414944 -0.10198565 -0.037859913 -0.04578234 0.059113573 0.3005401 0.12297812 0.046928227 0.20336404 -0.16303548 0.050940752 0.11318787 0.0021776448 -0.19228561 -0.013292516 -0.0040553263 -0.20266436 0.038940113 -0.15230067 -0.12993127 -0.051388957 0.19728273 0.06766006 0.26074687 0.040109444 -0.35168052 -0.18424259 0.12453563 -0.028092332 0.0016706581 -0.19053233 -0.16482559 -0.18057773 
